<?xml version="1.0"?>
<MethodSetup Method="BDT::BDTG">
  <GeneralInfo>
    <Info name="TMVA Release" value="4.2.0 [262656]"/>
    <Info name="ROOT Release" value="5.34/22 [336406]"/>
    <Info name="Creator" value="lcorpe"/>
    <Info name="Date" value="Mon Apr 13 09:59:45 2015"/>
    <Info name="Host" value="Linux cmsbuild11.cern.ch 2.6.32-504.1.3.el6.x86_64 #1 SMP Wed Nov 12 06:58:35 CET 2014 x86_64 x86_64 x86_64 GNU/Linux"/>
    <Info name="Dir" value="/afs/cern.ch/work/l/lcorpe/private/FLASH_Apr2015_2/CMSSW_7_4_0_pre9/src/flashgg/Taggers/test/MVATraining"/>
    <Info name="Training events" value="13730"/>
    <Info name="TrainingTime" value="1.16686800e+01"/>
    <Info name="AnalysisType" value="Classification"/>
  </GeneralInfo>
  <Options>
    <Option name="V" modified="Yes">False</Option>
    <Option name="VerbosityLevel" modified="No">Default</Option>
    <Option name="VarTransform" modified="No">None</Option>
    <Option name="H" modified="Yes">False</Option>
    <Option name="CreateMVAPdfs" modified="No">False</Option>
    <Option name="IgnoreNegWeightsInTraining" modified="No">False</Option>
    <Option name="NTrees" modified="Yes">1000</Option>
    <Option name="MaxDepth" modified="Yes">2</Option>
    <Option name="MinNodeSize" modified="No">5%</Option>
    <Option name="nCuts" modified="Yes">20</Option>
    <Option name="BoostType" modified="Yes">Grad</Option>
    <Option name="AdaBoostR2Loss" modified="No">quadratic</Option>
    <Option name="UseBaggedBoost" modified="No">True</Option>
    <Option name="Shrinkage" modified="Yes">3.000000e-01</Option>
    <Option name="AdaBoostBeta" modified="No">5.000000e-01</Option>
    <Option name="UseRandomisedTrees" modified="No">False</Option>
    <Option name="UseNvars" modified="No">3</Option>
    <Option name="UsePoissonNvars" modified="No">True</Option>
    <Option name="BaggedSampleFraction" modified="No">6.000000e-01</Option>
    <Option name="UseYesNoLeaf" modified="No">True</Option>
    <Option name="NegWeightTreatment" modified="No">ignorenegweightsintraining</Option>
    <Option name="Css" modified="No">1.000000e+00</Option>
    <Option name="Cts_sb" modified="No">1.000000e+00</Option>
    <Option name="Ctb_ss" modified="No">1.000000e+00</Option>
    <Option name="Cbb" modified="No">1.000000e+00</Option>
    <Option name="NodePurityLimit" modified="No">5.000000e-01</Option>
    <Option name="SeparationType" modified="Yes">giniindex</Option>
    <Option name="DoBoostMonitor" modified="No">False</Option>
    <Option name="UseFisherCuts" modified="No">False</Option>
    <Option name="MinLinCorrForFisher" modified="No">8.000000e-01</Option>
    <Option name="UseExclusiveVars" modified="No">False</Option>
    <Option name="DoPreselection" modified="No">False</Option>
    <Option name="SigToBkgFraction" modified="No">1.000000e+00</Option>
    <Option name="PruneMethod" modified="No">nopruning</Option>
    <Option name="PruneStrength" modified="No">0.000000e+00</Option>
    <Option name="PruningValFraction" modified="No">5.000000e-01</Option>
    <Option name="nEventsMin" modified="No">0</Option>
    <Option name="UseBaggedGrad" modified="Yes">True</Option>
    <Option name="GradBaggingFraction" modified="Yes">6.000000e-01</Option>
    <Option name="UseNTrainEvents" modified="No">0</Option>
    <Option name="NNodesMax" modified="Yes">5</Option>
  </Options>
  <Variables NVar="8">
    <Variable VarIndex="0" Expression="dijet_LeadJPt" Label="dijet_LeadJPt" Title="dijet_LeadJPt" Unit="" Internal="dijet_LeadJPt" Type="F" Min="1.00613375e+01" Max="6.51078735e+02"/>
    <Variable VarIndex="1" Expression="dijet_SubJPt" Label="dijet_SubJPt" Title="dijet_SubJPt" Unit="" Internal="dijet_SubJPt" Type="F" Min="1.00001402e+01" Max="3.25160217e+02"/>
    <Variable VarIndex="2" Expression="dijet_abs_dEta" Label="dijet_abs_dEta" Title="dijet_abs_dEta" Unit="" Internal="dijet_abs_dEta" Type="F" Min="4.90427017e-04" Max="8.79085541e+00"/>
    <Variable VarIndex="3" Expression="dijet_Mjj" Label="dijet_Mjj" Title="dijet_Mjj" Unit="" Internal="dijet_Mjj" Type="F" Min="6.52395821e+00" Max="3.49892969e+03"/>
    <Variable VarIndex="4" Expression="dijet_Zep" Label="dijet_Zep" Title="dijet_Zep" Unit="" Internal="dijet_Zep" Type="F" Min="1.54491441e-04" Max="9.32589245e+00"/>
    <Variable VarIndex="5" Expression="dijet_dPhi_trunc" Label="dijet_dPhi_trunc" Title="dijet_dPhi_trunc" Unit="" Internal="dijet_dPhi_trunc" Type="F" Min="2.29296944e-04" Max="2.91599989e+00"/>
    <Variable VarIndex="6" Expression="leadPho_PToM" Label="leadPho_PToM" Title="leadPho_PToM" Unit="" Internal="leadPho_PToM" Type="F" Min="6.72391355e-02" Max="7.46541061e+01"/>
    <Variable VarIndex="7" Expression="sublPho_PToM" Label="sublPho_PToM" Title="sublPho_PToM" Unit="" Internal="sublPho_PToM" Type="F" Min="2.43604220e-02" Max="4.09511986e+01"/>
  </Variables>
  <Spectators NSpec="0"/>
  <Classes NClass="2">
    <Class Name="Signal" Index="0"/>
    <Class Name="Background" Index="1"/>
  </Classes>
  <Transformations NTransformations="0"/>
  <MVAPdfs/>
  <Weights NTrees="1000" AnalysisType="1">
    <BinaryTree type="DecisionTree" boostWeight="1.0000000000000000e+00" itree="0">
      <Node pos="s" depth="0" NCoef="0" IVar="0" Cut="3.5152359008789062e+01" cType="1" res="-7.4161137454211712e-03" rms="4.9994498491287231e-01" purity="4.9258387088775635e-01" nType="0">
        <Node pos="l" depth="1" NCoef="0" IVar="3" Cut="1.7610864257812500e+02" cType="1" res="-3.0971720814704895e-01" rms="3.9252418279647827e-01" purity="1.9028277695178986e-01" nType="0">
          <Node pos="l" depth="2" NCoef="0" IVar="-1" Cut="0.0000000000000000e+00" cType="1" res="-6.7404918372631073e-02" rms="3.4216472506523132e-01" purity="1.3541352748870850e-01" nType="-99"/>
          <Node pos="r" depth="2" NCoef="0" IVar="-1" Cut="0.0000000000000000e+00" cType="1" res="-1.1421422474086285e-02" rms="4.9823400378227234e-01" purity="4.5801326632499695e-01" nType="-99"/>
        </Node>
        <Node pos="r" depth="1" NCoef="0" IVar="3" Cut="1.8179309082031250e+02" cType="1" res="2.5562527775764465e-01" rms="4.2971584200859070e-01" purity="7.5562530755996704e-01" nType="0">
          <Node pos="l" depth="2" NCoef="0" IVar="-1" Cut="0.0000000000000000e+00" cType="1" res="1.8931606784462929e-02" rms="4.9182912707328796e-01" purity="5.9002280235290527e-01" nType="-99"/>
          <Node pos="r" depth="2" NCoef="0" IVar="-1" Cut="0.0000000000000000e+00" cType="1" res="1.2458658218383789e-01" rms="2.9947140812873840e-01" purity="9.0039592981338501e-01" nType="-99"/>
        </Node>
      </Node>
    </BinaryTree>
    <BinaryTree type="DecisionTree" boostWeight="1.0000000000000000e+00" itree="1">
      <Node pos="s" depth="0" NCoef="0" IVar="0" Cut="4.0735275268554688e+01" cType="1" res="-1.6075305640697479e-02" rms="4.7757712006568909e-01" purity="4.9072897434234619e-01" nType="0">
        <Node pos="l" depth="1" NCoef="0" IVar="3" Cut="2.0352011108398438e+02" cType="1" res="-2.3295040428638458e-01" rms="4.2139804363250732e-01" purity="2.4450756609439850e-01" nType="0">
          <Node pos="l" depth="2" NCoef="0" IVar="-1" Cut="0.0000000000000000e+00" cType="1" res="-5.3672712296247482e-02" rms="3.8034033775329590e-01" purity="1.7890837788581848e-01" nType="-99"/>
          <Node pos="r" depth="2" NCoef="0" IVar="-1" Cut="0.0000000000000000e+00" cType="1" res="5.4094932973384857e-02" rms="4.6946060657501221e-01" purity="6.5378248691558838e-01" nType="-99"/>
        </Node>
        <Node pos="r" depth="1" NCoef="0" IVar="3" Cut="3.4868273925781250e+02" cType="1" res="2.2644318640232086e-01" rms="4.1610530018806458e-01" purity="7.6606374979019165e-01" nType="0">
          <Node pos="l" depth="2" NCoef="0" IVar="-1" Cut="0.0000000000000000e+00" cType="1" res="3.1121015548706055e-02" rms="4.6929496526718140e-01" purity="6.6398388147354126e-01" nType="-99"/>
          <Node pos="r" depth="2" NCoef="0" IVar="-1" Cut="0.0000000000000000e+00" cType="1" res="1.2038421630859375e-01" rms="2.4184356629848480e-01" purity="9.3762052059173584e-01" nType="-99"/>
        </Node>
      </Node>
    </BinaryTree>
    <BinaryTree type="DecisionTree" boostWeight="1.0000000000000000e+00" itree="2">
      <Node pos="s" depth="0" NCoef="0" IVar="0" Cut="3.4164813995361328e+01" cType="1" res="-1.6127295792102814e-02" rms="4.5913186669349670e-01" purity="4.9520078301429749e-01" nType="0">
        <Node pos="l" depth="1" NCoef="0" IVar="1" Cut="1.6700130462646484e+01" cType="1" res="-2.5341367721557617e-01" rms="3.9091888070106506e-01" purity="1.9851343333721161e-01" nType="0">
          <Node pos="l" depth="2" NCoef="0" IVar="-1" Cut="0.0000000000000000e+00" cType="1" res="-6.0404308140277863e-02" rms="3.1501609086990356e-01" purity="1.1482696235179901e-01" nType="-99"/>
          <Node pos="r" depth="2" NCoef="0" IVar="-1" Cut="0.0000000000000000e+00" cType="1" res="-2.1655198186635971e-02" rms="4.7458815574645996e-01" purity="3.8277831673622131e-01" nType="-99"/>
        </Node>
        <Node pos="r" depth="1" NCoef="0" IVar="3" Cut="1.8156787109375000e+02" cType="1" res="1.7585358023643494e-01" rms="4.1869366168975830e-01" purity="7.3524111509323120e-01" nType="0">
          <Node pos="l" depth="2" NCoef="0" IVar="-1" Cut="0.0000000000000000e+00" cType="1" res="2.7993235271424055e-03" rms="4.9488374590873718e-01" purity="5.2676016092300415e-01" nType="-99"/>
          <Node pos="r" depth="2" NCoef="0" IVar="-1" Cut="0.0000000000000000e+00" cType="1" res="1.1384554952383041e-01" rms="2.5691097974777222e-01" purity="9.2590564489364624e-01" nType="-99"/>
        </Node>
      </Node>
    </BinaryTree>
    <BinaryTree type="DecisionTree" boostWeight="1.0000000000000000e+00" itree="3">
      <Node pos="s" depth="0" NCoef="0" IVar="0" Cut="3.5112884521484375e+01" cType="1" res="-2.4306150153279305e-03" rms="4.4389417767524719e-01" purity="5.1529598236083984e-01" nType="0">
        <Node pos="l" depth="1" NCoef="0" IVar="1" Cut="2.0505294799804688e+01" cType="1" res="-2.1759065985679626e-01" rms="3.9600062370300293e-01" purity="2.1113619208335876e-01" nType="0">
          <Node pos="l" depth="2" NCoef="0" IVar="-1" Cut="0.0000000000000000e+00" cType="1" res="-5.3790438920259476e-02" rms="3.5161897540092468e-01" purity="1.5290597081184387e-01" nType="-99"/>
          <Node pos="r" depth="2" NCoef="0" IVar="-1" Cut="0.0000000000000000e+00" cType="1" res="1.4037982560694218e-02" rms="4.8595046997070312e-01" purity="5.0057655572891235e-01" nType="-99"/>
        </Node>
        <Node pos="r" depth="1" NCoef="0" IVar="2" Cut="1.6750357151031494e+00" cType="1" res="1.7746038734912872e-01" rms="3.9950931072235107e-01" purity="7.6959788799285889e-01" nType="0">
          <Node pos="l" depth="2" NCoef="0" IVar="-1" Cut="0.0000000000000000e+00" cType="1" res="9.0300934389233589e-03" rms="4.9236053228378296e-01" purity="5.7186925411224365e-01" nType="-99"/>
          <Node pos="r" depth="2" NCoef="0" IVar="-1" Cut="0.0000000000000000e+00" cType="1" res="8.7191201746463776e-02" rms="3.1863784790039062e-01" purity="8.7535393238067627e-01" nType="-99"/>
        </Node>
      </Node>
    </BinaryTree>
    <BinaryTree type="DecisionTree" boostWeight="1.0000000000000000e+00" itree="4">
      <Node pos="s" depth="0" NCoef="0" IVar="0" Cut="4.0585975646972656e+01" cType="1" res="-3.3740006387233734e-02" rms="4.2774081230163574e-01" purity="4.8996859788894653e-01" nType="0">
        <Node pos="l" depth="1" NCoef="0" IVar="0" Cut="2.7473091125488281e+01" cType="1" res="-2.0274631679058075e-01" rms="3.9145073294639587e-01" purity="2.2457031905651093e-01" nType="0">
          <Node pos="l" depth="2" NCoef="0" IVar="-1" Cut="0.0000000000000000e+00" cType="1" res="-5.3196229040622711e-02" rms="3.2655003666877747e-01" purity="1.2833972275257111e-01" nType="-99"/>
          <Node pos="r" depth="2" NCoef="0" IVar="-1" Cut="0.0000000000000000e+00" cType="1" res="-1.1969362385571003e-02" rms="4.7171276807785034e-01" purity="4.3577182292938232e-01" nType="-99"/>
        </Node>
        <Node pos="r" depth="1" NCoef="0" IVar="3" Cut="3.4743597412109375e+02" cType="1" res="1.5550461411476135e-01" rms="3.8529679179191589e-01" purity="7.8714793920516968e-01" nType="0">
          <Node pos="l" depth="2" NCoef="0" IVar="-1" Cut="0.0000000000000000e+00" cType="1" res="2.2380152717232704e-02" rms="4.5750659704208374e-01" purity="6.7664134502410889e-01" nType="-99"/>
          <Node pos="r" depth="2" NCoef="0" IVar="-1" Cut="0.0000000000000000e+00" cType="1" res="1.0489687323570251e-01" rms="1.9302478432655334e-01" purity="9.6127265691757202e-01" nType="-99"/>
        </Node>
      </Node>
    </BinaryTree>
    <BinaryTree type="DecisionTree" boostWeight="1.0000000000000000e+00" itree="5">
      <Node pos="s" depth="0" NCoef="0" IVar="0" Cut="3.5112884521484375e+01" cType="1" res="-1.3443326577544212e-02" rms="4.1860610246658325e-01" purity="5.1380521059036255e-01" nType="0">
        <Node pos="l" depth="1" NCoef="0" IVar="3" Cut="1.6266027832031250e+02" cType="1" res="-1.8060170114040375e-01" rms="3.8968747854232788e-01" purity="2.0669431984424591e-01" nType="0">
          <Node pos="l" depth="2" NCoef="0" IVar="-1" Cut="0.0000000000000000e+00" cType="1" res="-4.8416770994663239e-02" rms="3.4386143088340759e-01" purity="1.4114202558994293e-01" nType="-99"/>
          <Node pos="r" depth="2" NCoef="0" IVar="-1" Cut="0.0000000000000000e+00" cType="1" res="1.6125475987792015e-02" rms="4.8666936159133911e-01" purity="5.0317233800888062e-01" nType="-99"/>
        </Node>
        <Node pos="r" depth="1" NCoef="0" IVar="3" Cut="1.8179002380371094e+02" cType="1" res="1.2665623426437378e-01" rms="3.8958352804183960e-01" purity="7.7120244503021240e-01" nType="0">
          <Node pos="l" depth="2" NCoef="0" IVar="-1" Cut="0.0000000000000000e+00" cType="1" res="8.2711260765790939e-03" rms="4.8943570256233215e-01" purity="5.8458566665649414e-01" nType="-99"/>
          <Node pos="r" depth="2" NCoef="0" IVar="-1" Cut="0.0000000000000000e+00" cType="1" res="8.0121561884880066e-02" rms="2.6788997650146484e-01" purity="9.1858100891113281e-01" nType="-99"/>
        </Node>
      </Node>
    </BinaryTree>
    <BinaryTree type="DecisionTree" boostWeight="1.0000000000000000e+00" itree="6">
      <Node pos="s" depth="0" NCoef="0" IVar="1" Cut="1.9121507644653320e+01" cType="1" res="-1.5066530555486679e-02" rms="4.1181585192680359e-01" purity="5.1328963041305542e-01" nType="0">
        <Node pos="l" depth="1" NCoef="0" IVar="0" Cut="4.3075092315673828e+01" cType="1" res="-1.5790927410125732e-01" rms="3.9061295986175537e-01" purity="2.6169407367706299e-01" nType="0">
          <Node pos="l" depth="2" NCoef="0" IVar="-1" Cut="0.0000000000000000e+00" cType="1" res="-4.2893212288618088e-02" rms="3.6161449551582336e-01" purity="1.7025579512119293e-01" nType="-99"/>
          <Node pos="r" depth="2" NCoef="0" IVar="-1" Cut="0.0000000000000000e+00" cType="1" res="1.5185348689556122e-02" rms="4.4422909617424011e-01" purity="6.8837398290634155e-01" nType="-99"/>
        </Node>
        <Node pos="r" depth="1" NCoef="0" IVar="5" Cut="2.5002641677856445e+00" cType="1" res="1.1286631971597672e-01" rms="3.8754239678382874e-01" purity="7.3862379789352417e-01" nType="0">
          <Node pos="l" depth="2" NCoef="0" IVar="-1" Cut="0.0000000000000000e+00" cType="1" res="-1.1199388653039932e-02" rms="4.5978656411170959e-01" purity="5.1272469758987427e-01" nType="-99"/>
          <Node pos="r" depth="2" NCoef="0" IVar="-1" Cut="0.0000000000000000e+00" cType="1" res="4.8204448074102402e-02" rms="3.5645800828933716e-01" purity="7.9646128416061401e-01" nType="-99"/>
        </Node>
      </Node>
    </BinaryTree>
    <BinaryTree type="DecisionTree" boostWeight="1.0000000000000000e+00" itree="7">
      <Node pos="s" depth="0" NCoef="0" IVar="0" Cut="3.2661983489990234e+01" cType="1" res="-2.7876680716872215e-02" rms="4.0398934483528137e-01" purity="5.0116074085235596e-01" nType="0">
        <Node pos="l" depth="1" NCoef="0" IVar="3" Cut="1.6350785827636719e+02" cType="1" res="-1.7564335465431213e-01" rms="3.6610788106918335e-01" purity="1.8001012504100800e-01" nType="0">
          <Node pos="l" depth="2" NCoef="0" IVar="-1" Cut="0.0000000000000000e+00" cType="1" res="-4.5030698180198669e-02" rms="3.2458755373954773e-01" purity="1.2327551841735840e-01" nType="-99"/>
          <Node pos="r" depth="2" NCoef="0" IVar="-1" Cut="0.0000000000000000e+00" cType="1" res="7.1275709196925163e-03" rms="4.8121571540832520e-01" purity="4.6477425098419189e-01" nType="-99"/>
        </Node>
        <Node pos="r" depth="1" NCoef="0" IVar="0" Cut="5.4191741943359375e+01" cType="1" res="8.2287773489952087e-02" rms="3.9565321803092957e-01" purity="7.4058812856674194e-01" nType="0">
          <Node pos="l" depth="2" NCoef="0" IVar="-1" Cut="0.0000000000000000e+00" cType="1" res="-4.7126696445047855e-03" rms="4.4936025142669678e-01" purity="5.7940781116485596e-01" nType="-99"/>
          <Node pos="r" depth="2" NCoef="0" IVar="-1" Cut="0.0000000000000000e+00" cType="1" res="5.2628140896558762e-02" rms="3.3977574110031128e-01" purity="8.4634816646575928e-01" nType="-99"/>
        </Node>
      </Node>
    </BinaryTree>
    <BinaryTree type="DecisionTree" boostWeight="1.0000000000000000e+00" itree="8">
      <Node pos="s" depth="0" NCoef="0" IVar="3" Cut="1.6145025634765625e+02" cType="1" res="-1.9569920375943184e-02" rms="4.0165919065475464e-01" purity="5.1464438438415527e-01" nType="0">
        <Node pos="l" depth="1" NCoef="0" IVar="0" Cut="4.9788143157958984e+01" cType="1" res="-1.0666276514530182e-01" rms="4.1649508476257324e-01" purity="3.1322851777076721e-01" nType="0">
          <Node pos="l" depth="2" NCoef="0" IVar="-1" Cut="0.0000000000000000e+00" cType="1" res="-3.4333985298871994e-02" rms="3.8274413347244263e-01" purity="2.0801325142383575e-01" nType="-99"/>
          <Node pos="r" depth="2" NCoef="0" IVar="-1" Cut="0.0000000000000000e+00" cType="1" res="1.7418604344129562e-02" rms="4.6969690918922424e-01" purity="6.6674673557281494e-01" nType="-99"/>
        </Node>
        <Node pos="r" depth="1" NCoef="0" IVar="5" Cut="2.3653535842895508e+00" cType="1" res="1.1416112631559372e-01" rms="3.3639430999755859e-01" purity="8.2391840219497681e-01" nType="0">
          <Node pos="l" depth="2" NCoef="0" IVar="-1" Cut="0.0000000000000000e+00" cType="1" res="-3.5454593598842621e-02" rms="4.6157151460647583e-01" purity="4.6637487411499023e-01" nType="-99"/>
          <Node pos="r" depth="2" NCoef="0" IVar="-1" Cut="0.0000000000000000e+00" cType="1" res="6.9077432155609131e-02" rms="2.9336422681808472e-01" purity="8.8330388069152832e-01" nType="-99"/>
        </Node>
      </Node>
    </BinaryTree>
    <BinaryTree type="DecisionTree" boostWeight="1.0000000000000000e+00" itree="9">
      <Node pos="s" depth="0" NCoef="0" IVar="3" Cut="3.3913403320312500e+02" cType="1" res="-2.4605598300695419e-02" rms="3.9892935752868652e-01" purity="5.1287752389907837e-01" nType="0">
        <Node pos="l" depth="1" NCoef="0" IVar="0" Cut="5.8268295288085938e+01" cType="1" res="-7.9579107463359833e-02" rms="4.2083552479743958e-01" purity="3.8785907626152039e-01" nType="0">
          <Node pos="l" depth="2" NCoef="0" IVar="-1" Cut="0.0000000000000000e+00" cType="1" res="-2.9127759858965874e-02" rms="4.0526559948921204e-01" purity="2.7783340215682983e-01" nType="-99"/>
          <Node pos="r" depth="2" NCoef="0" IVar="-1" Cut="0.0000000000000000e+00" cType="1" res="2.1667141467332840e-02" rms="4.3353787064552307e-01" purity="7.4616301059722900e-01" nType="-99"/>
        </Node>
        <Node pos="r" depth="1" NCoef="0" IVar="3" Cut="4.8968551635742188e+02" cType="1" res="1.6501845419406891e-01" rms="2.2543197870254517e-01" purity="9.4411259889602661e-01" nType="0">
          <Node pos="l" depth="2" NCoef="0" IVar="-1" Cut="0.0000000000000000e+00" cType="1" res="5.2918035537004471e-02" rms="3.2122537493705750e-01" purity="8.6757981777191162e-01" nType="-99"/>
          <Node pos="r" depth="2" NCoef="0" IVar="-1" Cut="0.0000000000000000e+00" cType="1" res="1.1315914988517761e-01" rms="1.5000851452350616e-01" purity="9.8140221834182739e-01" nType="-99"/>
        </Node>
      </Node>
    </BinaryTree>
    <BinaryTree type="DecisionTree" boostWeight="1.0000000000000000e+00" itree="10">
      <Node pos="s" depth="0" NCoef="0" IVar="1" Cut="2.5012681961059570e+01" cType="1" res="-4.5424744486808777e-02" rms="3.9474180340766907e-01" purity="4.8118028044700623e-01" nType="0">
        <Node pos="l" depth="1" NCoef="0" IVar="1" Cut="1.4291454315185547e+01" cType="1" res="-1.0703159868717194e-01" rms="3.9330777525901794e-01" purity="3.1217426061630249e-01" nType="0">
          <Node pos="l" depth="2" NCoef="0" IVar="-1" Cut="0.0000000000000000e+00" cType="1" res="-4.0378227829933167e-02" rms="3.0899035930633545e-01" purity="1.5314173698425293e-01" nType="-99"/>
          <Node pos="r" depth="2" NCoef="0" IVar="-1" Cut="0.0000000000000000e+00" cType="1" res="-1.2389433570206165e-02" rms="4.3175634741783142e-01" purity="4.2126646637916565e-01" nType="-99"/>
        </Node>
        <Node pos="r" depth="1" NCoef="0" IVar="5" Cut="2.7789287567138672e+00" cType="1" res="6.2239006161689758e-02" rms="3.7359294295310974e-01" purity="7.7653419971466064e-01" nType="0">
          <Node pos="l" depth="2" NCoef="0" IVar="-1" Cut="0.0000000000000000e+00" cType="1" res="-8.0503737553954124e-03" rms="4.4977521896362305e-01" purity="6.0622829198837280e-01" nType="-99"/>
          <Node pos="r" depth="2" NCoef="0" IVar="-1" Cut="0.0000000000000000e+00" cType="1" res="3.4879893064498901e-02" rms="3.3883830904960632e-01" purity="8.3314311504364014e-01" nType="-99"/>
        </Node>
      </Node>
    </BinaryTree>
    <BinaryTree type="DecisionTree" boostWeight="1.0000000000000000e+00" itree="11">
      <Node pos="s" depth="0" NCoef="0" IVar="3" Cut="1.7352328491210938e+02" cType="1" res="-2.3728460073471069e-02" rms="3.8387423753738403e-01" purity="4.9702426791191101e-01" nType="0">
        <Node pos="l" depth="1" NCoef="0" IVar="0" Cut="5.8268295288085938e+01" cType="1" res="-8.7172143161296844e-02" rms="4.0309885144233704e-01" purity="3.0307248234748840e-01" nType="0">
          <Node pos="l" depth="2" NCoef="0" IVar="-1" Cut="0.0000000000000000e+00" cType="1" res="-2.7382060885429382e-02" rms="3.8359606266021729e-01" purity="2.2053714096546173e-01" nType="-99"/>
          <Node pos="r" depth="2" NCoef="0" IVar="-1" Cut="0.0000000000000000e+00" cType="1" res="2.9455272480845451e-02" rms="4.4174665212631226e-01" purity="7.2900086641311646e-01" nType="-99"/>
        </Node>
        <Node pos="r" depth="1" NCoef="0" IVar="3" Cut="4.9023394775390625e+02" cType="1" res="8.6288042366504669e-02" rms="3.1943792104721069e-01" purity="8.3335244655609131e-01" nType="0">
          <Node pos="l" depth="2" NCoef="0" IVar="-1" Cut="0.0000000000000000e+00" cType="1" res="1.5473970212042332e-02" rms="3.8892129063606262e-01" purity="7.3507034778594971e-01" nType="-99"/>
          <Node pos="r" depth="2" NCoef="0" IVar="-1" Cut="0.0000000000000000e+00" cType="1" res="1.0635999590158463e-01" rms="1.3366536796092987e-01" purity="9.8535263538360596e-01" nType="-99"/>
        </Node>
      </Node>
    </BinaryTree>
    <BinaryTree type="DecisionTree" boostWeight="1.0000000000000000e+00" itree="12">
      <Node pos="s" depth="0" NCoef="0" IVar="3" Cut="1.6214456176757812e+02" cType="1" res="-2.3432513698935509e-02" rms="3.8703158497810364e-01" purity="5.0166821479797363e-01" nType="0">
        <Node pos="l" depth="1" NCoef="0" IVar="1" Cut="1.5915049552917480e+01" cType="1" res="-8.2626417279243469e-02" rms="4.1336414217948914e-01" purity="3.0051940679550171e-01" nType="0">
          <Node pos="l" depth="2" NCoef="0" IVar="-1" Cut="0.0000000000000000e+00" cType="1" res="-3.1587608158588409e-02" rms="3.3492338657379150e-01" purity="1.6124196350574493e-01" nType="-99"/>
          <Node pos="r" depth="2" NCoef="0" IVar="-1" Cut="0.0000000000000000e+00" cType="1" res="-7.5608012266457081e-03" rms="4.6557861566543579e-01" purity="4.2203420400619507e-01" nType="-99"/>
        </Node>
        <Node pos="r" depth="1" NCoef="0" IVar="5" Cut="2.3620307445526123e+00" cType="1" res="6.9917447865009308e-02" rms="3.1986793875694275e-01" purity="8.1888377666473389e-01" nType="0">
          <Node pos="l" depth="2" NCoef="0" IVar="-1" Cut="0.0000000000000000e+00" cType="1" res="-2.9053237289190292e-02" rms="4.4062530994415283e-01" purity="4.6709421277046204e-01" nType="-99"/>
          <Node pos="r" depth="2" NCoef="0" IVar="-1" Cut="0.0000000000000000e+00" cType="1" res="5.1481351256370544e-02" rms="2.8488153219223022e-01" purity="8.7844103574752808e-01" nType="-99"/>
        </Node>
      </Node>
    </BinaryTree>
    <BinaryTree type="DecisionTree" boostWeight="1.0000000000000000e+00" itree="13">
      <Node pos="s" depth="0" NCoef="0" IVar="1" Cut="1.8718488693237305e+01" cType="1" res="-3.5582043230533600e-02" rms="3.8493266701698303e-01" purity="4.8737797141075134e-01" nType="0">
        <Node pos="l" depth="1" NCoef="0" IVar="1" Cut="1.4980709075927734e+01" cType="1" res="-1.1895517259836197e-01" rms="3.6948564648628235e-01" purity="2.4198478460311890e-01" nType="0">
          <Node pos="l" depth="2" NCoef="0" IVar="-1" Cut="0.0000000000000000e+00" cType="1" res="-3.5138692706823349e-02" rms="3.3267888426780701e-01" purity="1.8233494460582733e-01" nType="-99"/>
          <Node pos="r" depth="2" NCoef="0" IVar="-1" Cut="0.0000000000000000e+00" cType="1" res="-1.8957754597067833e-02" rms="4.2083430290222168e-01" purity="3.4549859166145325e-01" nType="-99"/>
        </Node>
        <Node pos="r" depth="1" NCoef="0" IVar="2" Cut="2.9306120872497559e+00" cType="1" res="3.9534244686365128e-02" rms="3.8310235738754272e-01" purity="7.0846879482269287e-01" nType="0">
          <Node pos="l" depth="2" NCoef="0" IVar="-1" Cut="0.0000000000000000e+00" cType="1" res="-5.5434722453355789e-03" rms="4.6152725815773010e-01" purity="5.3115439414978027e-01" nType="-99"/>
          <Node pos="r" depth="2" NCoef="0" IVar="-1" Cut="0.0000000000000000e+00" cType="1" res="6.3846178352832794e-02" rms="2.6461806893348694e-01" purity="8.9143967628479004e-01" nType="-99"/>
        </Node>
      </Node>
    </BinaryTree>
    <BinaryTree type="DecisionTree" boostWeight="1.0000000000000000e+00" itree="14">
      <Node pos="s" depth="0" NCoef="0" IVar="1" Cut="2.5012283325195312e+01" cType="1" res="-3.0605029314756393e-02" rms="3.8297930359840393e-01" purity="4.9711233377456665e-01" nType="0">
        <Node pos="l" depth="1" NCoef="0" IVar="0" Cut="3.0278621673583984e+01" cType="1" res="-7.7657893300056458e-02" rms="3.9025312662124634e-01" purity="3.3059123158454895e-01" nType="0">
          <Node pos="l" depth="2" NCoef="0" IVar="-1" Cut="0.0000000000000000e+00" cType="1" res="-3.3519007265567780e-02" rms="3.3843821287155151e-01" purity="1.5321910381317139e-01" nType="-99"/>
          <Node pos="r" depth="2" NCoef="0" IVar="-1" Cut="0.0000000000000000e+00" cType="1" res="-3.8335288409143686e-03" rms="4.4487699866294861e-01" purity="5.7572245597839355e-01" nType="-99"/>
        </Node>
        <Node pos="r" depth="1" NCoef="0" IVar="2" Cut="3.0587577819824219e+00" cType="1" res="5.3070195019245148e-02" rms="3.5458776354789734e-01" purity="7.9324060678482056e-01" nType="0">
          <Node pos="l" depth="2" NCoef="0" IVar="-1" Cut="0.0000000000000000e+00" cType="1" res="5.5046626366674900e-03" rms="4.4989559054374695e-01" purity="6.4471387863159180e-01" nType="-99"/>
          <Node pos="r" depth="2" NCoef="0" IVar="-1" Cut="0.0000000000000000e+00" cType="1" res="6.1125800013542175e-02" rms="2.1837113797664642e-01" purity="9.4073653221130371e-01" nType="-99"/>
        </Node>
      </Node>
    </BinaryTree>
    <BinaryTree type="DecisionTree" boostWeight="1.0000000000000000e+00" itree="15">
      <Node pos="s" depth="0" NCoef="0" IVar="3" Cut="4.2361779785156250e+02" cType="1" res="-3.0105944722890854e-02" rms="3.8726314902305603e-01" purity="4.8787084221839905e-01" nType="0">
        <Node pos="l" depth="1" NCoef="0" IVar="1" Cut="1.9127880096435547e+01" cType="1" res="-5.4503716528415680e-02" rms="4.1207006573677063e-01" purity="3.9532932639122009e-01" nType="0">
          <Node pos="l" depth="2" NCoef="0" IVar="-1" Cut="0.0000000000000000e+00" cType="1" res="-2.3779468610882759e-02" rms="3.7085795402526855e-01" purity="2.2491365671157837e-01" nType="-99"/>
          <Node pos="r" depth="2" NCoef="0" IVar="-1" Cut="0.0000000000000000e+00" cType="1" res="-1.0669507319107652e-03" rms="4.5233991742134094e-01" purity="6.0351008176803589e-01" nType="-99"/>
        </Node>
        <Node pos="r" depth="1" NCoef="0" IVar="1" Cut="3.4240066528320312e+01" cType="1" res="9.7108840942382812e-02" rms="1.6520616412162781e-01" purity="9.7040069103240967e-01" nType="0">
          <Node pos="l" depth="2" NCoef="0" IVar="-1" Cut="0.0000000000000000e+00" cType="1" res="8.4457337856292725e-02" rms="2.0277427136898041e-01" purity="9.5292127132415771e-01" nType="-99"/>
          <Node pos="r" depth="2" NCoef="0" IVar="-1" Cut="0.0000000000000000e+00" cType="1" res="8.3975084125995636e-02" rms="1.2000841647386551e-01" purity="9.8522913455963135e-01" nType="-99"/>
        </Node>
      </Node>
    </BinaryTree>
    <BinaryTree type="DecisionTree" boostWeight="1.0000000000000000e+00" itree="16">
      <Node pos="s" depth="0" NCoef="0" IVar="3" Cut="3.1757046508789062e+02" cType="1" res="-2.6309737935662270e-02" rms="3.8259819149971008e-01" purity="4.9096786975860596e-01" nType="0">
        <Node pos="l" depth="1" NCoef="0" IVar="0" Cut="4.4555255889892578e+01" cType="1" res="-5.3017340600490570e-02" rms="4.1246056556701660e-01" purity="3.6415120959281921e-01" nType="0">
          <Node pos="l" depth="2" NCoef="0" IVar="-1" Cut="0.0000000000000000e+00" cType="1" res="-2.3006316274404526e-02" rms="3.8322398066520691e-01" purity="2.1246351301670074e-01" nType="-99"/>
          <Node pos="r" depth="2" NCoef="0" IVar="-1" Cut="0.0000000000000000e+00" cType="1" res="6.7870151251554489e-03" rms="4.5623987913131714e-01" purity="6.7350906133651733e-01" nType="-99"/>
        </Node>
        <Node pos="r" depth="1" NCoef="0" IVar="7" Cut="2.8746107220649719e-01" cType="1" res="6.5013021230697632e-02" rms="2.3327891528606415e-01" purity="9.2459899187088013e-01" nType="0">
          <Node pos="l" depth="2" NCoef="0" IVar="-1" Cut="0.0000000000000000e+00" cType="1" res="1.4185686595737934e-02" rms="2.7888929843902588e-01" purity="8.6849683523178101e-01" nType="-99"/>
          <Node pos="r" depth="2" NCoef="0" IVar="-1" Cut="0.0000000000000000e+00" cType="1" res="6.2089990824460983e-02" rms="2.0883233845233917e-01" purity="9.4771742820739746e-01" nType="-99"/>
        </Node>
      </Node>
    </BinaryTree>
    <BinaryTree type="DecisionTree" boostWeight="1.0000000000000000e+00" itree="17">
      <Node pos="s" depth="0" NCoef="0" IVar="0" Cut="4.0585975646972656e+01" cType="1" res="-2.0819541066884995e-02" rms="3.7987849116325378e-01" purity="4.9231237173080444e-01" nType="0">
        <Node pos="l" depth="1" NCoef="0" IVar="0" Cut="2.4582908630371094e+01" cType="1" res="-7.0068493485450745e-02" rms="3.7349274754524231e-01" purity="2.3957850039005280e-01" nType="0">
          <Node pos="l" depth="2" NCoef="0" IVar="-1" Cut="0.0000000000000000e+00" cType="1" res="-3.6400981247425079e-02" rms="3.1220489740371704e-01" purity="1.1666628718376160e-01" nType="-99"/>
          <Node pos="r" depth="2" NCoef="0" IVar="-1" Cut="0.0000000000000000e+00" cType="1" res="-2.5536448811180890e-04" rms="4.3344491720199585e-01" purity="4.0533605217933655e-01" nType="-99"/>
        </Node>
        <Node pos="r" depth="1" NCoef="0" IVar="4" Cut="2.0456490516662598e+00" cType="1" res="3.4632906317710876e-02" rms="3.7936595082283020e-01" purity="7.7688103914260864e-01" nType="0">
          <Node pos="l" depth="2" NCoef="0" IVar="-1" Cut="0.0000000000000000e+00" cType="1" res="1.9482632633298635e-03" rms="3.6626332998275757e-01" purity="7.6654928922653198e-01" nType="-99"/>
          <Node pos="r" depth="2" NCoef="0" IVar="-1" Cut="0.0000000000000000e+00" cType="1" res="4.8270016908645630e-02" rms="4.0177065134048462e-01" purity="8.0366176366806030e-01" nType="-99"/>
        </Node>
      </Node>
    </BinaryTree>
    <BinaryTree type="DecisionTree" boostWeight="1.0000000000000000e+00" itree="18">
      <Node pos="s" depth="0" NCoef="0" IVar="0" Cut="3.5151573181152344e+01" cType="1" res="-2.1428212523460388e-02" rms="3.7537559866905212e-01" purity="4.9649864435195923e-01" nType="0">
        <Node pos="l" depth="1" NCoef="0" IVar="0" Cut="1.6064167022705078e+01" cType="1" res="-7.1829795837402344e-02" rms="3.5307687520980835e-01" purity="1.9645023345947266e-01" nType="0">
          <Node pos="l" depth="2" NCoef="0" IVar="-1" Cut="0.0000000000000000e+00" cType="1" res="-4.7329951077699661e-02" rms="1.8084186315536499e-01" purity="3.4343879669904709e-02" nType="-99"/>
          <Node pos="r" depth="2" NCoef="0" IVar="-1" Cut="0.0000000000000000e+00" cType="1" res="-1.1334296315908432e-02" rms="3.8769450783729553e-01" purity="2.4946573376655579e-01" nType="-99"/>
        </Node>
        <Node pos="r" depth="1" NCoef="0" IVar="4" Cut="3.1785595417022705e+00" cType="1" res="2.0016444846987724e-02" rms="3.8788810372352600e-01" purity="7.4322509765625000e-01" nType="0">
          <Node pos="l" depth="2" NCoef="0" IVar="-1" Cut="0.0000000000000000e+00" cType="1" res="2.1862064022570848e-03" rms="3.8130280375480652e-01" purity="7.4326044321060181e-01" nType="-99"/>
          <Node pos="r" depth="2" NCoef="0" IVar="-1" Cut="0.0000000000000000e+00" cType="1" res="3.7678953260183334e-02" rms="4.1889655590057373e-01" purity="7.4298363924026489e-01" nType="-99"/>
        </Node>
      </Node>
    </BinaryTree>
    <BinaryTree type="DecisionTree" boostWeight="1.0000000000000000e+00" itree="19">
      <Node pos="s" depth="0" NCoef="0" IVar="5" Cut="2.3616092205047607e+00" cType="1" res="-1.2743519619107246e-02" rms="3.7558582425117493e-01" purity="5.0261330604553223e-01" nType="0">
        <Node pos="l" depth="1" NCoef="0" IVar="4" Cut="8.0859786272048950e-01" cType="1" res="-9.6515126526355743e-02" rms="3.7100717425346375e-01" purity="2.3747184872627258e-01" nType="0">
          <Node pos="l" depth="2" NCoef="0" IVar="-1" Cut="0.0000000000000000e+00" cType="1" res="-4.6250134706497192e-02" rms="3.9032247662544250e-01" purity="1.7870068550109863e-01" nType="-99"/>
          <Node pos="r" depth="2" NCoef="0" IVar="-1" Cut="0.0000000000000000e+00" cType="1" res="-2.3859037086367607e-02" rms="3.6217346787452698e-01" purity="2.5168901681900024e-01" nType="-99"/>
        </Node>
        <Node pos="r" depth="1" NCoef="0" IVar="0" Cut="7.1173675537109375e+01" cType="1" res="1.6083676367998123e-02" rms="3.7282049655914307e-01" purity="5.9385293722152710e-01" nType="0">
          <Node pos="l" depth="2" NCoef="0" IVar="-1" Cut="0.0000000000000000e+00" cType="1" res="-1.6650556353852153e-03" rms="3.9782521128654480e-01" purity="4.7520792484283447e-01" nType="-99"/>
          <Node pos="r" depth="2" NCoef="0" IVar="-1" Cut="0.0000000000000000e+00" cType="1" res="3.9479803293943405e-02" rms="2.9334416985511780e-01" purity="8.9358705282211304e-01" nType="-99"/>
        </Node>
      </Node>
    </BinaryTree>
    <BinaryTree type="DecisionTree" boostWeight="1.0000000000000000e+00" itree="20">
      <Node pos="s" depth="0" NCoef="0" IVar="5" Cut="2.3606150150299072e+00" cType="1" res="1.5302399406209588e-03" rms="3.6590379476547241e-01" purity="5.1593911647796631e-01" nType="0">
        <Node pos="l" depth="1" NCoef="0" IVar="2" Cut="1.1227256059646606e+00" cType="1" res="-8.4861531853675842e-02" rms="3.6538317799568176e-01" purity="2.2686575353145599e-01" nType="0">
          <Node pos="l" depth="2" NCoef="0" IVar="-1" Cut="0.0000000000000000e+00" cType="1" res="-3.3111631870269775e-02" rms="3.3446443080902100e-01" purity="1.6288010776042938e-01" nType="-99"/>
          <Node pos="r" depth="2" NCoef="0" IVar="-1" Cut="0.0000000000000000e+00" cType="1" res="-2.3035403341054916e-02" rms="3.7650224566459656e-01" purity="2.5302293896675110e-01" nType="-99"/>
        </Node>
        <Node pos="r" depth="1" NCoef="0" IVar="0" Cut="3.0996826171875000e+01" cType="1" res="3.0908867716789246e-02" rms="3.6140543222427368e-01" purity="6.1424219608306885e-01" nType="0">
          <Node pos="l" depth="2" NCoef="0" IVar="-1" Cut="0.0000000000000000e+00" cType="1" res="-1.0677076876163483e-02" rms="3.6864310503005981e-01" purity="2.2068931162357330e-01" nType="-99"/>
          <Node pos="r" depth="2" NCoef="0" IVar="-1" Cut="0.0000000000000000e+00" cType="1" res="2.3518178611993790e-02" rms="3.5388314723968506e-01" purity="7.8373414278030396e-01" nType="-99"/>
        </Node>
      </Node>
    </BinaryTree>
    <BinaryTree type="DecisionTree" boostWeight="1.0000000000000000e+00" itree="21">
      <Node pos="s" depth="0" NCoef="0" IVar="0" Cut="5.0711353302001953e+01" cType="1" res="-1.5223805792629719e-02" rms="3.7836310267448425e-01" purity="5.0490707159042358e-01" nType="0">
        <Node pos="l" depth="1" NCoef="0" IVar="3" Cut="3.1703613281250000e+02" cType="1" res="-4.3657630681991577e-02" rms="3.8884428143501282e-01" purity="3.1260120868682861e-01" nType="0">
          <Node pos="l" depth="2" NCoef="0" IVar="-1" Cut="0.0000000000000000e+00" cType="1" res="-1.5898562967777252e-02" rms="3.9644324779510498e-01" purity="2.4484379589557648e-01" nType="-99"/>
          <Node pos="r" depth="2" NCoef="0" IVar="-1" Cut="0.0000000000000000e+00" cType="1" res="4.3416619300842285e-02" rms="2.9473602771759033e-01" purity="8.5289758443832397e-01" nType="-99"/>
        </Node>
        <Node pos="r" depth="1" NCoef="0" IVar="1" Cut="5.3669010162353516e+01" cType="1" res="3.1914696097373962e-02" rms="3.5533824563026428e-01" purity="8.2371789216995239e-01" nType="0">
          <Node pos="l" depth="2" NCoef="0" IVar="-1" Cut="0.0000000000000000e+00" cType="1" res="2.0832426846027374e-02" rms="3.5577258467674255e-01" purity="8.2437568902969360e-01" nType="-99"/>
          <Node pos="r" depth="2" NCoef="0" IVar="-1" Cut="0.0000000000000000e+00" cType="1" res="-1.4849969185888767e-02" rms="3.4624099731445312e-01" purity="8.2137531042098999e-01" nType="-99"/>
        </Node>
      </Node>
    </BinaryTree>
    <BinaryTree type="DecisionTree" boostWeight="1.0000000000000000e+00" itree="22">
      <Node pos="s" depth="0" NCoef="0" IVar="5" Cut="1.9444872140884399e+00" cType="1" res="-6.7285094410181046e-03" rms="3.7579783797264099e-01" purity="5.2670580148696899e-01" nType="0">
        <Node pos="l" depth="1" NCoef="0" IVar="5" Cut="8.3374583721160889e-01" cType="1" res="-8.2023382186889648e-02" rms="3.5278463363647461e-01" purity="2.0999780297279358e-01" nType="0">
          <Node pos="l" depth="2" NCoef="0" IVar="-1" Cut="0.0000000000000000e+00" cType="1" res="-4.9308773130178452e-02" rms="3.3263868093490601e-01" purity="1.6208314895629883e-01" nType="-99"/>
          <Node pos="r" depth="2" NCoef="0" IVar="-1" Cut="0.0000000000000000e+00" cType="1" res="-1.8915172666311264e-02" rms="3.6037242412567139e-01" purity="2.3610930144786835e-01" nType="-99"/>
        </Node>
        <Node pos="r" depth="1" NCoef="0" IVar="3" Cut="3.3998159790039062e+02" cType="1" res="1.0222365148365498e-02" rms="3.7872824072837830e-01" purity="5.9800523519515991e-01" nType="0">
          <Node pos="l" depth="2" NCoef="0" IVar="-1" Cut="0.0000000000000000e+00" cType="1" res="-1.7510519828647375e-03" rms="4.2674356698989868e-01" purity="4.6510827541351318e-01" nType="-99"/>
          <Node pos="r" depth="2" NCoef="0" IVar="-1" Cut="0.0000000000000000e+00" cType="1" res="5.1185537129640579e-02" rms="1.9453291594982147e-01" purity="9.5182180404663086e-01" nType="-99"/>
        </Node>
      </Node>
    </BinaryTree>
    <BinaryTree type="DecisionTree" boostWeight="1.0000000000000000e+00" itree="23">
      <Node pos="s" depth="0" NCoef="0" IVar="1" Cut="2.8254762649536133e+01" cType="1" res="-2.3734482005238533e-02" rms="3.7413135170936584e-01" purity="4.9366268515586853e-01" nType="0">
        <Node pos="l" depth="1" NCoef="0" IVar="5" Cut="2.7771537303924561e+00" cType="1" res="-4.7206673771142960e-02" rms="3.8815996050834656e-01" purity="3.5337764024734497e-01" nType="0">
          <Node pos="l" depth="2" NCoef="0" IVar="-1" Cut="0.0000000000000000e+00" cType="1" res="-2.6188496500253677e-02" rms="3.5056224465370178e-01" purity="1.9810369610786438e-01" nType="-99"/>
          <Node pos="r" depth="2" NCoef="0" IVar="-1" Cut="0.0000000000000000e+00" cType="1" res="-6.1506135389208794e-03" rms="4.1039472818374634e-01" purity="4.6137002110481262e-01" nType="-99"/>
        </Node>
        <Node pos="r" depth="1" NCoef="0" IVar="2" Cut="2.2942802906036377e+00" cType="1" res="3.1307749450206757e-02" rms="3.3252903819084167e-01" purity="8.2263076305389404e-01" nType="0">
          <Node pos="l" depth="2" NCoef="0" IVar="-1" Cut="0.0000000000000000e+00" cType="1" res="-9.0661138528957963e-04" rms="4.6509248018264771e-01" purity="6.1514878273010254e-01" nType="-99"/>
          <Node pos="r" depth="2" NCoef="0" IVar="-1" Cut="0.0000000000000000e+00" cType="1" res="4.4266395270824432e-02" rms="2.2681725025177002e-01" purity="9.3657773733139038e-01" nType="-99"/>
        </Node>
      </Node>
    </BinaryTree>
    <BinaryTree type="DecisionTree" boostWeight="1.0000000000000000e+00" itree="24">
      <Node pos="s" depth="0" NCoef="0" IVar="3" Cut="4.6057675170898438e+02" cType="1" res="-1.9381543621420860e-02" rms="3.7931478023529053e-01" purity="5.0203180313110352e-01" nType="0">
        <Node pos="l" depth="1" NCoef="0" IVar="5" Cut="2.6389441490173340e+00" cType="1" res="-3.3491108566522598e-02" rms="4.0658104419708252e-01" purity="4.1104909777641296e-01" nType="0">
          <Node pos="l" depth="2" NCoef="0" IVar="-1" Cut="0.0000000000000000e+00" cType="1" res="-2.2313419729471207e-02" rms="3.8245657086372375e-01" purity="2.3855729401111603e-01" nType="-99"/>
          <Node pos="r" depth="2" NCoef="0" IVar="-1" Cut="0.0000000000000000e+00" cType="1" res="-4.8035881482064724e-03" rms="4.1742968559265137e-01" purity="4.9936977028846741e-01" nType="-99"/>
        </Node>
        <Node pos="r" depth="1" NCoef="0" IVar="2" Cut="5.5511298179626465e+00" cType="1" res="5.2790015935897827e-02" rms="1.6746494174003601e-01" purity="9.6741575002670288e-01" nType="0">
          <Node pos="l" depth="2" NCoef="0" IVar="-1" Cut="0.0000000000000000e+00" cType="1" res="5.4685745388269424e-02" rms="1.4351955056190491e-01" purity="9.7787988185882568e-01" nType="-99"/>
          <Node pos="r" depth="2" NCoef="0" IVar="-1" Cut="0.0000000000000000e+00" cType="1" res="7.0809110999107361e-02" rms="1.8740370869636536e-01" purity="9.5615810155868530e-01" nType="-99"/>
        </Node>
      </Node>
    </BinaryTree>
    <BinaryTree type="DecisionTree" boostWeight="1.0000000000000000e+00" itree="25">
      <Node pos="s" depth="0" NCoef="0" IVar="3" Cut="3.1637655639648438e+02" cType="1" res="-1.3233901932835579e-02" rms="3.6565601825714111e-01" purity="5.0759190320968628e-01" nType="0">
        <Node pos="l" depth="1" NCoef="0" IVar="4" Cut="1.3008781671524048e+00" cType="1" res="-3.3481005579233170e-02" rms="4.0212783217430115e-01" purity="3.6685976386070251e-01" nType="0">
          <Node pos="l" depth="2" NCoef="0" IVar="-1" Cut="0.0000000000000000e+00" cType="1" res="-2.0138897001743317e-02" rms="4.1954356431961060e-01" purity="3.7967735528945923e-01" nType="-99"/>
          <Node pos="r" depth="2" NCoef="0" IVar="-1" Cut="0.0000000000000000e+00" cType="1" res="-2.4584126658737659e-03" rms="3.9026418328285217e-01" purity="3.6010143160820007e-01" nType="-99"/>
        </Node>
        <Node pos="r" depth="1" NCoef="0" IVar="1" Cut="3.4917324066162109e+01" cType="1" res="4.9822170287370682e-02" rms="2.0308303833007812e-01" purity="9.4587767124176025e-01" nType="0">
          <Node pos="l" depth="2" NCoef="0" IVar="-1" Cut="0.0000000000000000e+00" cType="1" res="6.6896274685859680e-02" rms="2.2961093485355377e-01" purity="9.2741709947586060e-01" nType="-99"/>
          <Node pos="r" depth="2" NCoef="0" IVar="-1" Cut="0.0000000000000000e+00" cType="1" res="3.7066265940666199e-02" rms="1.6745941340923309e-01" purity="9.6557575464248657e-01" nType="-99"/>
        </Node>
      </Node>
    </BinaryTree>
    <BinaryTree type="DecisionTree" boostWeight="1.0000000000000000e+00" itree="26">
      <Node pos="s" depth="0" NCoef="0" IVar="0" Cut="6.0227497100830078e+01" cType="1" res="-1.7176559194922447e-02" rms="3.6987420916557312e-01" purity="5.0315856933593750e-01" nType="0">
        <Node pos="l" depth="1" NCoef="0" IVar="1" Cut="1.4417555809020996e+01" cType="1" res="-4.4259171932935715e-02" rms="3.8850438594818115e-01" purity="3.3578389883041382e-01" nType="0">
          <Node pos="l" depth="2" NCoef="0" IVar="-1" Cut="0.0000000000000000e+00" cType="1" res="-2.5299496948719025e-02" rms="3.0837464332580566e-01" purity="1.2602943181991577e-01" nType="-99"/>
          <Node pos="r" depth="2" NCoef="0" IVar="-1" Cut="0.0000000000000000e+00" cType="1" res="-5.7845506817102432e-03" rms="4.2418435215950012e-01" purity="4.5150852203369141e-01" nType="-99"/>
        </Node>
        <Node pos="r" depth="1" NCoef="0" IVar="3" Cut="2.9504428100585938e+02" cType="1" res="4.1747916489839554e-02" rms="3.1780302524566650e-01" purity="8.6732077598571777e-01" nType="0">
          <Node pos="l" depth="2" NCoef="0" IVar="-1" Cut="0.0000000000000000e+00" cType="1" res="2.2239081561565399e-02" rms="4.1155934333801270e-01" purity="7.6898688077926636e-01" nType="-99"/>
          <Node pos="r" depth="2" NCoef="0" IVar="-1" Cut="0.0000000000000000e+00" cType="1" res="2.4141553789377213e-02" rms="1.9574046134948730e-01" purity="9.5571261644363403e-01" nType="-99"/>
        </Node>
      </Node>
    </BinaryTree>
    <BinaryTree type="DecisionTree" boostWeight="1.0000000000000000e+00" itree="27">
      <Node pos="s" depth="0" NCoef="0" IVar="2" Cut="3.2947638034820557e+00" cType="1" res="-9.6260113641619682e-03" rms="3.7446531653404236e-01" purity="5.0457537174224854e-01" nType="0">
        <Node pos="l" depth="1" NCoef="0" IVar="2" Cut="2.9796168804168701e+00" cType="1" res="-3.0965548008680344e-02" rms="4.0586400032043457e-01" purity="3.7618571519851685e-01" nType="0">
          <Node pos="l" depth="2" NCoef="0" IVar="-1" Cut="0.0000000000000000e+00" cType="1" res="-4.7694491222500801e-03" rms="4.0766909718513489e-01" purity="3.7502050399780273e-01" nType="-99"/>
          <Node pos="r" depth="2" NCoef="0" IVar="-1" Cut="0.0000000000000000e+00" cType="1" res="-3.7465788424015045e-02" rms="3.7163338065147400e-01" purity="3.8589200377464294e-01" nType="-99"/>
        </Node>
        <Node pos="r" depth="1" NCoef="0" IVar="4" Cut="3.1407630443572998e+00" cType="1" res="2.6305925101041794e-02" rms="3.1130468845367432e-01" purity="7.2076040506362915e-01" nType="0">
          <Node pos="l" depth="2" NCoef="0" IVar="-1" Cut="0.0000000000000000e+00" cType="1" res="3.5811815410852432e-02" rms="2.9763978719711304e-01" purity="7.8812164068222046e-01" nType="-99"/>
          <Node pos="r" depth="2" NCoef="0" IVar="-1" Cut="0.0000000000000000e+00" cType="1" res="-4.6129357069730759e-02" rms="3.5121816396713257e-01" purity="2.9269510507583618e-01" nType="-99"/>
        </Node>
      </Node>
    </BinaryTree>
    <BinaryTree type="DecisionTree" boostWeight="1.0000000000000000e+00" itree="28">
      <Node pos="s" depth="0" NCoef="0" IVar="1" Cut="1.7047882080078125e+01" cType="1" res="-2.0927401259541512e-02" rms="3.7498259544372559e-01" purity="4.8705622553825378e-01" nType="0">
        <Node pos="l" depth="1" NCoef="0" IVar="1" Cut="1.5705174446105957e+01" cType="1" res="-6.4175106585025787e-02" rms="3.5386940836906433e-01" purity="2.1613764762878418e-01" nType="0">
          <Node pos="l" depth="2" NCoef="0" IVar="-1" Cut="0.0000000000000000e+00" cType="1" res="-2.3317456245422363e-02" rms="3.3918350934982300e-01" purity="1.8408435583114624e-01" nType="-99"/>
          <Node pos="r" depth="2" NCoef="0" IVar="-1" Cut="0.0000000000000000e+00" cType="1" res="1.2782568112015724e-02" rms="4.1434144973754883e-01" purity="3.9662715792655945e-01" nType="-99"/>
        </Node>
        <Node pos="r" depth="1" NCoef="0" IVar="2" Cut="2.4712796211242676e+00" cType="1" res="7.6578431762754917e-03" rms="3.8565501570701599e-01" purity="6.6612416505813599e-01" nType="0">
          <Node pos="l" depth="2" NCoef="0" IVar="-1" Cut="0.0000000000000000e+00" cType="1" res="-5.4023433476686478e-03" rms="4.7315064072608948e-01" purity="4.7450804710388184e-01" nType="-99"/>
          <Node pos="r" depth="2" NCoef="0" IVar="-1" Cut="0.0000000000000000e+00" cType="1" res="2.0632045343518257e-02" rms="2.9521167278289795e-01" purity="8.1951457262039185e-01" nType="-99"/>
        </Node>
      </Node>
    </BinaryTree>
    <BinaryTree type="DecisionTree" boostWeight="1.0000000000000000e+00" itree="29">
      <Node pos="s" depth="0" NCoef="0" IVar="1" Cut="2.2119413375854492e+01" cType="1" res="-1.4940806664526463e-02" rms="3.6726307868957520e-01" purity="4.9002408981323242e-01" nType="0">
        <Node pos="l" depth="1" NCoef="0" IVar="1" Cut="1.2886592864990234e+01" cType="1" res="-3.6615494638681412e-02" rms="3.7199002504348755e-01" purity="2.9420357942581177e-01" nType="0">
          <Node pos="l" depth="2" NCoef="0" IVar="-1" Cut="0.0000000000000000e+00" cType="1" res="-2.7455361559987068e-02" rms="2.8738883137702942e-01" purity="1.3131888210773468e-01" nType="-99"/>
          <Node pos="r" depth="2" NCoef="0" IVar="-1" Cut="0.0000000000000000e+00" cType="1" res="-2.6674577966332436e-03" rms="4.0095070004463196e-01" purity="3.6720359325408936e-01" nType="-99"/>
        </Node>
        <Node pos="r" depth="1" NCoef="0" IVar="2" Cut="1.6475543975830078e+00" cType="1" res="1.3550248928368092e-02" rms="3.5897013545036316e-01" purity="7.4742716550827026e-01" nType="0">
          <Node pos="l" depth="2" NCoef="0" IVar="-1" Cut="0.0000000000000000e+00" cType="1" res="-7.2295395657420158e-03" rms="4.6121549606323242e-01" purity="5.0375533103942871e-01" nType="-99"/>
          <Node pos="r" depth="2" NCoef="0" IVar="-1" Cut="0.0000000000000000e+00" cType="1" res="2.3152975365519524e-02" rms="2.9787436127662659e-01" purity="8.5969537496566772e-01" nType="-99"/>
        </Node>
      </Node>
    </BinaryTree>
    <BinaryTree type="DecisionTree" boostWeight="1.0000000000000000e+00" itree="30">
      <Node pos="s" depth="0" NCoef="0" IVar="5" Cut="1.5275377035140991e+00" cType="1" res="-1.4065713621675968e-02" rms="3.7602111697196960e-01" purity="5.0017368793487549e-01" nType="0">
        <Node pos="l" depth="1" NCoef="0" IVar="7" Cut="3.6526128649711609e-01" cType="1" res="-7.4533246457576752e-02" rms="3.3487424254417419e-01" purity="1.8060836195945740e-01" nType="0">
          <Node pos="l" depth="2" NCoef="0" IVar="-1" Cut="0.0000000000000000e+00" cType="1" res="-6.5374083817005157e-02" rms="3.3368465304374695e-01" purity="1.5390188992023468e-01" nType="-99"/>
          <Node pos="r" depth="2" NCoef="0" IVar="-1" Cut="0.0000000000000000e+00" cType="1" res="-1.1917911469936371e-02" rms="3.3337143063545227e-01" purity="2.1698522567749023e-01" nType="-99"/>
        </Node>
        <Node pos="r" depth="1" NCoef="0" IVar="4" Cut="8.6792850494384766e-01" cType="1" res="-5.0548892468214035e-03" rms="3.8095250725746155e-01" purity="5.4779511690139771e-01" nType="0">
          <Node pos="l" depth="2" NCoef="0" IVar="-1" Cut="0.0000000000000000e+00" cType="1" res="-1.1972119100391865e-02" rms="3.7226906418800354e-01" purity="5.8345872163772583e-01" nType="-99"/>
          <Node pos="r" depth="2" NCoef="0" IVar="-1" Cut="0.0000000000000000e+00" cType="1" res="2.8629323933273554e-03" rms="3.8376399874687195e-01" purity="5.3283888101577759e-01" nType="-99"/>
        </Node>
      </Node>
    </BinaryTree>
    <BinaryTree type="DecisionTree" boostWeight="1.0000000000000000e+00" itree="31">
      <Node pos="s" depth="0" NCoef="0" IVar="5" Cut="2.3606150150299072e+00" cType="1" res="-9.1146947816014290e-03" rms="3.6706104874610901e-01" purity="4.9820992350578308e-01" nType="0">
        <Node pos="l" depth="1" NCoef="0" IVar="0" Cut="3.3822444915771484e+01" cType="1" res="-5.4358594119548798e-02" rms="3.6620223522186279e-01" purity="2.3464322090148926e-01" nType="0">
          <Node pos="l" depth="2" NCoef="0" IVar="-1" Cut="0.0000000000000000e+00" cType="1" res="-1.9645102322101593e-02" rms="3.1667527556419373e-01" purity="1.3464179635047913e-01" nType="-99"/>
          <Node pos="r" depth="2" NCoef="0" IVar="-1" Cut="0.0000000000000000e+00" cType="1" res="-2.2714406251907349e-02" rms="4.6826156973838806e-01" purity="4.9295443296432495e-01" nType="-99"/>
        </Node>
        <Node pos="r" depth="1" NCoef="0" IVar="1" Cut="2.5007762908935547e+01" cType="1" res="5.0025382079184055e-03" rms="3.6618614196777344e-01" purity="5.8044940233230591e-01" nType="0">
          <Node pos="l" depth="2" NCoef="0" IVar="-1" Cut="0.0000000000000000e+00" cType="1" res="-4.7711245715618134e-03" rms="3.9014807343482971e-01" purity="4.0428438782691956e-01" nType="-99"/>
          <Node pos="r" depth="2" NCoef="0" IVar="-1" Cut="0.0000000000000000e+00" cType="1" res="1.9193684682250023e-02" rms="3.2459422945976257e-01" purity="8.4251677989959717e-01" nType="-99"/>
        </Node>
      </Node>
    </BinaryTree>
    <BinaryTree type="DecisionTree" boostWeight="1.0000000000000000e+00" itree="32">
      <Node pos="s" depth="0" NCoef="0" IVar="5" Cut="2.4994611740112305e+00" cType="1" res="-1.7626982182264328e-02" rms="3.7872284650802612e-01" purity="5.0273340940475464e-01" nType="0">
        <Node pos="l" depth="1" NCoef="0" IVar="7" Cut="3.5259160399436951e-01" cType="1" res="-5.0849597901105881e-02" rms="3.7537214159965515e-01" purity="2.4403545260429382e-01" nType="0">
          <Node pos="l" depth="2" NCoef="0" IVar="-1" Cut="0.0000000000000000e+00" cType="1" res="-4.1769582778215408e-02" rms="3.7269115447998047e-01" purity="2.0991614460945129e-01" nType="-99"/>
          <Node pos="r" depth="2" NCoef="0" IVar="-1" Cut="0.0000000000000000e+00" cType="1" res="2.6759384199976921e-03" rms="3.7173420190811157e-01" purity="2.9618921875953674e-01" nType="-99"/>
        </Node>
        <Node pos="r" depth="1" NCoef="0" IVar="4" Cut="3.8985757827758789e+00" cType="1" res="-5.2727605216205120e-03" rms="3.7921965122222900e-01" purity="5.9893327951431274e-01" nType="0">
          <Node pos="l" depth="2" NCoef="0" IVar="-1" Cut="0.0000000000000000e+00" cType="1" res="-4.9031889066100121e-03" rms="3.7541782855987549e-01" purity="6.1305338144302368e-01" nType="-99"/>
          <Node pos="r" depth="2" NCoef="0" IVar="-1" Cut="0.0000000000000000e+00" cType="1" res="2.8671870008111000e-02" rms="4.0638011693954468e-01" purity="4.5533972978591919e-01" nType="-99"/>
        </Node>
      </Node>
    </BinaryTree>
    <BinaryTree type="DecisionTree" boostWeight="1.0000000000000000e+00" itree="33">
      <Node pos="s" depth="0" NCoef="0" IVar="2" Cut="4.1863784790039062e+00" cType="1" res="-5.8203083463013172e-03" rms="3.7163072824478149e-01" purity="4.9618071317672729e-01" nType="0">
        <Node pos="l" depth="1" NCoef="0" IVar="5" Cut="9.7225451469421387e-01" cType="1" res="-1.7761282622814178e-02" rms="3.9449959993362427e-01" purity="4.0627586841583252e-01" nType="0">
          <Node pos="l" depth="2" NCoef="0" IVar="-1" Cut="0.0000000000000000e+00" cType="1" res="-4.3521240353584290e-02" rms="2.9961422085762024e-01" purity="1.0655352473258972e-01" nType="-99"/>
          <Node pos="r" depth="2" NCoef="0" IVar="-1" Cut="0.0000000000000000e+00" cType="1" res="-3.3764359541237354e-03" rms="4.0099349617958069e-01" purity="4.3212047219276428e-01" nType="-99"/>
        </Node>
        <Node pos="r" depth="1" NCoef="0" IVar="4" Cut="1.7454624176025391e+00" cType="1" res="3.0752569437026978e-02" rms="2.8752940893173218e-01" purity="7.7154177427291870e-01" nType="0">
          <Node pos="l" depth="2" NCoef="0" IVar="-1" Cut="0.0000000000000000e+00" cType="1" res="6.0750000178813934e-02" rms="2.4806343019008636e-01" purity="8.7141793966293335e-01" nType="-99"/>
          <Node pos="r" depth="2" NCoef="0" IVar="-1" Cut="0.0000000000000000e+00" cType="1" res="-1.4959693886339664e-02" rms="3.3216813206672668e-01" purity="6.1749267578125000e-01" nType="-99"/>
        </Node>
      </Node>
    </BinaryTree>
    <BinaryTree type="DecisionTree" boostWeight="1.0000000000000000e+00" itree="34">
      <Node pos="s" depth="0" NCoef="0" IVar="1" Cut="2.2120124816894531e+01" cType="1" res="-5.3941574878990650e-03" rms="3.7179273366928101e-01" purity="5.0304216146469116e-01" nType="0">
        <Node pos="l" depth="1" NCoef="0" IVar="1" Cut="1.2309929847717285e+01" cType="1" res="-2.0309269428253174e-02" rms="3.7745139002799988e-01" purity="3.0230876803398132e-01" nType="0">
          <Node pos="l" depth="2" NCoef="0" IVar="-1" Cut="0.0000000000000000e+00" cType="1" res="-1.8840506672859192e-02" rms="3.1231623888015747e-01" purity="1.7530141770839691e-01" nType="-99"/>
          <Node pos="r" depth="2" NCoef="0" IVar="-1" Cut="0.0000000000000000e+00" cType="1" res="-2.0307460799813271e-03" rms="3.9650204777717590e-01" purity="3.4627357125282288e-01" nType="-99"/>
        </Node>
        <Node pos="r" depth="1" NCoef="0" IVar="4" Cut="2.3868856430053711e+00" cType="1" res="1.3432927429676056e-02" rms="3.6365208029747009e-01" purity="7.5642430782318115e-01" nType="0">
          <Node pos="l" depth="2" NCoef="0" IVar="-1" Cut="0.0000000000000000e+00" cType="1" res="-1.0894789593294263e-03" rms="3.4608006477355957e-01" purity="7.7324819564819336e-01" nType="-99"/>
          <Node pos="r" depth="2" NCoef="0" IVar="-1" Cut="0.0000000000000000e+00" cType="1" res="2.5132654234766960e-02" rms="4.1439342498779297e-01" purity="6.9769036769866943e-01" nType="-99"/>
        </Node>
      </Node>
    </BinaryTree>
    <BinaryTree type="DecisionTree" boostWeight="1.0000000000000000e+00" itree="35">
      <Node pos="s" depth="0" NCoef="0" IVar="2" Cut="2.0934345722198486e+00" cType="1" res="-9.3471008585765958e-04" rms="3.6814072728157043e-01" purity="5.0664281845092773e-01" nType="0">
        <Node pos="l" depth="1" NCoef="0" IVar="4" Cut="1.7787449359893799e+00" cType="1" res="-1.6843460500240326e-02" rms="4.1618213057518005e-01" purity="3.5219940543174744e-01" nType="0">
          <Node pos="l" depth="2" NCoef="0" IVar="-1" Cut="0.0000000000000000e+00" cType="1" res="-1.5124539844691753e-02" rms="4.2672705650329590e-01" purity="3.1252521276473999e-01" nType="-99"/>
          <Node pos="r" depth="2" NCoef="0" IVar="-1" Cut="0.0000000000000000e+00" cType="1" res="1.0551814921200275e-02" rms="3.9899727702140808e-01" purity="3.9028468728065491e-01" nType="-99"/>
        </Node>
        <Node pos="r" depth="1" NCoef="0" IVar="4" Cut="1.8471132516860962e+00" cType="1" res="1.0439779609441757e-02" rms="3.2905423641204834e-01" purity="6.1706727743148804e-01" nType="0">
          <Node pos="l" depth="2" NCoef="0" IVar="-1" Cut="0.0000000000000000e+00" cType="1" res="1.9900485873222351e-02" rms="3.0942428112030029e-01" purity="7.4033349752426147e-01" nType="-99"/>
          <Node pos="r" depth="2" NCoef="0" IVar="-1" Cut="0.0000000000000000e+00" cType="1" res="-1.2225435115396976e-02" rms="3.5195344686508179e-01" purity="4.3604218959808350e-01" nType="-99"/>
        </Node>
      </Node>
    </BinaryTree>
    <BinaryTree type="DecisionTree" boostWeight="1.0000000000000000e+00" itree="36">
      <Node pos="s" depth="0" NCoef="0" IVar="2" Cut="5.7504892349243164e+00" cType="1" res="-4.2562377639114857e-03" rms="3.6853638291358948e-01" purity="4.9796131253242493e-01" nType="0">
        <Node pos="l" depth="1" NCoef="0" IVar="5" Cut="2.7772123813629150e+00" cType="1" res="-9.6647758036851883e-03" rms="3.7657338380813599e-01" purity="4.6567681431770325e-01" nType="0">
          <Node pos="l" depth="2" NCoef="0" IVar="-1" Cut="0.0000000000000000e+00" cType="1" res="-1.1365869082510471e-02" rms="3.7958174943923950e-01" purity="2.9334077239036560e-01" nType="-99"/>
          <Node pos="r" depth="2" NCoef="0" IVar="-1" Cut="0.0000000000000000e+00" cType="1" res="9.8561204504221678e-04" rms="3.7420502305030823e-01" purity="5.6782639026641846e-01" nType="-99"/>
        </Node>
        <Node pos="r" depth="1" NCoef="0" IVar="-1" Cut="0.0000000000000000e+00" cType="1" res="6.9118045270442963e-02" rms="2.3000021278858185e-01" purity="9.1644644737243652e-01" nType="-99"/>
      </Node>
    </BinaryTree>
    <BinaryTree type="DecisionTree" boostWeight="1.0000000000000000e+00" itree="37">
      <Node pos="s" depth="0" NCoef="0" IVar="0" Cut="6.0164436340332031e+01" cType="1" res="4.4377744197845459e-03" rms="3.6062157154083252e-01" purity="4.9844023585319519e-01" nType="0">
        <Node pos="l" depth="1" NCoef="0" IVar="1" Cut="1.2333146095275879e+01" cType="1" res="-7.7254530042409897e-03" rms="3.7668111920356750e-01" purity="3.4586194157600403e-01" nType="0">
          <Node pos="l" depth="2" NCoef="0" IVar="-1" Cut="0.0000000000000000e+00" cType="1" res="-2.0555872470140457e-02" rms="2.6530587673187256e-01" purity="9.4875589013099670e-02" nType="-99"/>
          <Node pos="r" depth="2" NCoef="0" IVar="-1" Cut="0.0000000000000000e+00" cType="1" res="3.1497923191636801e-03" rms="3.9970710873603821e-01" purity="4.1344758868217468e-01" nType="-99"/>
        </Node>
        <Node pos="r" depth="1" NCoef="0" IVar="1" Cut="2.5092636108398438e+01" cType="1" res="3.3541876822710037e-02" rms="3.1704008579254150e-01" purity="8.6352866888046265e-01" nType="0">
          <Node pos="l" depth="2" NCoef="0" IVar="-1" Cut="0.0000000000000000e+00" cType="1" res="4.3881118297576904e-02" rms="3.3641043305397034e-01" purity="8.5761040449142456e-01" nType="-99"/>
          <Node pos="r" depth="2" NCoef="0" IVar="-1" Cut="0.0000000000000000e+00" cType="1" res="4.3140277266502380e-03" rms="3.0470463633537292e-01" purity="8.6606234312057495e-01" nType="-99"/>
        </Node>
      </Node>
    </BinaryTree>
    <BinaryTree type="DecisionTree" boostWeight="1.0000000000000000e+00" itree="38">
      <Node pos="s" depth="0" NCoef="0" IVar="2" Cut="2.0046639442443848e+00" cType="1" res="-1.0670296847820282e-02" rms="3.6409163475036621e-01" purity="4.9042975902557373e-01" nType="0">
        <Node pos="l" depth="1" NCoef="0" IVar="4" Cut="1.3324028253555298e+00" cType="1" res="-4.0591388940811157e-02" rms="4.0095111727714539e-01" purity="3.1445160508155823e-01" nType="0">
          <Node pos="l" depth="2" NCoef="0" IVar="-1" Cut="0.0000000000000000e+00" cType="1" res="-2.7182200923562050e-02" rms="4.1603413224220276e-01" purity="2.5877138972282410e-01" nType="-99"/>
          <Node pos="r" depth="2" NCoef="0" IVar="-1" Cut="0.0000000000000000e+00" cType="1" res="1.7857241909950972e-03" rms="3.8454866409301758e-01" purity="3.4453991055488586e-01" nType="-99"/>
        </Node>
        <Node pos="r" depth="1" NCoef="0" IVar="5" Cut="1.6663838624954224e+00" cType="1" res="1.1461814865469933e-02" rms="3.3249405026435852e-01" purity="6.2059777975082397e-01" nType="0">
          <Node pos="l" depth="2" NCoef="0" IVar="-1" Cut="0.0000000000000000e+00" cType="1" res="-2.8875529766082764e-02" rms="3.1379821896553040e-01" purity="2.1256488561630249e-01" nType="-99"/>
          <Node pos="r" depth="2" NCoef="0" IVar="-1" Cut="0.0000000000000000e+00" cType="1" res="1.1189972050487995e-02" rms="3.3384436368942261e-01" purity="6.8083447217941284e-01" nType="-99"/>
        </Node>
      </Node>
    </BinaryTree>
    <BinaryTree type="DecisionTree" boostWeight="1.0000000000000000e+00" itree="39">
      <Node pos="s" depth="0" NCoef="0" IVar="1" Cut="2.5007762908935547e+01" cType="1" res="-5.4644054034724832e-04" rms="3.6740115284919739e-01" purity="5.0038903951644897e-01" nType="0">
        <Node pos="l" depth="1" NCoef="0" IVar="1" Cut="1.1429237365722656e+01" cType="1" res="-1.4798956923186779e-02" rms="3.7941291928291321e-01" purity="3.3175370097160339e-01" nType="0">
          <Node pos="l" depth="2" NCoef="0" IVar="-1" Cut="0.0000000000000000e+00" cType="1" res="-2.4500001221895218e-02" rms="2.5527849793434143e-01" purity="1.0286851972341537e-01" nType="-99"/>
          <Node pos="r" depth="2" NCoef="0" IVar="-1" Cut="0.0000000000000000e+00" cType="1" res="-8.7839807383716106e-04" rms="3.9622789621353149e-01" purity="3.7250238656997681e-01" nType="-99"/>
        </Node>
        <Node pos="r" depth="1" NCoef="0" IVar="7" Cut="3.6538997292518616e-01" cType="1" res="2.5064181536436081e-02" rms="3.4328308701515198e-01" purity="8.0341297388076782e-01" nType="0">
          <Node pos="l" depth="2" NCoef="0" IVar="-1" Cut="0.0000000000000000e+00" cType="1" res="-2.9014253523200750e-03" rms="3.7721523642539978e-01" purity="7.6455622911453247e-01" nType="-99"/>
          <Node pos="r" depth="2" NCoef="0" IVar="-1" Cut="0.0000000000000000e+00" cType="1" res="2.9297109693288803e-02" rms="2.9392486810684204e-01" purity="8.4930151700973511e-01" nType="-99"/>
        </Node>
      </Node>
    </BinaryTree>
    <BinaryTree type="DecisionTree" boostWeight="1.0000000000000000e+00" itree="40">
      <Node pos="s" depth="0" NCoef="0" IVar="4" Cut="2.2205681800842285e+00" cType="1" res="-6.6935182549059391e-03" rms="3.7429872155189514e-01" purity="5.1054859161376953e-01" nType="0">
        <Node pos="l" depth="1" NCoef="0" IVar="2" Cut="8.3843684196472168e-01" cType="1" res="-1.8673121929168701e-02" rms="3.7371796369552612e-01" purity="5.7528263330459595e-01" nType="0">
          <Node pos="l" depth="2" NCoef="0" IVar="-1" Cut="0.0000000000000000e+00" cType="1" res="-2.0040899515151978e-02" rms="4.2893099784851074e-01" purity="3.0450826883316040e-01" nType="-99"/>
          <Node pos="r" depth="2" NCoef="0" IVar="-1" Cut="0.0000000000000000e+00" cType="1" res="-2.7854103245772421e-04" rms="3.5734832286834717e-01" purity="6.3779044151306152e-01" nType="-99"/>
        </Node>
        <Node pos="r" depth="1" NCoef="0" IVar="0" Cut="4.4392726898193359e+01" cType="1" res="1.4168062247335911e-02" rms="3.7439405918121338e-01" purity="3.9781919121742249e-01" nType="0">
          <Node pos="l" depth="2" NCoef="0" IVar="-1" Cut="0.0000000000000000e+00" cType="1" res="-5.1632001996040344e-03" rms="3.7275728583335876e-01" purity="2.4155355989933014e-01" nType="-99"/>
          <Node pos="r" depth="2" NCoef="0" IVar="-1" Cut="0.0000000000000000e+00" cType="1" res="5.0261240452528000e-02" rms="3.6672782897949219e-01" purity="8.4841394424438477e-01" nType="-99"/>
        </Node>
      </Node>
    </BinaryTree>
    <BinaryTree type="DecisionTree" boostWeight="1.0000000000000000e+00" itree="41">
      <Node pos="s" depth="0" NCoef="0" IVar="2" Cut="8.3766806125640869e-01" cType="1" res="-1.1809108546003699e-03" rms="3.6716040968894958e-01" purity="5.0940412282943726e-01" nType="0">
        <Node pos="l" depth="1" NCoef="0" IVar="4" Cut="8.6889392137527466e-01" cType="1" res="2.1946173161268234e-02" rms="4.1710031032562256e-01" purity="3.9673238992691040e-01" nType="0">
          <Node pos="l" depth="2" NCoef="0" IVar="-1" Cut="0.0000000000000000e+00" cType="1" res="-1.9976528361439705e-02" rms="4.4809880852699280e-01" purity="2.7516758441925049e-01" nType="-99"/>
          <Node pos="r" depth="2" NCoef="0" IVar="-1" Cut="0.0000000000000000e+00" cType="1" res="2.0753100514411926e-02" rms="3.9514496922492981e-01" purity="4.4397363066673279e-01" nType="-99"/>
        </Node>
        <Node pos="r" depth="1" NCoef="0" IVar="2" Cut="1.2165226936340332e+00" cType="1" res="-7.1925786323845387e-03" rms="3.5277581214904785e-01" purity="5.3869211673736572e-01" nType="0">
          <Node pos="l" depth="2" NCoef="0" IVar="-1" Cut="0.0000000000000000e+00" cType="1" res="-1.9327551126480103e-02" rms="4.0780505537986755e-01" purity="2.8301566839218140e-01" nType="-99"/>
          <Node pos="r" depth="2" NCoef="0" IVar="-1" Cut="0.0000000000000000e+00" cType="1" res="4.4719188008457422e-04" rms="3.4512758255004883e-01" purity="5.6718683242797852e-01" nType="-99"/>
        </Node>
      </Node>
    </BinaryTree>
    <BinaryTree type="DecisionTree" boostWeight="1.0000000000000000e+00" itree="42">
      <Node pos="s" depth="0" NCoef="0" IVar="1" Cut="2.5007762908935547e+01" cType="1" res="-1.1760756373405457e-02" rms="3.5618874430656433e-01" purity="4.9822327494621277e-01" nType="0">
        <Node pos="l" depth="1" NCoef="0" IVar="3" Cut="1.0522972106933594e+02" cType="1" res="-2.9543381184339523e-02" rms="3.6743700504302979e-01" purity="3.1899449229240417e-01" nType="0">
          <Node pos="l" depth="2" NCoef="0" IVar="-1" Cut="0.0000000000000000e+00" cType="1" res="-1.4508103951811790e-02" rms="3.4604525566101074e-01" purity="1.8871079385280609e-01" nType="-99"/>
          <Node pos="r" depth="2" NCoef="0" IVar="-1" Cut="0.0000000000000000e+00" cType="1" res="4.0708505548536777e-03" rms="4.0408998727798462e-01" purity="5.7946467399597168e-01" nType="-99"/>
        </Node>
        <Node pos="r" depth="1" NCoef="0" IVar="2" Cut="1.1640022993087769e+00" cType="1" res="1.8248669803142548e-02" rms="3.3421579003334045e-01" purity="8.0068445205688477e-01" nType="0">
          <Node pos="l" depth="2" NCoef="0" IVar="-1" Cut="0.0000000000000000e+00" cType="1" res="1.3730174861848354e-02" rms="4.3088489770889282e-01" purity="6.1473190784454346e-01" nType="-99"/>
          <Node pos="r" depth="2" NCoef="0" IVar="-1" Cut="0.0000000000000000e+00" cType="1" res="4.8188571818172932e-03" rms="3.0416262149810791e-01" purity="8.4772068262100220e-01" nType="-99"/>
        </Node>
      </Node>
    </BinaryTree>
    <BinaryTree type="DecisionTree" boostWeight="1.0000000000000000e+00" itree="43">
      <Node pos="s" depth="0" NCoef="0" IVar="1" Cut="2.2117956161499023e+01" cType="1" res="-4.1296738199889660e-03" rms="3.6229044198989868e-01" purity="4.9541726708412170e-01" nType="0">
        <Node pos="l" depth="1" NCoef="0" IVar="1" Cut="1.2306612968444824e+01" cType="1" res="-2.7747347950935364e-02" rms="3.6624765396118164e-01" purity="2.8381121158599854e-01" nType="0">
          <Node pos="l" depth="2" NCoef="0" IVar="-1" Cut="0.0000000000000000e+00" cType="1" res="-2.2198153659701347e-02" rms="2.6543822884559631e-01" purity="1.1581434309482574e-01" nType="-99"/>
          <Node pos="r" depth="2" NCoef="0" IVar="-1" Cut="0.0000000000000000e+00" cType="1" res="-4.4570150785148144e-03" rms="3.9383575320243835e-01" purity="3.4129998087882996e-01" nType="-99"/>
        </Node>
        <Node pos="r" depth="1" NCoef="0" IVar="1" Cut="3.3666664123535156e+01" cType="1" res="2.7680363506078720e-02" rms="3.5441246628761292e-01" purity="7.8042399883270264e-01" nType="0">
          <Node pos="l" depth="2" NCoef="0" IVar="-1" Cut="0.0000000000000000e+00" cType="1" res="2.4243671447038651e-02" rms="3.9135509729385376e-01" purity="7.1496534347534180e-01" nType="-99"/>
          <Node pos="r" depth="2" NCoef="0" IVar="-1" Cut="0.0000000000000000e+00" cType="1" res="-1.6290271887555718e-03" rms="3.1461328268051147e-01" purity="8.3890002965927124e-01" nType="-99"/>
        </Node>
      </Node>
    </BinaryTree>
    <BinaryTree type="DecisionTree" boostWeight="1.0000000000000000e+00" itree="44">
      <Node pos="s" depth="0" NCoef="0" IVar="5" Cut="1.5275377035140991e+00" cType="1" res="-2.6944524142891169e-04" rms="3.7058594822883606e-01" purity="5.0876760482788086e-01" nType="0">
        <Node pos="l" depth="1" NCoef="0" IVar="4" Cut="2.6680862903594971e+00" cType="1" res="-5.5708706378936768e-02" rms="3.3181887865066528e-01" purity="1.6225589811801910e-01" nType="0">
          <Node pos="l" depth="2" NCoef="0" IVar="-1" Cut="0.0000000000000000e+00" cType="1" res="-1.4199078083038330e-02" rms="3.5245805978775024e-01" purity="1.9813357293605804e-01" nType="-99"/>
          <Node pos="r" depth="2" NCoef="0" IVar="-1" Cut="0.0000000000000000e+00" cType="1" res="-3.4625183790922165e-02" rms="3.0641970038414001e-01" purity="1.2553542852401733e-01" nType="-99"/>
        </Node>
        <Node pos="r" depth="1" NCoef="0" IVar="3" Cut="1.7412805175781250e+02" cType="1" res="7.8597404062747955e-03" rms="3.7524661421775818e-01" purity="5.5957746505737305e-01" nType="0">
          <Node pos="l" depth="2" NCoef="0" IVar="-1" Cut="0.0000000000000000e+00" cType="1" res="6.5051787532866001e-03" rms="4.1353949904441833e-01" purity="3.6533293128013611e-01" nType="-99"/>
          <Node pos="r" depth="2" NCoef="0" IVar="-1" Cut="0.0000000000000000e+00" cType="1" res="-1.0089033283293247e-02" rms="3.1019449234008789e-01" purity="8.4126198291778564e-01" nType="-99"/>
        </Node>
      </Node>
    </BinaryTree>
    <BinaryTree type="DecisionTree" boostWeight="1.0000000000000000e+00" itree="45">
      <Node pos="s" depth="0" NCoef="0" IVar="2" Cut="3.3492009639739990e+00" cType="1" res="-1.0055338032543659e-02" rms="3.6979675292968750e-01" purity="5.0255602598190308e-01" nType="0">
        <Node pos="l" depth="1" NCoef="0" IVar="3" Cut="1.3077635192871094e+02" cType="1" res="-1.9870253279805183e-02" rms="4.0158730745315552e-01" purity="3.7470835447311401e-01" nType="0">
          <Node pos="l" depth="2" NCoef="0" IVar="-1" Cut="0.0000000000000000e+00" cType="1" res="3.3546538907103240e-04" rms="3.9086088538169861e-01" purity="3.0530747771263123e-01" nType="-99"/>
          <Node pos="r" depth="2" NCoef="0" IVar="-1" Cut="0.0000000000000000e+00" cType="1" res="-3.1799849122762680e-02" rms="4.3209007382392883e-01" purity="6.5638220310211182e-01" nType="-99"/>
        </Node>
        <Node pos="r" depth="1" NCoef="0" IVar="4" Cut="2.7914335727691650e+00" cType="1" res="6.9408100098371506e-03" rms="3.0631488561630249e-01" purity="7.2394526004791260e-01" nType="0">
          <Node pos="l" depth="2" NCoef="0" IVar="-1" Cut="0.0000000000000000e+00" cType="1" res="2.0410899072885513e-02" rms="2.8695803880691528e-01" purity="8.0037313699722290e-01" nType="-99"/>
          <Node pos="r" depth="2" NCoef="0" IVar="-1" Cut="0.0000000000000000e+00" cType="1" res="-3.6199443042278290e-02" rms="3.6666777729988098e-01" purity="3.9228183031082153e-01" nType="-99"/>
        </Node>
      </Node>
    </BinaryTree>
    <BinaryTree type="DecisionTree" boostWeight="1.0000000000000000e+00" itree="46">
      <Node pos="s" depth="0" NCoef="0" IVar="0" Cut="4.0625446319580078e+01" cType="1" res="9.4129052013158798e-03" rms="3.6078989505767822e-01" purity="5.2088683843612671e-01" nType="0">
        <Node pos="l" depth="1" NCoef="0" IVar="1" Cut="2.4216262817382812e+01" cType="1" res="-3.6771476734429598e-03" rms="3.7267100811004639e-01" purity="2.5608360767364502e-01" nType="0">
          <Node pos="l" depth="2" NCoef="0" IVar="-1" Cut="0.0000000000000000e+00" cType="1" res="-6.2438659369945526e-03" rms="3.5915595293045044e-01" purity="2.0333866775035858e-01" nType="-99"/>
          <Node pos="r" depth="2" NCoef="0" IVar="-1" Cut="0.0000000000000000e+00" cType="1" res="2.7475707232952118e-02" rms="4.4292074441909790e-01" purity="6.1124199628829956e-01" nType="-99"/>
        </Node>
        <Node pos="r" depth="1" NCoef="0" IVar="3" Cut="1.8179309082031250e+02" cType="1" res="2.3567492142319679e-02" rms="3.4693044424057007e-01" purity="8.0722486972808838e-01" nType="0">
          <Node pos="l" depth="2" NCoef="0" IVar="-1" Cut="0.0000000000000000e+00" cType="1" res="1.4405628666281700e-02" rms="4.4374194741249084e-01" purity="6.5281784534454346e-01" nType="-99"/>
          <Node pos="r" depth="2" NCoef="0" IVar="-1" Cut="0.0000000000000000e+00" cType="1" res="-1.9029533723369241e-04" rms="2.5492104887962341e-01" purity="9.1617721319198608e-01" nType="-99"/>
        </Node>
      </Node>
    </BinaryTree>
    <BinaryTree type="DecisionTree" boostWeight="1.0000000000000000e+00" itree="47">
      <Node pos="s" depth="0" NCoef="0" IVar="2" Cut="1.6477445363998413e+00" cType="1" res="1.2006561271846294e-02" rms="3.6866292357444763e-01" purity="5.2208268642425537e-01" nType="0">
        <Node pos="l" depth="1" NCoef="0" IVar="0" Cut="5.8305046081542969e+01" cType="1" res="3.3048331737518311e-02" rms="4.0035387873649597e-01" purity="3.9295396208763123e-01" nType="0">
          <Node pos="l" depth="2" NCoef="0" IVar="-1" Cut="0.0000000000000000e+00" cType="1" res="3.1511683482676744e-03" rms="3.9405786991119385e-01" purity="2.5851902365684509e-01" nType="-99"/>
          <Node pos="r" depth="2" NCoef="0" IVar="-1" Cut="0.0000000000000000e+00" cType="1" res="2.8188694268465042e-02" rms="4.1065156459808350e-01" purity="7.5860792398452759e-01" nType="-99"/>
        </Node>
        <Node pos="r" depth="1" NCoef="0" IVar="4" Cut="1.9906979799270630e+00" cType="1" res="1.2544210767373443e-03" rms="3.5088059306144714e-01" purity="5.8806616067886353e-01" nType="0">
          <Node pos="l" depth="2" NCoef="0" IVar="-1" Cut="0.0000000000000000e+00" cType="1" res="1.1266591027379036e-02" rms="3.2560944557189941e-01" purity="6.8837732076644897e-01" nType="-99"/>
          <Node pos="r" depth="2" NCoef="0" IVar="-1" Cut="0.0000000000000000e+00" cType="1" res="-1.4431713148951530e-02" rms="3.8633483648300171e-01" purity="4.2307597398757935e-01" nType="-99"/>
        </Node>
      </Node>
    </BinaryTree>
    <BinaryTree type="DecisionTree" boostWeight="1.0000000000000000e+00" itree="48">
      <Node pos="s" depth="0" NCoef="0" IVar="4" Cut="1.7767829895019531e+00" cType="1" res="-5.0435503944754601e-03" rms="3.6079707741737366e-01" purity="5.1021456718444824e-01" nType="0">
        <Node pos="l" depth="1" NCoef="0" IVar="2" Cut="3.9757156372070312e-01" cType="1" res="-3.4077506512403488e-02" rms="3.5063549876213074e-01" purity="5.5580335855484009e-01" nType="0">
          <Node pos="l" depth="2" NCoef="0" IVar="-1" Cut="0.0000000000000000e+00" cType="1" res="-3.4022625535726547e-02" rms="4.0030694007873535e-01" purity="2.2440001368522644e-01" nType="-99"/>
          <Node pos="r" depth="2" NCoef="0" IVar="-1" Cut="0.0000000000000000e+00" cType="1" res="-7.9519124701619148e-03" rms="3.4181302785873413e-01" purity="5.9051370620727539e-01" nType="-99"/>
        </Node>
        <Node pos="r" depth="1" NCoef="0" IVar="7" Cut="3.4186741709709167e-01" cType="1" res="2.8311971575021744e-02" rms="3.6932212114334106e-01" purity="4.5784017443656921e-01" nType="0">
          <Node pos="l" depth="2" NCoef="0" IVar="-1" Cut="0.0000000000000000e+00" cType="1" res="-5.8789812028408051e-03" rms="3.7453812360763550e-01" purity="4.0218272805213928e-01" nType="-99"/>
          <Node pos="r" depth="2" NCoef="0" IVar="-1" Cut="0.0000000000000000e+00" cType="1" res="2.4012265726923943e-02" rms="3.6001151800155640e-01" purity="5.1142555475234985e-01" nType="-99"/>
        </Node>
      </Node>
    </BinaryTree>
    <BinaryTree type="DecisionTree" boostWeight="1.0000000000000000e+00" itree="49">
      <Node pos="s" depth="0" NCoef="0" IVar="3" Cut="5.0590139770507812e+02" cType="1" res="-6.1910212971270084e-03" rms="3.7365764379501343e-01" purity="5.0770133733749390e-01" nType="0">
        <Node pos="l" depth="1" NCoef="0" IVar="5" Cut="2.0829224586486816e+00" cType="1" res="-1.2086399830877781e-02" rms="4.0133655071258545e-01" purity="4.2560678720474243e-01" nType="0">
          <Node pos="l" depth="2" NCoef="0" IVar="-1" Cut="0.0000000000000000e+00" cType="1" res="1.1130989529192448e-02" rms="3.6118298768997192e-01" purity="2.2539092600345612e-01" nType="-99"/>
          <Node pos="r" depth="2" NCoef="0" IVar="-1" Cut="0.0000000000000000e+00" cType="1" res="-6.4322534017264843e-03" rms="4.1154617071151733e-01" purity="4.8244467377662659e-01" nType="-99"/>
        </Node>
        <Node pos="r" depth="1" NCoef="0" IVar="-1" Cut="0.0000000000000000e+00" cType="1" res="5.6295581161975861e-02" rms="1.2248021364212036e-01" purity="9.7946935892105103e-01" nType="-99"/>
      </Node>
    </BinaryTree>
    <BinaryTree type="DecisionTree" boostWeight="1.0000000000000000e+00" itree="50">
      <Node pos="s" depth="0" NCoef="0" IVar="4" Cut="3.0185756683349609e+00" cType="1" res="-1.0736236348748207e-02" rms="3.6884692311286926e-01" purity="4.9415346980094910e-01" nType="0">
        <Node pos="l" depth="1" NCoef="0" IVar="4" Cut="2.8865647315979004e-01" cType="1" res="-1.9370157271623611e-02" rms="3.6542907357215881e-01" purity="5.3356927633285522e-01" nType="0">
          <Node pos="l" depth="2" NCoef="0" IVar="-1" Cut="0.0000000000000000e+00" cType="1" res="1.6816703602671623e-02" rms="3.6788111925125122e-01" purity="6.2273973226547241e-01" nType="-99"/>
          <Node pos="r" depth="2" NCoef="0" IVar="-1" Cut="0.0000000000000000e+00" cType="1" res="-1.0041914880275726e-02" rms="3.6430245637893677e-01" purity="5.2091866731643677e-01" nType="-99"/>
        </Node>
        <Node pos="r" depth="1" NCoef="0" IVar="4" Cut="4.4554133415222168e+00" cType="1" res="1.7558326944708824e-02" rms="3.7845417857170105e-01" purity="3.6498224735260010e-01" nType="0">
          <Node pos="l" depth="2" NCoef="0" IVar="-1" Cut="0.0000000000000000e+00" cType="1" res="1.7149280756711960e-02" rms="3.9231237769126892e-01" purity="4.3526503443717957e-01" nType="-99"/>
          <Node pos="r" depth="2" NCoef="0" IVar="-1" Cut="0.0000000000000000e+00" cType="1" res="-9.3536721542477608e-03" rms="3.4460589289665222e-01" purity="2.2408215701580048e-01" nType="-99"/>
        </Node>
      </Node>
    </BinaryTree>
    <BinaryTree type="DecisionTree" boostWeight="1.0000000000000000e+00" itree="51">
      <Node pos="s" depth="0" NCoef="0" IVar="3" Cut="3.3913403320312500e+02" cType="1" res="-4.7430442646145821e-03" rms="3.6111029982566833e-01" purity="4.9338608980178833e-01" nType="0">
        <Node pos="l" depth="1" NCoef="0" IVar="2" Cut="1.2579770088195801e+00" cType="1" res="-1.3023631647229195e-02" rms="3.9515817165374756e-01" purity="3.7558150291442871e-01" nType="0">
          <Node pos="l" depth="2" NCoef="0" IVar="-1" Cut="0.0000000000000000e+00" cType="1" res="3.9247195236384869e-03" rms="4.0364381670951843e-01" purity="3.8136500120162964e-01" nType="-99"/>
          <Node pos="r" depth="2" NCoef="0" IVar="-1" Cut="0.0000000000000000e+00" cType="1" res="-8.9286528527736664e-03" rms="3.8977703452110291e-01" purity="3.7247735261917114e-01" nType="-99"/>
        </Node>
        <Node pos="r" depth="1" NCoef="0" IVar="7" Cut="3.1804966926574707e-01" cType="1" res="2.7918981388211250e-02" rms="1.6582341492176056e-01" purity="9.5805567502975464e-01" nType="0">
          <Node pos="l" depth="2" NCoef="0" IVar="-1" Cut="0.0000000000000000e+00" cType="1" res="1.9976098090410233e-02" rms="2.0624364912509918e-01" purity="9.3454384803771973e-01" nType="-99"/>
          <Node pos="r" depth="2" NCoef="0" IVar="-1" Cut="0.0000000000000000e+00" cType="1" res="6.0889035463333130e-02" rms="1.3616456091403961e-01" purity="9.7168540954589844e-01" nType="-99"/>
        </Node>
      </Node>
    </BinaryTree>
    <BinaryTree type="DecisionTree" boostWeight="1.0000000000000000e+00" itree="52">
      <Node pos="s" depth="0" NCoef="0" IVar="0" Cut="7.1252449035644531e+01" cType="1" res="-5.8020926080644131e-03" rms="3.5952839255332947e-01" purity="5.0559240579605103e-01" nType="0">
        <Node pos="l" depth="1" NCoef="0" IVar="4" Cut="3.4665219783782959e+00" cType="1" res="-1.5506170690059662e-02" rms="3.7552067637443542e-01" purity="3.8462185859680176e-01" nType="0">
          <Node pos="l" depth="2" NCoef="0" IVar="-1" Cut="0.0000000000000000e+00" cType="1" res="-8.2403048872947693e-03" rms="3.7192115187644958e-01" purity="4.0896961092948914e-01" nType="-99"/>
          <Node pos="r" depth="2" NCoef="0" IVar="-1" Cut="0.0000000000000000e+00" cType="1" res="8.0225728452205658e-03" rms="3.8648000359535217e-01" purity="2.9492935538291931e-01" nType="-99"/>
        </Node>
        <Node pos="r" depth="1" NCoef="0" IVar="2" Cut="1.4338755607604980e+00" cType="1" res="2.3839768022298813e-02" rms="3.0362388491630554e-01" purity="8.7510639429092407e-01" nType="0">
          <Node pos="l" depth="2" NCoef="0" IVar="-1" Cut="0.0000000000000000e+00" cType="1" res="3.4949425607919693e-02" rms="3.9297613501548767e-01" purity="7.8940844535827637e-01" nType="-99"/>
          <Node pos="r" depth="2" NCoef="0" IVar="-1" Cut="0.0000000000000000e+00" cType="1" res="-1.9527253462001681e-03" rms="2.6364275813102722e-01" purity="9.0239799022674561e-01" nType="-99"/>
        </Node>
      </Node>
    </BinaryTree>
    <BinaryTree type="DecisionTree" boostWeight="1.0000000000000000e+00" itree="53">
      <Node pos="s" depth="0" NCoef="0" IVar="0" Cut="5.0711353302001953e+01" cType="1" res="-2.4051959626376629e-03" rms="3.5093489289283752e-01" purity="4.9674338102340698e-01" nType="0">
        <Node pos="l" depth="1" NCoef="0" IVar="0" Cut="3.7121082305908203e+01" cType="1" res="-2.3957751691341400e-02" rms="3.7029296159744263e-01" purity="2.9036688804626465e-01" nType="0">
          <Node pos="l" depth="2" NCoef="0" IVar="-1" Cut="0.0000000000000000e+00" cType="1" res="-2.4084753822535276e-03" rms="3.4879714250564575e-01" purity="2.2209607064723969e-01" nType="-99"/>
          <Node pos="r" depth="2" NCoef="0" IVar="-1" Cut="0.0000000000000000e+00" cType="1" res="-1.8540605902671814e-02" rms="4.2961835861206055e-01" purity="5.1934605836868286e-01" nType="-99"/>
        </Node>
        <Node pos="r" depth="1" NCoef="0" IVar="2" Cut="7.8177958726882935e-01" cType="1" res="3.6091890186071396e-02" rms="3.0968612432479858e-01" purity="8.6537224054336548e-01" nType="0">
          <Node pos="l" depth="2" NCoef="0" IVar="-1" Cut="0.0000000000000000e+00" cType="1" res="3.4306418150663376e-02" rms="3.7511807680130005e-01" purity="7.7864867448806763e-01" nType="-99"/>
          <Node pos="r" depth="2" NCoef="0" IVar="-1" Cut="0.0000000000000000e+00" cType="1" res="1.3878230005502701e-02" rms="2.9196324944496155e-01" purity="8.8306665420532227e-01" nType="-99"/>
        </Node>
      </Node>
    </BinaryTree>
    <BinaryTree type="DecisionTree" boostWeight="1.0000000000000000e+00" itree="54">
      <Node pos="s" depth="0" NCoef="0" IVar="2" Cut="1.2562568187713623e+00" cType="1" res="-6.3571017235517502e-03" rms="3.6643946170806885e-01" purity="4.9386966228485107e-01" nType="0">
        <Node pos="l" depth="1" NCoef="0" IVar="3" Cut="6.4354240417480469e+01" cType="1" res="-3.4789029508829117e-02" rms="4.0488106012344360e-01" purity="3.2407057285308838e-01" nType="0">
          <Node pos="l" depth="2" NCoef="0" IVar="-1" Cut="0.0000000000000000e+00" cType="1" res="1.2192719150334597e-03" rms="3.6173802614212036e-01" purity="2.7832335233688354e-01" nType="-99"/>
          <Node pos="r" depth="2" NCoef="0" IVar="-1" Cut="0.0000000000000000e+00" cType="1" res="-3.0321547761559486e-02" rms="5.0073635578155518e-01" purity="4.7300738096237183e-01" nType="-99"/>
        </Node>
        <Node pos="r" depth="1" NCoef="0" IVar="4" Cut="7.9640543460845947e-01" cType="1" res="5.5556441657245159e-03" rms="3.4838744997978210e-01" purity="5.6501406431198120e-01" nType="0">
          <Node pos="l" depth="2" NCoef="0" IVar="-1" Cut="0.0000000000000000e+00" cType="1" res="3.5464596003293991e-02" rms="3.2628580927848816e-01" purity="7.3468530178070068e-01" nType="-99"/>
          <Node pos="r" depth="2" NCoef="0" IVar="-1" Cut="0.0000000000000000e+00" cType="1" res="-5.7543818838894367e-03" rms="3.5328900814056396e-01" purity="5.0888222455978394e-01" nType="-99"/>
        </Node>
      </Node>
    </BinaryTree>
    <BinaryTree type="DecisionTree" boostWeight="1.0000000000000000e+00" itree="55">
      <Node pos="s" depth="0" NCoef="0" IVar="4" Cut="3.0180325508117676e+00" cType="1" res="-5.0057317130267620e-03" rms="3.5916477441787720e-01" purity="4.9667477607727051e-01" nType="0">
        <Node pos="l" depth="1" NCoef="0" IVar="2" Cut="2.0613231658935547e+00" cType="1" res="-1.5869446098804474e-02" rms="3.5481828451156616e-01" purity="5.3156042098999023e-01" nType="0">
          <Node pos="l" depth="2" NCoef="0" IVar="-1" Cut="0.0000000000000000e+00" cType="1" res="-1.2292752042412758e-02" rms="4.0542438626289368e-01" purity="3.2148581743240356e-01" nType="-99"/>
          <Node pos="r" depth="2" NCoef="0" IVar="-1" Cut="0.0000000000000000e+00" cType="1" res="3.8720334414392710e-03" rms="3.1492412090301514e-01" purity="6.7021179199218750e-01" nType="-99"/>
        </Node>
        <Node pos="r" depth="1" NCoef="0" IVar="0" Cut="2.6549467086791992e+01" cType="1" res="3.1307224184274673e-02" rms="3.7102466821670532e-01" purity="3.8006642460823059e-01" nType="0">
          <Node pos="l" depth="2" NCoef="0" IVar="-1" Cut="0.0000000000000000e+00" cType="1" res="-7.2773187421262264e-03" rms="3.2080280780792236e-01" purity="1.3069212436676025e-01" nType="-99"/>
          <Node pos="r" depth="2" NCoef="0" IVar="-1" Cut="0.0000000000000000e+00" cType="1" res="3.5100322216749191e-02" rms="4.1522842645645142e-01" purity="6.7080813646316528e-01" nType="-99"/>
        </Node>
      </Node>
    </BinaryTree>
    <BinaryTree type="DecisionTree" boostWeight="1.0000000000000000e+00" itree="56">
      <Node pos="s" depth="0" NCoef="0" IVar="5" Cut="2.4994831085205078e+00" cType="1" res="-2.4239656049758196e-03" rms="3.7110418081283569e-01" purity="4.9619209766387939e-01" nType="0">
        <Node pos="l" depth="1" NCoef="0" IVar="5" Cut="2.1424646377563477e+00" cType="1" res="-3.8473922759294510e-02" rms="3.7675380706787109e-01" purity="2.5044554471969604e-01" nType="0">
          <Node pos="l" depth="2" NCoef="0" IVar="-1" Cut="0.0000000000000000e+00" cType="1" res="-3.1875225249677896e-03" rms="3.6232301592826843e-01" purity="2.2756530344486237e-01" nType="-99"/>
          <Node pos="r" depth="2" NCoef="0" IVar="-1" Cut="0.0000000000000000e+00" cType="1" res="-3.1559180468320847e-02" rms="4.0070196986198425e-01" purity="3.0974075198173523e-01" nType="-99"/>
        </Node>
        <Node pos="r" depth="1" NCoef="0" IVar="4" Cut="3.8979701995849609e+00" cType="1" res="1.2317096814513206e-02" rms="3.6775252223014832e-01" purity="5.9667944908142090e-01" nType="0">
          <Node pos="l" depth="2" NCoef="0" IVar="-1" Cut="0.0000000000000000e+00" cType="1" res="2.7146537322551012e-03" rms="3.6558815836906433e-01" purity="6.1369377374649048e-01" nType="-99"/>
          <Node pos="r" depth="2" NCoef="0" IVar="-1" Cut="0.0000000000000000e+00" cType="1" res="2.0251533016562462e-02" rms="3.8387039303779602e-01" purity="4.4179481267929077e-01" nType="-99"/>
        </Node>
      </Node>
    </BinaryTree>
    <BinaryTree type="DecisionTree" boostWeight="1.0000000000000000e+00" itree="57">
      <Node pos="s" depth="0" NCoef="0" IVar="5" Cut="6.9457662105560303e-01" cType="1" res="-1.5673493966460228e-02" rms="3.6697149276733398e-01" purity="5.0201374292373657e-01" nType="0">
        <Node pos="l" depth="1" NCoef="0" IVar="-1" Cut="0.0000000000000000e+00" cType="1" res="-3.8947690278291702e-02" rms="3.3907678723335266e-01" purity="1.3244980573654175e-01" nType="-99"/>
        <Node pos="r" depth="1" NCoef="0" IVar="4" Cut="3.1092770099639893e+00" cType="1" res="-1.1515772901475430e-02" rms="3.6810559034347534e-01" purity="5.2354758977890015e-01" nType="0">
          <Node pos="l" depth="2" NCoef="0" IVar="-1" Cut="0.0000000000000000e+00" cType="1" res="-7.8914482146501541e-03" rms="3.6256563663482666e-01" purity="5.5704307556152344e-01" nType="-99"/>
          <Node pos="r" depth="2" NCoef="0" IVar="-1" Cut="0.0000000000000000e+00" cType="1" res="9.1825714334845543e-03" rms="3.8595303893089294e-01" purity="3.9832255244255066e-01" nType="-99"/>
        </Node>
      </Node>
    </BinaryTree>
    <BinaryTree type="DecisionTree" boostWeight="1.0000000000000000e+00" itree="58">
      <Node pos="s" depth="0" NCoef="0" IVar="5" Cut="2.3606150150299072e+00" cType="1" res="-1.0588771663606167e-02" rms="3.7071800231933594e-01" purity="4.8770046234130859e-01" nType="0">
        <Node pos="l" depth="1" NCoef="0" IVar="5" Cut="2.0223624706268311e+00" cType="1" res="1.7787676304578781e-02" rms="3.6623886227607727e-01" purity="2.5859361886978149e-01" nType="0">
          <Node pos="l" depth="2" NCoef="0" IVar="-1" Cut="0.0000000000000000e+00" cType="1" res="9.3619606923311949e-04" rms="3.5461130738258362e-01" purity="2.1562050282955170e-01" nType="-99"/>
          <Node pos="r" depth="2" NCoef="0" IVar="-1" Cut="0.0000000000000000e+00" cType="1" res="3.3119842410087585e-02" rms="3.9831304550170898e-01" purity="4.0325835347175598e-01" nType="-99"/>
        </Node>
        <Node pos="r" depth="1" NCoef="0" IVar="3" Cut="4.7176519775390625e+02" cType="1" res="-1.9859973341226578e-02" rms="3.7170055508613586e-01" purity="5.6255459785461426e-01" nType="0">
          <Node pos="l" depth="2" NCoef="0" IVar="-1" Cut="0.0000000000000000e+00" cType="1" res="-8.9171817526221275e-03" rms="4.0726721286773682e-01" purity="4.6831104159355164e-01" nType="-99"/>
          <Node pos="r" depth="2" NCoef="0" IVar="-1" Cut="0.0000000000000000e+00" cType="1" res="7.2381399571895599e-02" rms="9.9029913544654846e-02" purity="9.9098777770996094e-01" nType="-99"/>
        </Node>
      </Node>
    </BinaryTree>
    <BinaryTree type="DecisionTree" boostWeight="1.0000000000000000e+00" itree="59">
      <Node pos="s" depth="0" NCoef="0" IVar="2" Cut="2.0593204498291016e+00" cType="1" res="-8.0273728817701340e-03" rms="3.6299130320549011e-01" purity="4.9959158897399902e-01" nType="0">
        <Node pos="l" depth="1" NCoef="0" IVar="4" Cut="8.9331531524658203e-01" cType="1" res="-2.4625331163406372e-02" rms="4.0002366900444031e-01" purity="3.3732387423515320e-01" nType="0">
          <Node pos="l" depth="2" NCoef="0" IVar="-1" Cut="0.0000000000000000e+00" cType="1" res="-2.4620801210403442e-02" rms="4.2534807324409485e-01" purity="2.7905321121215820e-01" nType="-99"/>
          <Node pos="r" depth="2" NCoef="0" IVar="-1" Cut="0.0000000000000000e+00" cType="1" res="4.1468054405413568e-04" rms="3.8774189352989197e-01" purity="3.5683253407478333e-01" nType="-99"/>
        </Node>
        <Node pos="r" depth="1" NCoef="0" IVar="4" Cut="1.4778845310211182e+00" cType="1" res="3.4985281527042389e-03" rms="3.3439037203788757e-01" purity="6.1227303743362427e-01" nType="0">
          <Node pos="l" depth="2" NCoef="0" IVar="-1" Cut="0.0000000000000000e+00" cType="1" res="1.6366215422749519e-02" rms="3.0863612890243530e-01" purity="7.3980790376663208e-01" nType="-99"/>
          <Node pos="r" depth="2" NCoef="0" IVar="-1" Cut="0.0000000000000000e+00" cType="1" res="-9.3372426927089691e-03" rms="3.5586720705032349e-01" purity="4.8884311318397522e-01" nType="-99"/>
        </Node>
      </Node>
    </BinaryTree>
    <BinaryTree type="DecisionTree" boostWeight="1.0000000000000000e+00" itree="60">
      <Node pos="s" depth="0" NCoef="0" IVar="2" Cut="1.6385049819946289e+00" cType="1" res="-1.6058614477515221e-02" rms="3.6884048581123352e-01" purity="4.9390059709548950e-01" nType="0">
        <Node pos="l" depth="1" NCoef="0" IVar="3" Cut="7.6495597839355469e+01" cType="1" res="-4.0232323110103607e-02" rms="4.0793281793594360e-01" purity="3.2117673754692078e-01" nType="0">
          <Node pos="l" depth="2" NCoef="0" IVar="-1" Cut="0.0000000000000000e+00" cType="1" res="-4.3980865739285946e-03" rms="3.9016675949096680e-01" purity="2.8086239099502563e-01" nType="-99"/>
          <Node pos="r" depth="2" NCoef="0" IVar="-1" Cut="0.0000000000000000e+00" cType="1" res="-2.6741614565253258e-02" rms="4.5887726545333862e-01" purity="4.8271340131759644e-01" nType="-99"/>
        </Node>
        <Node pos="r" depth="1" NCoef="0" IVar="4" Cut="3.1852252483367920e+00" cType="1" res="-1.9973653834313154e-03" rms="3.4328210353851318e-01" purity="5.9436982870101929e-01" nType="0">
          <Node pos="l" depth="2" NCoef="0" IVar="-1" Cut="0.0000000000000000e+00" cType="1" res="5.0962897948920727e-03" rms="3.2961645722389221e-01" purity="6.5101563930511475e-01" nType="-99"/>
          <Node pos="r" depth="2" NCoef="0" IVar="-1" Cut="0.0000000000000000e+00" cType="1" res="-2.2193251177668571e-02" rms="3.9764836430549622e-01" purity="3.2387039065361023e-01" nType="-99"/>
        </Node>
      </Node>
    </BinaryTree>
    <BinaryTree type="DecisionTree" boostWeight="1.0000000000000000e+00" itree="61">
      <Node pos="s" depth="0" NCoef="0" IVar="1" Cut="1.9118757247924805e+01" cType="1" res="-3.1632238533347845e-03" rms="3.5925117135047913e-01" purity="5.0200909376144409e-01" nType="0">
        <Node pos="l" depth="1" NCoef="0" IVar="4" Cut="1.2992712259292603e+00" cType="1" res="-1.8685316666960716e-02" rms="3.6222153902053833e-01" purity="2.5580230355262756e-01" nType="0">
          <Node pos="l" depth="2" NCoef="0" IVar="-1" Cut="0.0000000000000000e+00" cType="1" res="1.3283435255289078e-02" rms="3.8438788056373596e-01" purity="3.4896761178970337e-01" nType="-99"/>
          <Node pos="r" depth="2" NCoef="0" IVar="-1" Cut="0.0000000000000000e+00" cType="1" res="-1.4887095429003239e-02" rms="3.4922727942466736e-01" purity="2.1392965316772461e-01" nType="-99"/>
        </Node>
        <Node pos="r" depth="1" NCoef="0" IVar="4" Cut="1.1612442731857300e+00" cType="1" res="1.1461599729955196e-02" rms="3.5581085085868835e-01" purity="7.3398369550704956e-01" nType="0">
          <Node pos="l" depth="2" NCoef="0" IVar="-1" Cut="0.0000000000000000e+00" cType="1" res="-4.2543155141174793e-03" rms="3.3255928754806519e-01" purity="7.5593686103820801e-01" nType="-99"/>
          <Node pos="r" depth="2" NCoef="0" IVar="-1" Cut="0.0000000000000000e+00" cType="1" res="1.3694141991436481e-02" rms="3.7265127897262573e-01" purity="7.1620279550552368e-01" nType="-99"/>
        </Node>
      </Node>
    </BinaryTree>
    <BinaryTree type="DecisionTree" boostWeight="1.0000000000000000e+00" itree="62">
      <Node pos="s" depth="0" NCoef="0" IVar="0" Cut="3.5112884521484375e+01" cType="1" res="9.8994467407464981e-04" rms="3.5839667916297913e-01" purity="4.9754187464714050e-01" nType="0">
        <Node pos="l" depth="1" NCoef="0" IVar="4" Cut="3.9968993663787842e+00" cType="1" res="-1.7185112461447716e-02" rms="3.4618383646011353e-01" purity="1.8266697227954865e-01" nType="0">
          <Node pos="l" depth="2" NCoef="0" IVar="-1" Cut="0.0000000000000000e+00" cType="1" res="-1.7529230099171400e-03" rms="3.5335484147071838e-01" purity="1.9981054961681366e-01" nType="-99"/>
          <Node pos="r" depth="2" NCoef="0" IVar="-1" Cut="0.0000000000000000e+00" cType="1" res="-2.6135407388210297e-02" rms="3.0330765247344971e-01" purity="1.0222896188497543e-01" nType="-99"/>
        </Node>
        <Node pos="r" depth="1" NCoef="0" IVar="3" Cut="1.8157096862792969e+02" cType="1" res="1.7115214839577675e-02" rms="3.6814337968826294e-01" purity="7.7690505981445312e-01" nType="0">
          <Node pos="l" depth="2" NCoef="0" IVar="-1" Cut="0.0000000000000000e+00" cType="1" res="1.6915520653128624e-02" rms="4.5159250497817993e-01" purity="6.2304782867431641e-01" nType="-99"/>
          <Node pos="r" depth="2" NCoef="0" IVar="-1" Cut="0.0000000000000000e+00" cType="1" res="-1.9731653854250908e-02" rms="2.8117793798446655e-01" purity="8.9676445722579956e-01" nType="-99"/>
        </Node>
      </Node>
    </BinaryTree>
    <BinaryTree type="DecisionTree" boostWeight="1.0000000000000000e+00" itree="63">
      <Node pos="s" depth="0" NCoef="0" IVar="1" Cut="4.0015384674072266e+01" cType="1" res="4.1567906737327576e-03" rms="3.5863038897514343e-01" purity="5.0446659326553345e-01" nType="0">
        <Node pos="l" depth="1" NCoef="0" IVar="1" Cut="1.5703239440917969e+01" cType="1" res="-9.3746196944266558e-04" rms="3.7073639035224915e-01" purity="4.3024665117263794e-01" nType="0">
          <Node pos="l" depth="2" NCoef="0" IVar="-1" Cut="0.0000000000000000e+00" cType="1" res="-9.4664301723241806e-03" rms="3.2743325829505920e-01" purity="2.0079514384269714e-01" nType="-99"/>
          <Node pos="r" depth="2" NCoef="0" IVar="-1" Cut="0.0000000000000000e+00" cType="1" res="6.2501183710992336e-03" rms="3.9648440480232239e-01" purity="5.8615380525588989e-01" nType="-99"/>
