<?xml version="1.0"?>
<MethodSetup Method="BDT::BDTG">
  <GeneralInfo>
    <Info name="TMVA Release" value="4.2.0 [262656]"/>
    <Info name="ROOT Release" value="5.34/22 [336406]"/>
    <Info name="Creator" value="lcorpe"/>
    <Info name="Date" value="Fri Apr 10 15:26:42 2015"/>
    <Info name="Host" value="Linux cmsbuild11.cern.ch 2.6.32-504.1.3.el6.x86_64 #1 SMP Wed Nov 12 06:58:35 CET 2014 x86_64 x86_64 x86_64 GNU/Linux"/>
    <Info name="Dir" value="/afs/cern.ch/work/l/lcorpe/private/FLASH_Apr2015_2/CMSSW_7_4_0_pre9/src/flashgg/Taggers/test/MVATraining"/>
    <Info name="Training events" value="13730"/>
    <Info name="TrainingTime" value="8.47632813e+00"/>
    <Info name="AnalysisType" value="Classification"/>
  </GeneralInfo>
  <Options>
    <Option name="V" modified="Yes">False</Option>
    <Option name="VerbosityLevel" modified="No">Default</Option>
    <Option name="VarTransform" modified="No">None</Option>
    <Option name="H" modified="Yes">False</Option>
    <Option name="CreateMVAPdfs" modified="No">False</Option>
    <Option name="IgnoreNegWeightsInTraining" modified="No">False</Option>
    <Option name="NTrees" modified="Yes">1000</Option>
    <Option name="MaxDepth" modified="Yes">2</Option>
    <Option name="MinNodeSize" modified="No">5%</Option>
    <Option name="nCuts" modified="Yes">20</Option>
    <Option name="BoostType" modified="Yes">Grad</Option>
    <Option name="AdaBoostR2Loss" modified="No">quadratic</Option>
    <Option name="UseBaggedBoost" modified="No">True</Option>
    <Option name="Shrinkage" modified="Yes">3.000000e-01</Option>
    <Option name="AdaBoostBeta" modified="No">5.000000e-01</Option>
    <Option name="UseRandomisedTrees" modified="No">False</Option>
    <Option name="UseNvars" modified="No">2</Option>
    <Option name="UsePoissonNvars" modified="No">True</Option>
    <Option name="BaggedSampleFraction" modified="No">6.000000e-01</Option>
    <Option name="UseYesNoLeaf" modified="No">True</Option>
    <Option name="NegWeightTreatment" modified="No">ignorenegweightsintraining</Option>
    <Option name="Css" modified="No">1.000000e+00</Option>
    <Option name="Cts_sb" modified="No">1.000000e+00</Option>
    <Option name="Ctb_ss" modified="No">1.000000e+00</Option>
    <Option name="Cbb" modified="No">1.000000e+00</Option>
    <Option name="NodePurityLimit" modified="No">5.000000e-01</Option>
    <Option name="SeparationType" modified="Yes">giniindex</Option>
    <Option name="DoBoostMonitor" modified="No">False</Option>
    <Option name="UseFisherCuts" modified="No">False</Option>
    <Option name="MinLinCorrForFisher" modified="No">8.000000e-01</Option>
    <Option name="UseExclusiveVars" modified="No">False</Option>
    <Option name="DoPreselection" modified="No">False</Option>
    <Option name="SigToBkgFraction" modified="No">1.000000e+00</Option>
    <Option name="PruneMethod" modified="No">nopruning</Option>
    <Option name="PruneStrength" modified="No">0.000000e+00</Option>
    <Option name="PruningValFraction" modified="No">5.000000e-01</Option>
    <Option name="nEventsMin" modified="No">0</Option>
    <Option name="UseBaggedGrad" modified="Yes">True</Option>
    <Option name="GradBaggingFraction" modified="Yes">6.000000e-01</Option>
    <Option name="UseNTrainEvents" modified="No">0</Option>
    <Option name="NNodesMax" modified="Yes">5</Option>
  </Options>
  <Variables NVar="3">
    <Variable VarIndex="0" Expression="dipho_mva" Label="dipho_mva" Title="dipho_mva" Unit="" Internal="dipho_mva" Type="F" Min="-9.97490585e-01" Max="9.97002006e-01"/>
    <Variable VarIndex="1" Expression="dijet_mva" Label="dijet_mva" Title="dijet_mva" Unit="" Internal="dijet_mva" Type="F" Min="-9.97301221e-01" Max="9.94985223e-01"/>
    <Variable VarIndex="2" Expression="dipho_PToM" Label="dipho_PToM" Title="dipho_PToM" Unit="" Internal="dipho_PToM" Type="F" Min="1.16143445e-03" Max="1.15605064e+02"/>
  </Variables>
  <Spectators NSpec="0"/>
  <Classes NClass="2">
    <Class Name="Signal" Index="0"/>
    <Class Name="Background" Index="1"/>
  </Classes>
  <Transformations NTransformations="0"/>
  <MVAPdfs/>
  <Weights NTrees="1000" AnalysisType="1">
    <BinaryTree type="DecisionTree" boostWeight="1.0000000000000000e+00" itree="0">
      <Node pos="s" depth="0" NCoef="0" IVar="1" Cut="-1.4396433532238007e-01" cType="1" res="-1.4734516153112054e-03" rms="4.9999782443046570e-01" purity="4.9852654337882996e-01" nType="0">
        <Node pos="l" depth="1" NCoef="0" IVar="1" Cut="-4.2858505249023438e-01" cType="1" res="-3.4894934296607971e-01" rms="3.5809823870658875e-01" purity="1.5105065703392029e-01" nType="0">
          <Node pos="l" depth="2" NCoef="0" IVar="-1" Cut="0.0000000000000000e+00" cType="1" res="-2.9808259010314941e-01" rms="2.9774531722068787e-01" purity="9.8318874835968018e-02" nType="-99"/>
          <Node pos="r" depth="2" NCoef="0" IVar="-1" Cut="0.0000000000000000e+00" cType="1" res="-5.1700882613658905e-02" rms="4.9097064137458801e-01" purity="4.0540698170661926e-01" nType="-99"/>
        </Node>
        <Node pos="r" depth="1" NCoef="0" IVar="1" Cut="6.1459136009216309e-01" cType="1" res="2.9195496439933777e-01" rms="4.0590921044349670e-01" purity="7.9195499420166016e-01" nType="0">
          <Node pos="l" depth="2" NCoef="0" IVar="-1" Cut="0.0000000000000000e+00" cType="1" res="6.3618183135986328e-02" rms="4.8005646467208862e-01" purity="6.3980633020401001e-01" nType="-99"/>
          <Node pos="r" depth="2" NCoef="0" IVar="-1" Cut="0.0000000000000000e+00" cType="1" res="1.6482684016227722e-01" rms="2.3774895071983337e-01" purity="9.3985837697982788e-01" nType="-99"/>
        </Node>
      </Node>
    </BinaryTree>
    <BinaryTree type="DecisionTree" boostWeight="1.0000000000000000e+00" itree="1">
      <Node pos="s" depth="0" NCoef="0" IVar="1" Cut="2.3667417466640472e-01" cType="1" res="2.6255279779434204e-02" rms="4.4049423933029175e-01" purity="5.0086110830307007e-01" nType="0">
        <Node pos="l" depth="1" NCoef="0" IVar="1" Cut="-5.8491784334182739e-01" cType="1" res="-1.7541573941707611e-01" rms="3.9629665017127991e-01" purity="2.3196165263652802e-01" nType="0">
          <Node pos="l" depth="2" NCoef="0" IVar="-1" Cut="0.0000000000000000e+00" cType="1" res="-2.1975646913051605e-01" rms="2.8238528966903687e-01" purity="8.7375998497009277e-02" nType="-99"/>
          <Node pos="r" depth="2" NCoef="0" IVar="-1" Cut="0.0000000000000000e+00" cType="1" res="-2.7633342891931534e-02" rms="4.8407915234565735e-01" purity="4.2720651626586914e-01" nType="-99"/>
        </Node>
        <Node pos="r" depth="1" NCoef="0" IVar="1" Cut="6.7004251480102539e-01" cType="1" res="2.9507809877395630e-01" rms="3.4184017777442932e-01" purity="8.5929787158966064e-01" nType="0">
          <Node pos="l" depth="2" NCoef="0" IVar="-1" Cut="0.0000000000000000e+00" cType="1" res="8.5772529244422913e-02" rms="4.3858426809310913e-01" purity="7.3858428001403809e-01" nType="-99"/>
          <Node pos="r" depth="2" NCoef="0" IVar="-1" Cut="0.0000000000000000e+00" cType="1" res="1.3805542886257172e-01" rms="2.3680369555950165e-01" purity="9.4036799669265747e-01" nType="-99"/>
        </Node>
      </Node>
    </BinaryTree>
    <BinaryTree type="DecisionTree" boostWeight="1.0000000000000000e+00" itree="2">
      <Node pos="s" depth="0" NCoef="0" IVar="1" Cut="3.3088973164558411e-01" cType="1" res="3.4280162304639816e-02" rms="4.0575256943702698e-01" purity="4.9927914142608643e-01" nType="0">
        <Node pos="l" depth="1" NCoef="0" IVar="0" Cut="-3.3343720436096191e-01" cType="1" res="-1.1359163373708725e-01" rms="3.9270001649856567e-01" purity="2.4923962354660034e-01" nType="0">
          <Node pos="l" depth="2" NCoef="0" IVar="-1" Cut="0.0000000000000000e+00" cType="1" res="-1.6814085841178894e-01" rms="3.0407732725143433e-01" purity="1.3451106846332550e-01" nType="-99"/>
          <Node pos="r" depth="2" NCoef="0" IVar="-1" Cut="0.0000000000000000e+00" cType="1" res="-1.8275054171681404e-02" rms="4.4384589791297913e-01" purity="3.5626661777496338e-01" nType="-99"/>
        </Node>
        <Node pos="r" depth="1" NCoef="0" IVar="1" Cut="7.4201178550720215e-01" cType="1" res="2.6531597971916199e-01" rms="3.0557665228843689e-01" purity="8.8994252681732178e-01" nType="0">
          <Node pos="l" depth="2" NCoef="0" IVar="-1" Cut="0.0000000000000000e+00" cType="1" res="8.4190100431442261e-02" rms="4.0337243676185608e-01" purity="7.9211300611495972e-01" nType="-99"/>
          <Node pos="r" depth="2" NCoef="0" IVar="-1" Cut="0.0000000000000000e+00" cType="1" res="1.2843386828899384e-01" rms="1.8461427092552185e-01" purity="9.6466928720474243e-01" nType="-99"/>
        </Node>
      </Node>
    </BinaryTree>
    <BinaryTree type="DecisionTree" boostWeight="1.0000000000000000e+00" itree="3">
      <Node pos="s" depth="0" NCoef="0" IVar="1" Cut="-1.4208403229713440e-01" cType="1" res="4.9502626061439514e-02" rms="3.8950845599174500e-01" purity="5.1602083444595337e-01" nType="0">
        <Node pos="l" depth="1" NCoef="0" IVar="1" Cut="-7.1070694923400879e-01" cType="1" res="-1.0736055672168732e-01" rms="3.4584069252014160e-01" purity="1.6156481206417084e-01" nType="0">
          <Node pos="l" depth="2" NCoef="0" IVar="-1" Cut="0.0000000000000000e+00" cType="1" res="-1.8817593157291412e-01" rms="2.2675174474716187e-01" purity="5.5851265788078308e-02" nType="-99"/>
          <Node pos="r" depth="2" NCoef="0" IVar="-1" Cut="0.0000000000000000e+00" cType="1" res="-2.1899806335568428e-02" rms="4.4307857751846313e-01" purity="2.9647967219352722e-01" nType="-99"/>
        </Node>
        <Node pos="r" depth="1" NCoef="0" IVar="0" Cut="-6.1614298820495605e-01" cType="1" res="1.7327830195426941e-01" rms="3.7725108861923218e-01" purity="7.9571062326431274e-01" nType="0">
          <Node pos="l" depth="2" NCoef="0" IVar="-1" Cut="0.0000000000000000e+00" cType="1" res="1.0714728385210037e-02" rms="4.7370085120201111e-01" purity="5.7363718748092651e-01" nType="-99"/>
          <Node pos="r" depth="2" NCoef="0" IVar="-1" Cut="0.0000000000000000e+00" cType="1" res="8.9663401246070862e-02" rms="3.4922596812248230e-01" purity="8.3697336912155151e-01" nType="-99"/>
        </Node>
      </Node>
    </BinaryTree>
    <BinaryTree type="DecisionTree" boostWeight="1.0000000000000000e+00" itree="4">
      <Node pos="s" depth="0" NCoef="0" IVar="1" Cut="1.4204326272010803e-01" cType="1" res="2.7759108692407608e-02" rms="3.7138125300407410e-01" purity="4.9040639400482178e-01" nType="0">
        <Node pos="l" depth="1" NCoef="0" IVar="0" Cut="4.3228641152381897e-02" cType="1" res="-8.0121837556362152e-02" rms="3.5507211089134216e-01" purity="1.9190303981304169e-01" nType="0">
          <Node pos="l" depth="2" NCoef="0" IVar="-1" Cut="0.0000000000000000e+00" cType="1" res="-1.3194233179092407e-01" rms="2.8467658162117004e-01" purity="1.0759493708610535e-01" nType="-99"/>
          <Node pos="r" depth="2" NCoef="0" IVar="-1" Cut="0.0000000000000000e+00" cType="1" res="-1.1964743956923485e-02" rms="4.3093723058700562e-01" purity="3.1613725423812866e-01" nType="-99"/>
        </Node>
        <Node pos="r" depth="1" NCoef="0" IVar="1" Cut="5.8933538198471069e-01" cType="1" res="1.5344364941120148e-01" rms="3.4981644153594971e-01" purity="8.3817178010940552e-01" nType="0">
          <Node pos="l" depth="2" NCoef="0" IVar="-1" Cut="0.0000000000000000e+00" cType="1" res="3.3640734851360321e-02" rms="4.6068176627159119e-01" purity="6.8192934989929199e-01" nType="-99"/>
          <Node pos="r" depth="2" NCoef="0" IVar="-1" Cut="0.0000000000000000e+00" cType="1" res="9.6737481653690338e-02" rms="2.4999907612800598e-01" purity="9.3111306428909302e-01" nType="-99"/>
        </Node>
      </Node>
    </BinaryTree>
    <BinaryTree type="DecisionTree" boostWeight="1.0000000000000000e+00" itree="5">
      <Node pos="s" depth="0" NCoef="0" IVar="1" Cut="3.3043342828750610e-01" cType="1" res="3.6390371620655060e-02" rms="3.6200764775276184e-01" purity="5.0471878051757812e-01" nType="0">
        <Node pos="l" depth="1" NCoef="0" IVar="1" Cut="-7.4387019872665405e-01" cType="1" res="-3.8923613727092743e-02" rms="3.7729361653327942e-01" purity="2.4638240039348602e-01" nType="0">
          <Node pos="l" depth="2" NCoef="0" IVar="-1" Cut="0.0000000000000000e+00" cType="1" res="-1.6705650091171265e-01" rms="1.9481514394283295e-01" purity="4.0121272206306458e-02" nType="-99"/>
          <Node pos="r" depth="2" NCoef="0" IVar="-1" Cut="0.0000000000000000e+00" cType="1" res="9.3380542239174247e-05" rms="4.5032984018325806e-01" purity="3.7370893359184265e-01" nType="-99"/>
        </Node>
        <Node pos="r" depth="1" NCoef="0" IVar="1" Cut="8.0443602800369263e-01" cType="1" res="1.4777059853076935e-01" rms="3.0584764480590820e-01" purity="8.8676697015762329e-01" nType="0">
          <Node pos="l" depth="2" NCoef="0" IVar="-1" Cut="0.0000000000000000e+00" cType="1" res="5.0532441586256027e-02" rms="3.8752883672714233e-01" purity="8.0777508020401001e-01" nType="-99"/>
          <Node pos="r" depth="2" NCoef="0" IVar="-1" Cut="0.0000000000000000e+00" cType="1" res="1.0245404392480850e-01" rms="1.7600172758102417e-01" purity="9.6784889698028564e-01" nType="-99"/>
        </Node>
      </Node>
    </BinaryTree>
    <BinaryTree type="DecisionTree" boostWeight="1.0000000000000000e+00" itree="6">
      <Node pos="s" depth="0" NCoef="0" IVar="1" Cut="4.6277392655611038e-02" cType="1" res="4.2705792933702469e-02" rms="3.6050739884376526e-01" purity="5.1076263189315796e-01" nType="0">
        <Node pos="l" depth="1" NCoef="0" IVar="0" Cut="4.1336588561534882e-02" cType="1" res="-2.1753203123807907e-02" rms="3.5810238122940063e-01" purity="1.9695939123630524e-01" nType="0">
          <Node pos="l" depth="2" NCoef="0" IVar="-1" Cut="0.0000000000000000e+00" cType="1" res="-8.0281801521778107e-02" rms="2.8409901261329651e-01" purity="1.0914075374603271e-01" nType="-99"/>
          <Node pos="r" depth="2" NCoef="0" IVar="-1" Cut="0.0000000000000000e+00" cType="1" res="2.7447244152426720e-02" rms="4.4132068753242493e-01" purity="3.3022704720497131e-01" nType="-99"/>
        </Node>
        <Node pos="r" depth="1" NCoef="0" IVar="0" Cut="-8.0592471361160278e-01" cType="1" res="1.0822971910238266e-01" rms="3.5100629925727844e-01" purity="8.2975023984909058e-01" nType="0">
          <Node pos="l" depth="2" NCoef="0" IVar="-1" Cut="0.0000000000000000e+00" cType="1" res="-1.6707934439182281e-02" rms="4.8474118113517761e-01" purity="5.8148044347763062e-01" nType="-99"/>
          <Node pos="r" depth="2" NCoef="0" IVar="-1" Cut="0.0000000000000000e+00" cType="1" res="6.6933982074260712e-02" rms="3.2703316211700439e-01" purity="8.6000317335128784e-01" nType="-99"/>
        </Node>
      </Node>
    </BinaryTree>
    <BinaryTree type="DecisionTree" boostWeight="1.0000000000000000e+00" itree="7">
      <Node pos="s" depth="0" NCoef="0" IVar="1" Cut="4.2513507604598999e-01" cType="1" res="2.3325031623244286e-02" rms="3.5435464978218079e-01" purity="5.0038391351699829e-01" nType="0">
        <Node pos="l" depth="1" NCoef="0" IVar="1" Cut="-2.5242304801940918e-01" cType="1" res="-2.2202154621481895e-02" rms="3.7652611732482910e-01" purity="2.7766984701156616e-01" nType="0">
          <Node pos="l" depth="2" NCoef="0" IVar="-1" Cut="0.0000000000000000e+00" cType="1" res="-6.3648141920566559e-02" rms="3.0201777815818787e-01" purity="1.1708007752895355e-01" nType="-99"/>
          <Node pos="r" depth="2" NCoef="0" IVar="-1" Cut="0.0000000000000000e+00" cType="1" res="1.1826166883111000e-02" rms="4.8084238171577454e-01" purity="5.7175916433334351e-01" nType="-99"/>
        </Node>
        <Node pos="r" depth="1" NCoef="0" IVar="1" Cut="9.1257905960083008e-01" cType="1" res="1.0434065014123917e-01" rms="2.9407319426536560e-01" purity="8.9670354127883911e-01" nType="0">
          <Node pos="l" depth="2" NCoef="0" IVar="-1" Cut="0.0000000000000000e+00" cType="1" res="4.6117179095745087e-02" rms="3.4397324919700623e-01" purity="8.5522860288619995e-01" nType="-99"/>
          <Node pos="r" depth="2" NCoef="0" IVar="-1" Cut="0.0000000000000000e+00" cType="1" res="9.9012978374958038e-02" rms="1.3236749172210693e-01" purity="9.8153847455978394e-01" nType="-99"/>
        </Node>
      </Node>
    </BinaryTree>
    <BinaryTree type="DecisionTree" boostWeight="1.0000000000000000e+00" itree="8">
      <Node pos="s" depth="0" NCoef="0" IVar="1" Cut="7.1037286520004272e-01" cType="1" res="2.9749777168035507e-02" rms="3.5191401839256287e-01" purity="5.0607132911682129e-01" nType="0">
        <Node pos="l" depth="1" NCoef="0" IVar="1" Cut="-8.3468419313430786e-01" cType="1" res="2.0267933141440153e-03" rms="3.8392829895019531e-01" purity="3.6117380857467651e-01" nType="0">
          <Node pos="l" depth="2" NCoef="0" IVar="-1" Cut="0.0000000000000000e+00" cType="1" res="-1.5242029726505280e-01" rms="1.6015543043613434e-01" purity="2.7214350178837776e-02" nType="-99"/>
          <Node pos="r" depth="2" NCoef="0" IVar="-1" Cut="0.0000000000000000e+00" cType="1" res="1.2919825501739979e-02" rms="4.2321494221687317e-01" purity="4.5179110765457153e-01" nType="-99"/>
        </Node>
        <Node pos="r" depth="1" NCoef="0" IVar="1" Cut="8.8702851533889771e-01" cType="1" res="1.1585122346878052e-01" rms="2.0218491554260254e-01" purity="9.5609092712402344e-01" nType="0">
          <Node pos="l" depth="2" NCoef="0" IVar="-1" Cut="0.0000000000000000e+00" cType="1" res="5.9291280806064606e-02" rms="2.7720904350280762e-01" purity="9.1529905796051025e-01" nType="-99"/>
          <Node pos="r" depth="2" NCoef="0" IVar="-1" Cut="0.0000000000000000e+00" cType="1" res="9.7522765398025513e-02" rms="1.1500483006238937e-01" purity="9.8641788959503174e-01" nType="-99"/>
        </Node>
      </Node>
    </BinaryTree>
    <BinaryTree type="DecisionTree" boostWeight="1.0000000000000000e+00" itree="9">
      <Node pos="s" depth="0" NCoef="0" IVar="0" Cut="6.1736816167831421e-01" cType="1" res="1.9409254193305969e-02" rms="3.5488998889923096e-01" purity="5.0496029853820801e-01" nType="0">
        <Node pos="l" depth="1" NCoef="0" IVar="1" Cut="5.1677882671356201e-01" cType="1" res="-1.5351030975580215e-02" rms="3.5176596045494080e-01" purity="3.4811788797378540e-01" nType="0">
          <Node pos="l" depth="2" NCoef="0" IVar="-1" Cut="0.0000000000000000e+00" cType="1" res="-3.1145546585321426e-02" rms="3.5467109084129333e-01" purity="2.2278507053852081e-01" nType="-99"/>
          <Node pos="r" depth="2" NCoef="0" IVar="-1" Cut="0.0000000000000000e+00" cType="1" res="3.0314419418573380e-02" rms="3.3298093080520630e-01" purity="8.6404514312744141e-01" nType="-99"/>
        </Node>
        <Node pos="r" depth="1" NCoef="0" IVar="1" Cut="6.1602568626403809e-01" cType="1" res="7.1327596902847290e-02" rms="3.5319122672080994e-01" purity="7.3922181129455566e-01" nType="0">
          <Node pos="l" depth="2" NCoef="0" IVar="-1" Cut="0.0000000000000000e+00" cType="1" res="2.9266906902194023e-02" rms="4.4698116183280945e-01" purity="5.4144424200057983e-01" nType="-99"/>
          <Node pos="r" depth="2" NCoef="0" IVar="-1" Cut="0.0000000000000000e+00" cType="1" res="7.4402779340744019e-02" rms="2.0380677282810211e-01" purity="9.5531445741653442e-01" nType="-99"/>
        </Node>
      </Node>
    </BinaryTree>
    <BinaryTree type="DecisionTree" boostWeight="1.0000000000000000e+00" itree="10">
      <Node pos="s" depth="0" NCoef="0" IVar="1" Cut="9.0014910697937012e-01" cType="1" res="1.1868374422192574e-02" rms="3.5722014307975769e-01" purity="4.8742470145225525e-01" nType="0">
        <Node pos="l" depth="1" NCoef="0" IVar="0" Cut="-7.1301662921905518e-01" cType="1" res="-3.2860026112757623e-04" rms="3.7799263000488281e-01" purity="4.1255354881286621e-01" nType="0">
          <Node pos="l" depth="2" NCoef="0" IVar="-1" Cut="0.0000000000000000e+00" cType="1" res="-3.6745063960552216e-02" rms="3.2961153984069824e-01" purity="1.9190366566181183e-01" nType="-99"/>
          <Node pos="r" depth="2" NCoef="0" IVar="-1" Cut="0.0000000000000000e+00" cType="1" res="9.5538394525647163e-03" rms="3.9738646149635315e-01" purity="5.1301348209381104e-01" nType="-99"/>
        </Node>
        <Node pos="r" depth="1" NCoef="0" IVar="-1" Cut="0.0000000000000000e+00" cType="1" res="8.4492661058902740e-02" rms="1.4085906744003296e-01" purity="9.7944802045822144e-01" nType="-99"/>
      </Node>
    </BinaryTree>
    <BinaryTree type="DecisionTree" boostWeight="1.0000000000000000e+00" itree="11">
      <Node pos="s" depth="0" NCoef="0" IVar="1" Cut="4.2576053738594055e-01" cType="1" res="2.1035213023424149e-02" rms="3.5132288932800293e-01" purity="5.0195461511611938e-01" nType="0">
        <Node pos="l" depth="1" NCoef="0" IVar="1" Cut="-7.9402142763137817e-01" cType="1" res="1.3107639970257878e-03" rms="3.8041272759437561e-01" purity="2.7831524610519409e-01" nType="0">
          <Node pos="l" depth="2" NCoef="0" IVar="-1" Cut="0.0000000000000000e+00" cType="1" res="-8.5378728806972504e-02" rms="1.9194410741329193e-01" purity="3.9437957108020782e-02" nType="-99"/>
          <Node pos="r" depth="2" NCoef="0" IVar="-1" Cut="0.0000000000000000e+00" cType="1" res="9.9890530109405518e-03" rms="4.4134825468063354e-01" purity="3.9037874341011047e-01" nType="-99"/>
        </Node>
        <Node pos="r" depth="1" NCoef="0" IVar="1" Cut="8.5950136184692383e-01" cType="1" res="5.6145891547203064e-02" rms="2.8915742039680481e-01" purity="9.0004581212997437e-01" nType="0">
          <Node pos="l" depth="2" NCoef="0" IVar="-1" Cut="0.0000000000000000e+00" cType="1" res="2.6113795116543770e-02" rms="3.5846522450447083e-01" purity="8.4284543991088867e-01" nType="-99"/>
          <Node pos="r" depth="2" NCoef="0" IVar="-1" Cut="0.0000000000000000e+00" cType="1" res="7.7004589140415192e-02" rms="1.5660274028778076e-01" purity="9.7439628839492798e-01" nType="-99"/>
        </Node>
      </Node>
    </BinaryTree>
    <BinaryTree type="DecisionTree" boostWeight="1.0000000000000000e+00" itree="12">
      <Node pos="s" depth="0" NCoef="0" IVar="1" Cut="-3.3205911517143250e-01" cType="1" res="1.8682425841689110e-02" rms="3.5249352455139160e-01" purity="5.0084769725799561e-01" nType="0">
        <Node pos="l" depth="1" NCoef="0" IVar="1" Cut="-8.6926400661468506e-01" cType="1" res="-5.1064733415842056e-03" rms="3.0799952149391174e-01" purity="1.1957004666328430e-01" nType="0">
          <Node pos="l" depth="2" NCoef="0" IVar="-1" Cut="0.0000000000000000e+00" cType="1" res="-1.4108601212501526e-01" rms="1.3166382908821106e-01" purity="1.8318865448236465e-02" nType="-99"/>
          <Node pos="r" depth="2" NCoef="0" IVar="-1" Cut="0.0000000000000000e+00" cType="1" res="1.0545773431658745e-02" rms="3.5778415203094482e-01" purity="1.6357515752315521e-01" nType="-99"/>
        </Node>
        <Node pos="r" depth="1" NCoef="0" IVar="1" Cut="8.6868613958358765e-01" cType="1" res="3.4712072461843491e-02" rms="3.7870284914970398e-01" purity="7.5776356458663940e-01" nType="0">
          <Node pos="l" depth="2" NCoef="0" IVar="-1" Cut="0.0000000000000000e+00" cType="1" res="1.5356074087321758e-02" rms="4.2747566103935242e-01" purity="6.8538385629653931e-01" nType="-99"/>
          <Node pos="r" depth="2" NCoef="0" IVar="-1" Cut="0.0000000000000000e+00" cType="1" res="7.0154801011085510e-02" rms="1.5969258546829224e-01" purity="9.7315049171447754e-01" nType="-99"/>
        </Node>
      </Node>
    </BinaryTree>
    <BinaryTree type="DecisionTree" boostWeight="1.0000000000000000e+00" itree="13">
      <Node pos="s" depth="0" NCoef="0" IVar="1" Cut="8.0531305074691772e-01" cType="1" res="5.6844125501811504e-03" rms="3.5648041963577271e-01" purity="4.8309686779975891e-01" nType="0">
        <Node pos="l" depth="1" NCoef="0" IVar="0" Cut="-1.4298062026500702e-01" cType="1" res="-2.1115008275955915e-03" rms="3.8109546899795532e-01" purity="3.8296842575073242e-01" nType="0">
          <Node pos="l" depth="2" NCoef="0" IVar="-1" Cut="0.0000000000000000e+00" cType="1" res="-1.4949064701795578e-02" rms="3.4130427241325378e-01" purity="2.2417202591896057e-01" nType="-99"/>
          <Node pos="r" depth="2" NCoef="0" IVar="-1" Cut="0.0000000000000000e+00" cType="1" res="4.8776874318718910e-03" rms="4.1185730695724487e-01" purity="5.1868504285812378e-01" nType="-99"/>
        </Node>
        <Node pos="r" depth="1" NCoef="0" IVar="1" Cut="9.4083261489868164e-01" cType="1" res="4.2651422321796417e-02" rms="1.9832603633403778e-01" purity="9.5789045095443726e-01" nType="0">
          <Node pos="l" depth="2" NCoef="0" IVar="-1" Cut="0.0000000000000000e+00" cType="1" res="3.7196449935436249e-02" rms="2.3945404589176178e-01" purity="9.3756002187728882e-01" nType="-99"/>
          <Node pos="r" depth="2" NCoef="0" IVar="-1" Cut="0.0000000000000000e+00" cType="1" res="6.9990754127502441e-02" rms="1.4356398582458496e-01" purity="9.7886389493942261e-01" nType="-99"/>
        </Node>
      </Node>
    </BinaryTree>
    <BinaryTree type="DecisionTree" boostWeight="1.0000000000000000e+00" itree="14">
      <Node pos="s" depth="0" NCoef="0" IVar="1" Cut="6.1495512723922729e-01" cType="1" res="6.9361901842057705e-03" rms="3.4907376766204834e-01" purity="4.9776101112365723e-01" nType="0">
        <Node pos="l" depth="1" NCoef="0" IVar="0" Cut="8.9868634939193726e-01" cType="1" res="-8.6071593686938286e-03" rms="3.8516768813133240e-01" purity="3.2321256399154663e-01" nType="0">
          <Node pos="l" depth="2" NCoef="0" IVar="-1" Cut="0.0000000000000000e+00" cType="1" res="-1.4948280295357108e-03" rms="3.7943312525749207e-01" purity="3.1070756912231445e-01" nType="-99"/>
          <Node pos="r" depth="2" NCoef="0" IVar="-1" Cut="0.0000000000000000e+00" cType="1" res="-6.3050620257854462e-02" rms="4.4315993785858154e-01" purity="4.8536333441734314e-01" nType="-99"/>
        </Node>
        <Node pos="r" depth="1" NCoef="0" IVar="0" Cut="4.2923891544342041e-01" cType="1" res="4.6440996229648590e-02" rms="2.2873900830745697e-01" purity="9.4139134883880615e-01" nType="0">
          <Node pos="l" depth="2" NCoef="0" IVar="-1" Cut="0.0000000000000000e+00" cType="1" res="2.3238504305481911e-02" rms="2.9919686913490295e-01" purity="8.9366108179092407e-01" nType="-99"/>
          <Node pos="r" depth="2" NCoef="0" IVar="-1" Cut="0.0000000000000000e+00" cType="1" res="5.8587711304426193e-02" rms="1.9773966073989868e-01" purity="9.5812112092971802e-01" nType="-99"/>
        </Node>
      </Node>
    </BinaryTree>
    <BinaryTree type="DecisionTree" boostWeight="1.0000000000000000e+00" itree="15">
      <Node pos="s" depth="0" NCoef="0" IVar="0" Cut="-3.3177828788757324e-01" cType="1" res="1.3286535628139973e-02" rms="3.5600569844245911e-01" purity="4.9841758608818054e-01" nType="0">
        <Node pos="l" depth="1" NCoef="0" IVar="1" Cut="2.3064725100994110e-01" cType="1" res="-1.3801874592900276e-02" rms="3.2872086763381958e-01" purity="2.3034462332725525e-01" nType="0">
          <Node pos="l" depth="2" NCoef="0" IVar="-1" Cut="0.0000000000000000e+00" cType="1" res="-1.2278929352760315e-02" rms="2.9222548007965088e-01" purity="1.1992133408784866e-01" nType="-99"/>
          <Node pos="r" depth="2" NCoef="0" IVar="-1" Cut="0.0000000000000000e+00" cType="1" res="-2.5028852745890617e-02" rms="4.4709971547126770e-01" purity="6.8215501308441162e-01" nType="-99"/>
        </Node>
        <Node pos="r" depth="1" NCoef="0" IVar="0" Cut="-1.5193104743957520e-02" cType="1" res="2.7720911428332329e-02" rms="3.6891186237335205e-01" purity="6.4126342535018921e-01" nType="0">
          <Node pos="l" depth="2" NCoef="0" IVar="-1" Cut="0.0000000000000000e+00" cType="1" res="5.1245242357254028e-02" rms="3.5074433684349060e-01" purity="4.8790168762207031e-01" nType="-99"/>
          <Node pos="r" depth="2" NCoef="0" IVar="-1" Cut="0.0000000000000000e+00" cType="1" res="1.9723607227206230e-02" rms="3.7064161896705627e-01" purity="6.5771979093551636e-01" nType="-99"/>
        </Node>
      </Node>
    </BinaryTree>
    <BinaryTree type="DecisionTree" boostWeight="1.0000000000000000e+00" itree="16">
      <Node pos="s" depth="0" NCoef="0" IVar="0" Cut="2.3719529807567596e-01" cType="1" res="8.1728175282478333e-03" rms="3.5456833243370056e-01" purity="4.9454510211944580e-01" nType="0">
        <Node pos="l" depth="1" NCoef="0" IVar="1" Cut="-9.0085452795028687e-01" cType="1" res="-3.2878604251891375e-03" rms="3.4794718027114868e-01" purity="2.8734794259071350e-01" nType="0">
          <Node pos="l" depth="2" NCoef="0" IVar="-1" Cut="0.0000000000000000e+00" cType="1" res="-1.4481952786445618e-01" rms="9.9455453455448151e-02" purity="1.0346124880015850e-02" nType="-99"/>
          <Node pos="r" depth="2" NCoef="0" IVar="-1" Cut="0.0000000000000000e+00" cType="1" res="3.9295188616961241e-04" rms="3.7790110707283020e-01" purity="3.4172657132148743e-01" nType="-99"/>
        </Node>
        <Node pos="r" depth="1" NCoef="0" IVar="1" Cut="4.2796304821968079e-01" cType="1" res="1.8509685993194580e-02" rms="3.6012321710586548e-01" purity="6.8142497539520264e-01" nType="0">
          <Node pos="l" depth="2" NCoef="0" IVar="-1" Cut="0.0000000000000000e+00" cType="1" res="4.5024151913821697e-03" rms="4.4022145867347717e-01" purity="4.2412108182907104e-01" nType="-99"/>
          <Node pos="r" depth="2" NCoef="0" IVar="-1" Cut="0.0000000000000000e+00" cType="1" res="3.0605798587203026e-02" rms="2.6415848731994629e-01" purity="9.2084938287734985e-01" nType="-99"/>
        </Node>
      </Node>
    </BinaryTree>
    <BinaryTree type="DecisionTree" boostWeight="1.0000000000000000e+00" itree="17">
      <Node pos="s" depth="0" NCoef="0" IVar="0" Cut="-7.1142977476119995e-01" cType="1" res="6.6969487816095352e-03" rms="3.5485053062438965e-01" purity="4.9204775691032410e-01" nType="0">
        <Node pos="l" depth="1" NCoef="0" IVar="0" Cut="-9.6908479928970337e-01" cType="1" res="-1.5826106071472168e-02" rms="3.1765234470367432e-01" purity="1.9023832678794861e-01" nType="0">
          <Node pos="l" depth="2" NCoef="0" IVar="-1" Cut="0.0000000000000000e+00" cType="1" res="-7.1371510624885559e-02" rms="2.8813925385475159e-01" purity="1.1364679038524628e-01" nType="-99"/>
          <Node pos="r" depth="2" NCoef="0" IVar="-1" Cut="0.0000000000000000e+00" cType="1" res="-7.3961759917438030e-03" rms="3.2994040846824646e-01" purity="2.2559626400470734e-01" nType="-99"/>
        </Node>
        <Node pos="r" depth="1" NCoef="0" IVar="1" Cut="8.0435544252395630e-01" cType="1" res="1.5415939502418041e-02" rms="3.6787292361259460e-01" purity="6.0888242721557617e-01" nType="0">
          <Node pos="l" depth="2" NCoef="0" IVar="-1" Cut="0.0000000000000000e+00" cType="1" res="7.7010276727378368e-03" rms="4.0866550803184509e-01" purity="5.0045472383499146e-01" nType="-99"/>
          <Node pos="r" depth="2" NCoef="0" IVar="-1" Cut="0.0000000000000000e+00" cType="1" res="5.0753511488437653e-02" rms="1.7253684997558594e-01" purity="9.6889114379882812e-01" nType="-99"/>
        </Node>
      </Node>
    </BinaryTree>
    <BinaryTree type="DecisionTree" boostWeight="1.0000000000000000e+00" itree="18">
      <Node pos="s" depth="0" NCoef="0" IVar="1" Cut="8.9897227287292480e-01" cType="1" res="2.4276480544358492e-03" rms="3.5112378001213074e-01" purity="4.9715730547904968e-01" nType="0">
        <Node pos="l" depth="1" NCoef="0" IVar="0" Cut="8.0417782068252563e-01" cType="1" res="-1.7884088447317481e-03" rms="3.7199392914772034e-01" purity="4.2606836557388306e-01" nType="0">
          <Node pos="l" depth="2" NCoef="0" IVar="-1" Cut="0.0000000000000000e+00" cType="1" res="-4.9152234569191933e-03" rms="3.6537197232246399e-01" purity="3.6318314075469971e-01" nType="-99"/>
          <Node pos="r" depth="2" NCoef="0" IVar="-1" Cut="0.0000000000000000e+00" cType="1" res="7.4018868617713451e-03" rms="3.9581218361854553e-01" purity="6.6407245397567749e-01" nType="-99"/>
        </Node>
        <Node pos="r" depth="1" NCoef="0" IVar="-1" Cut="0.0000000000000000e+00" cType="1" res="5.8539014309644699e-02" rms="1.4110368490219116e-01" purity="9.7969216108322144e-01" nType="-99"/>
      </Node>
    </BinaryTree>
    <BinaryTree type="DecisionTree" boostWeight="1.0000000000000000e+00" itree="19">
      <Node pos="s" depth="0" NCoef="0" IVar="0" Cut="-3.3265972137451172e-01" cType="1" res="7.6132649555802345e-03" rms="3.5238614678382874e-01" purity="5.0481247901916504e-01" nType="0">
        <Node pos="l" depth="1" NCoef="0" IVar="1" Cut="-5.3169921040534973e-02" cType="1" res="-1.1403254233300686e-02" rms="3.1963363289833069e-01" purity="2.3147945106029510e-01" nType="0">
          <Node pos="l" depth="2" NCoef="0" IVar="-1" Cut="0.0000000000000000e+00" cType="1" res="-6.3674911856651306e-02" rms="2.3460887372493744e-01" purity="6.2744908034801483e-02" nType="-99"/>
          <Node pos="r" depth="2" NCoef="0" IVar="-1" Cut="0.0000000000000000e+00" cType="1" res="1.3912350870668888e-02" rms="4.6279627084732056e-01" purity="6.3867753744125366e-01" nType="-99"/>
        </Node>
        <Node pos="r" depth="1" NCoef="0" IVar="1" Cut="-1.4285787940025330e-01" cType="1" res="1.7840331420302391e-02" rms="3.6839389801025391e-01" purity="6.5181070566177368e-01" nType="0">
          <Node pos="l" depth="2" NCoef="0" IVar="-1" Cut="0.0000000000000000e+00" cType="1" res="3.7137556821107864e-02" rms="4.1485413908958435e-01" purity="2.6707747578620911e-01" nType="-99"/>
          <Node pos="r" depth="2" NCoef="0" IVar="-1" Cut="0.0000000000000000e+00" cType="1" res="6.3439435325562954e-03" rms="3.4355583786964417e-01" purity="8.3533602952957153e-01" nType="-99"/>
        </Node>
      </Node>
    </BinaryTree>
    <BinaryTree type="DecisionTree" boostWeight="1.0000000000000000e+00" itree="20">
      <Node pos="s" depth="0" NCoef="0" IVar="0" Cut="1.4108003675937653e-01" cType="1" res="1.1312817223370075e-02" rms="3.4917983412742615e-01" purity="5.1193296909332275e-01" nType="0">
        <Node pos="l" depth="1" NCoef="0" IVar="1" Cut="-2.4199618399143219e-01" cType="1" res="5.0869788537966087e-05" rms="3.2925230264663696e-01" purity="2.8843972086906433e-01" nType="0">
          <Node pos="l" depth="2" NCoef="0" IVar="-1" Cut="0.0000000000000000e+00" cType="1" res="-3.7932757288217545e-02" rms="2.4065116047859192e-01" purity="6.5271981060504913e-02" nType="-99"/>
          <Node pos="r" depth="2" NCoef="0" IVar="-1" Cut="0.0000000000000000e+00" cType="1" res="1.4083459973335266e-02" rms="4.3096423149108887e-01" purity="6.3364470005035400e-01" nType="-99"/>
        </Node>
        <Node pos="r" depth="1" NCoef="0" IVar="0" Cut="3.4477129578590393e-01" cType="1" res="1.9993582740426064e-02" rms="3.6355784535408020e-01" purity="6.8420267105102539e-01" nType="0">
          <Node pos="l" depth="2" NCoef="0" IVar="-1" Cut="0.0000000000000000e+00" cType="1" res="4.0214024484157562e-02" rms="3.7416020035743713e-01" purity="6.1169767379760742e-01" nType="-99"/>
          <Node pos="r" depth="2" NCoef="0" IVar="-1" Cut="0.0000000000000000e+00" cType="1" res="1.3811219483613968e-02" rms="3.6211407184600830e-01" purity="6.9271588325500488e-01" nType="-99"/>
        </Node>
      </Node>
    </BinaryTree>
    <BinaryTree type="DecisionTree" boostWeight="1.0000000000000000e+00" itree="21">
      <Node pos="s" depth="0" NCoef="0" IVar="1" Cut="8.9896231889724731e-01" cType="1" res="3.9892429485917091e-03" rms="3.5634627938270569e-01" purity="5.0079125165939331e-01" nType="0">
        <Node pos="l" depth="1" NCoef="0" IVar="1" Cut="1.7670133709907532e-01" cType="1" res="1.0227825259789824e-03" rms="3.7740117311477661e-01" purity="4.3196937441825867e-01" nType="0">
          <Node pos="l" depth="2" NCoef="0" IVar="-1" Cut="0.0000000000000000e+00" cType="1" res="8.2480646669864655e-03" rms="3.6904639005661011e-01" purity="2.2493532299995422e-01" nType="-99"/>
          <Node pos="r" depth="2" NCoef="0" IVar="-1" Cut="0.0000000000000000e+00" cType="1" res="-6.9343550130724907e-03" rms="3.9093762636184692e-01" purity="7.8342193365097046e-01" nType="-99"/>
        </Node>
        <Node pos="r" depth="1" NCoef="0" IVar="-1" Cut="0.0000000000000000e+00" cType="1" res="5.3920358419418335e-02" rms="1.3696928322315216e-01" purity="9.8071765899658203e-01" nType="-99"/>
      </Node>
    </BinaryTree>
    <BinaryTree type="DecisionTree" boostWeight="1.0000000000000000e+00" itree="22">
      <Node pos="s" depth="0" NCoef="0" IVar="0" Cut="9.0018767118453979e-01" cType="1" res="8.4534157067537308e-03" rms="3.4593152999877930e-01" purity="5.1685947179794312e-01" nType="0">
        <Node pos="l" depth="1" NCoef="0" IVar="0" Cut="7.1955251693725586e-01" cType="1" res="1.1727842502295971e-02" rms="3.4908285737037659e-01" purity="4.7432786226272583e-01" nType="0">
          <Node pos="l" depth="2" NCoef="0" IVar="-1" Cut="0.0000000000000000e+00" cType="1" res="6.4230165444314480e-03" rms="3.4314137697219849e-01" purity="4.0297079086303711e-01" nType="-99"/>
          <Node pos="r" depth="2" NCoef="0" IVar="-1" Cut="0.0000000000000000e+00" cType="1" res="2.4905825033783913e-02" rms="3.6823901534080505e-01" purity="7.2106403112411499e-01" nType="-99"/>
        </Node>
        <Node pos="r" depth="1" NCoef="0" IVar="-1" Cut="0.0000000000000000e+00" cType="1" res="-1.4335617423057556e-02" rms="3.2315194606781006e-01" purity="8.0207204818725586e-01" nType="-99"/>
      </Node>
    </BinaryTree>
    <BinaryTree type="DecisionTree" boostWeight="1.0000000000000000e+00" itree="23">
      <Node pos="s" depth="0" NCoef="0" IVar="1" Cut="8.0540746450424194e-01" cType="1" res="-3.9936793036758900e-03" rms="3.5028368234634399e-01" purity="4.9546813964843750e-01" nType="0">
        <Node pos="l" depth="1" NCoef="0" IVar="0" Cut="-5.2261137962341309e-01" cType="1" res="-8.1184320151805878e-03" rms="3.7784755229949951e-01" purity="3.8843086361885071e-01" nType="0">
          <Node pos="l" depth="2" NCoef="0" IVar="-1" Cut="0.0000000000000000e+00" cType="1" res="2.5165015831589699e-03" rms="3.2611823081970215e-01" purity="1.9808936119079590e-01" nType="-99"/>
          <Node pos="r" depth="2" NCoef="0" IVar="-1" Cut="0.0000000000000000e+00" cType="1" res="-1.0658812709152699e-02" rms="4.0586492419242859e-01" purity="5.0370645523071289e-01" nType="-99"/>
        </Node>
        <Node pos="r" depth="1" NCoef="0" IVar="1" Cut="9.4083261489868164e-01" cType="1" res="1.4027684926986694e-02" rms="1.8604229390621185e-01" purity="9.6312242746353149e-01" nType="0">
          <Node pos="l" depth="2" NCoef="0" IVar="-1" Cut="0.0000000000000000e+00" cType="1" res="1.4420039020478725e-02" rms="2.2773793339729309e-01" purity="9.4393777847290039e-01" nType="-99"/>
          <Node pos="r" depth="2" NCoef="0" IVar="-1" Cut="0.0000000000000000e+00" cType="1" res="4.7925736755132675e-02" rms="1.3382071256637573e-01" purity="9.8164832592010498e-01" nType="-99"/>
        </Node>
      </Node>
    </BinaryTree>
    <BinaryTree type="DecisionTree" boostWeight="1.0000000000000000e+00" itree="24">
      <Node pos="s" depth="0" NCoef="0" IVar="1" Cut="9.0014910697937012e-01" cType="1" res="-1.4247354120016098e-03" rms="3.5083433985710144e-01" purity="5.0133997201919556e-01" nType="0">
        <Node pos="l" depth="1" NCoef="0" IVar="0" Cut="-4.2853698134422302e-01" cType="1" res="-3.6728712730109692e-03" rms="3.7205523252487183e-01" purity="4.2895856499671936e-01" nType="0">
          <Node pos="l" depth="2" NCoef="0" IVar="-1" Cut="0.0000000000000000e+00" cType="1" res="5.2394974045455456e-03" rms="3.3301609754562378e-01" purity="2.2556781768798828e-01" nType="-99"/>
          <Node pos="r" depth="2" NCoef="0" IVar="-1" Cut="0.0000000000000000e+00" cType="1" res="-6.5618110820651054e-03" rms="3.9456862211227417e-01" purity="5.5693972110748291e-01" nType="-99"/>
        </Node>
        <Node pos="r" depth="1" NCoef="0" IVar="-1" Cut="0.0000000000000000e+00" cType="1" res="3.5337116569280624e-02" rms="1.4820335805416107e-01" purity="9.7727501392364502e-01" nType="-99"/>
      </Node>
    </BinaryTree>
    <BinaryTree type="DecisionTree" boostWeight="1.0000000000000000e+00" itree="25">
      <Node pos="s" depth="0" NCoef="0" IVar="1" Cut="-3.3272004127502441e-01" cType="1" res="6.1639722844120115e-05" rms="3.4541070461273193e-01" purity="5.0671279430389404e-01" nType="0">
        <Node pos="l" depth="1" NCoef="0" IVar="1" Cut="-5.5421936511993408e-01" cType="1" res="-1.2336411513388157e-02" rms="2.9473641514778137e-01" purity="1.0555800795555115e-01" nType="0">
          <Node pos="l" depth="2" NCoef="0" IVar="-1" Cut="0.0000000000000000e+00" cType="1" res="-8.1430003046989441e-03" rms="2.6350688934326172e-01" purity="8.4950596094131470e-02" nType="-99"/>
          <Node pos="r" depth="2" NCoef="0" IVar="-1" Cut="0.0000000000000000e+00" cType="1" res="-5.3242031484842300e-02" rms="4.2283234000205994e-01" purity="2.1745079755783081e-01" nType="-99"/>
        </Node>
        <Node pos="r" depth="1" NCoef="0" IVar="1" Cut="4.6740334481000900e-02" cType="1" res="8.0845169723033905e-03" rms="3.7434777617454529e-01" purity="7.6630318164825439e-01" nType="0">
          <Node pos="l" depth="2" NCoef="0" IVar="-1" Cut="0.0000000000000000e+00" cType="1" res="2.1108007058501244e-02" rms="4.8037791252136230e-01" purity="4.8085650801658630e-01" nType="-99"/>
          <Node pos="r" depth="2" NCoef="0" IVar="-1" Cut="0.0000000000000000e+00" cType="1" res="1.7724815988913178e-03" rms="3.4843951463699341e-01" purity="8.2461774349212646e-01" nType="-99"/>
        </Node>
      </Node>
    </BinaryTree>
    <BinaryTree type="DecisionTree" boostWeight="1.0000000000000000e+00" itree="26">
      <Node pos="s" depth="0" NCoef="0" IVar="0" Cut="9.0209352970123291e-01" cType="1" res="-4.3913787230849266e-03" rms="3.5084626078605652e-01" purity="5.0226157903671265e-01" nType="0">
        <Node pos="l" depth="1" NCoef="0" IVar="1" Cut="8.9736670255661011e-01" cType="1" res="-7.7532976865768433e-03" rms="3.5557889938354492e-01" purity="4.5122173428535461e-01" nType="0">
          <Node pos="l" depth="2" NCoef="0" IVar="-1" Cut="0.0000000000000000e+00" cType="1" res="-9.8027484491467476e-03" rms="3.7149474024772644e-01" purity="3.9377054572105408e-01" nType="-99"/>
          <Node pos="r" depth="2" NCoef="0" IVar="-1" Cut="0.0000000000000000e+00" cType="1" res="4.1389167308807373e-02" rms="1.3927064836025238e-01" purity="9.7966033220291138e-01" nType="-99"/>
        </Node>
        <Node pos="r" depth="1" NCoef="0" IVar="0" Cut="9.4303232431411743e-01" cType="1" res="1.6562249511480331e-02" rms="3.1897690892219543e-01" purity="8.2037478685379028e-01" nType="0">
          <Node pos="l" depth="2" NCoef="0" IVar="-1" Cut="0.0000000000000000e+00" cType="1" res="1.2608581222593784e-02" rms="3.5802692174911499e-01" purity="7.3159277439117432e-01" nType="-99"/>
          <Node pos="r" depth="2" NCoef="0" IVar="-1" Cut="0.0000000000000000e+00" cType="1" res="2.0444804802536964e-02" rms="2.8385573625564575e-01" purity="8.9144718647003174e-01" nType="-99"/>
        </Node>
      </Node>
    </BinaryTree>
    <BinaryTree type="DecisionTree" boostWeight="1.0000000000000000e+00" itree="27">
      <Node pos="s" depth="0" NCoef="0" IVar="0" Cut="-4.8004034906625748e-02" cType="1" res="3.6487739998847246e-03" rms="3.5242533683776855e-01" purity="5.0040924549102783e-01" nType="0">
        <Node pos="l" depth="1" NCoef="0" IVar="1" Cut="-7.1102583408355713e-01" cType="1" res="1.6646139323711395e-02" rms="3.3727195858955383e-01" purity="2.8105264902114868e-01" nType="0">
          <Node pos="l" depth="2" NCoef="0" IVar="-1" Cut="0.0000000000000000e+00" cType="1" res="-6.1796236783266068e-02" rms="1.4762535691261292e-01" purity="2.2562528029084206e-02" nType="-99"/>
          <Node pos="r" depth="2" NCoef="0" IVar="-1" Cut="0.0000000000000000e+00" cType="1" res="2.7217457070946693e-02" rms="4.2402967810630798e-01" purity="4.6910589933395386e-01" nType="-99"/>
        </Node>
        <Node pos="r" depth="1" NCoef="0" IVar="1" Cut="6.1525046825408936e-01" cType="1" res="-5.3244871087372303e-03" rms="3.6224564909934998e-01" purity="6.5185099840164185e-01" nType="0">
          <Node pos="l" depth="2" NCoef="0" IVar="-1" Cut="0.0000000000000000e+00" cType="1" res="-1.3367202132940292e-02" rms="4.3366548418998718e-01" purity="4.5240968465805054e-01" nType="-99"/>
          <Node pos="r" depth="2" NCoef="0" IVar="-1" Cut="0.0000000000000000e+00" cType="1" res="2.4659806862473488e-02" rms="2.1283072233200073e-01" purity="9.5081633329391479e-01" nType="-99"/>
        </Node>
      </Node>
    </BinaryTree>
    <BinaryTree type="DecisionTree" boostWeight="1.0000000000000000e+00" itree="28">
      <Node pos="s" depth="0" NCoef="0" IVar="1" Cut="-1.4346417784690857e-01" cType="1" res="1.1926128063350916e-03" rms="3.5652315616607666e-01" purity="4.9768504500389099e-01" nType="0">
        <Node pos="l" depth="1" NCoef="0" IVar="0" Cut="6.0800093412399292e-01" cType="1" res="1.1199412867426872e-02" rms="3.3205306529998779e-01" purity="1.5877029299736023e-01" nType="0">
          <Node pos="l" depth="2" NCoef="0" IVar="-1" Cut="0.0000000000000000e+00" cType="1" res="-8.6711975745856762e-04" rms="2.9266211390495300e-01" purity="1.1225225031375885e-01" nType="-99"/>
          <Node pos="r" depth="2" NCoef="0" IVar="-1" Cut="0.0000000000000000e+00" cType="1" res="4.3388452380895615e-02" rms="4.4967716932296753e-01" purity="3.3735728263854980e-01" nType="-99"/>
        </Node>
        <Node pos="r" depth="1" NCoef="0" IVar="1" Cut="2.3676244914531708e-01" cType="1" res="-7.1422979235649109e-03" rms="3.7548670172691345e-01" purity="7.7997553348541260e-01" nType="0">
          <Node pos="l" depth="2" NCoef="0" IVar="-1" Cut="0.0000000000000000e+00" cType="1" res="-1.8734425306320190e-02" rms="5.0380069017410278e-01" purity="4.9984365701675415e-01" nType="-99"/>
          <Node pos="r" depth="2" NCoef="0" IVar="-1" Cut="0.0000000000000000e+00" cType="1" res="3.8776526344008744e-04" rms="3.3136805891990662e-01" purity="8.5674667358398438e-01" nType="-99"/>
        </Node>
      </Node>
    </BinaryTree>
    <BinaryTree type="DecisionTree" boostWeight="1.0000000000000000e+00" itree="29">
      <Node pos="s" depth="0" NCoef="0" IVar="1" Cut="8.0444878339767456e-01" cType="1" res="3.8819559849798679e-03" rms="3.4871900081634521e-01" purity="4.9633321166038513e-01" nType="0">
        <Node pos="l" depth="1" NCoef="0" IVar="0" Cut="-9.0262579917907715e-01" cType="1" res="1.2962622568011284e-03" rms="3.7852290272712708e-01" purity="3.8681951165199280e-01" nType="0">
          <Node pos="l" depth="2" NCoef="0" IVar="-1" Cut="0.0000000000000000e+00" cType="1" res="2.2615592926740646e-02" rms="3.1783008575439453e-01" purity="1.7661763727664948e-01" nType="-99"/>
          <Node pos="r" depth="2" NCoef="0" IVar="-1" Cut="0.0000000000000000e+00" cType="1" res="-2.1629817783832550e-03" rms="3.9549839496612549e-01" purity="4.5250579714775085e-01" nType="-99"/>
        </Node>
        <Node pos="r" depth="1" NCoef="0" IVar="1" Cut="9.3090331554412842e-01" cType="1" res="1.5089204534888268e-02" rms="1.6584728658199310e-01" purity="9.7100156545639038e-01" nType="0">
          <Node pos="l" depth="2" NCoef="0" IVar="-1" Cut="0.0000000000000000e+00" cType="1" res="1.9527804106473923e-02" rms="2.1490058302879333e-01" purity="9.5095074176788330e-01" nType="-99"/>
          <Node pos="r" depth="2" NCoef="0" IVar="-1" Cut="0.0000000000000000e+00" cType="1" res="5.9278946369886398e-02" rms="1.0169730335474014e-01" purity="9.8940646648406982e-01" nType="-99"/>
        </Node>
      </Node>
    </BinaryTree>
    <BinaryTree type="DecisionTree" boostWeight="1.0000000000000000e+00" itree="30">
      <Node pos="s" depth="0" NCoef="0" IVar="0" Cut="-7.1264463663101196e-01" cType="1" res="8.5368475993163884e-05" rms="3.5483193397521973e-01" purity="5.0200426578521729e-01" nType="0">
        <Node pos="l" depth="1" NCoef="0" IVar="1" Cut="4.1732106357812881e-02" cType="1" res="-1.1145354248583317e-02" rms="3.3041593432426453e-01" purity="2.0906876027584076e-01" nType="0">
          <Node pos="l" depth="2" NCoef="0" IVar="-1" Cut="0.0000000000000000e+00" cType="1" res="3.6471362691372633e-03" rms="2.6600620150566101e-01" purity="8.9790090918540955e-02" nType="-99"/>
          <Node pos="r" depth="2" NCoef="0" IVar="-1" Cut="0.0000000000000000e+00" cType="1" res="-3.0535938218235970e-02" rms="4.7657001018524170e-01" purity="5.8172762393951416e-01" nType="-99"/>
        </Node>
        <Node pos="r" depth="1" NCoef="0" IVar="0" Cut="-4.6775847673416138e-01" cType="1" res="4.5193992555141449e-03" rms="3.6392560601234436e-01" purity="6.1765891313552856e-01" nType="0">
          <Node pos="l" depth="2" NCoef="0" IVar="-1" Cut="0.0000000000000000e+00" cType="1" res="4.5544363558292389e-02" rms="3.6843350529670715e-01" purity="3.8547396659851074e-01" nType="-99"/>
          <Node pos="r" depth="2" NCoef="0" IVar="-1" Cut="0.0000000000000000e+00" cType="1" res="1.0986900888383389e-03" rms="3.6334744095802307e-01" purity="6.3742905855178833e-01" nType="-99"/>
        </Node>
      </Node>
    </BinaryTree>
    <BinaryTree type="DecisionTree" boostWeight="1.0000000000000000e+00" itree="31">
      <Node pos="s" depth="0" NCoef="0" IVar="1" Cut="-1.4346417784690857e-01" cType="1" res="2.9811682179570198e-03" rms="3.4555813670158386e-01" purity="5.0053906440734863e-01" nType="0">
        <Node pos="l" depth="1" NCoef="0" IVar="0" Cut="-1.5492279827594757e-01" cType="1" res="-9.3895103782415390e-03" rms="3.1882837414741516e-01" purity="1.4414228498935699e-01" nType="0">
          <Node pos="l" depth="2" NCoef="0" IVar="-1" Cut="0.0000000000000000e+00" cType="1" res="-4.5843650586903095e-03" rms="2.5507116317749023e-01" purity="7.6099187135696411e-02" nType="-99"/>
          <Node pos="r" depth="2" NCoef="0" IVar="-1" Cut="0.0000000000000000e+00" cType="1" res="-1.7915148288011551e-02" rms="3.8696622848510742e-01" purity="2.3390863835811615e-01" nType="-99"/>
        </Node>
        <Node pos="r" depth="1" NCoef="0" IVar="1" Cut="7.3630593717098236e-02" cType="1" res="1.3180815614759922e-02" rms="3.6581751704216003e-01" purity="7.9438883066177368e-01" nType="0">
          <Node pos="l" depth="2" NCoef="0" IVar="-1" Cut="0.0000000000000000e+00" cType="1" res="2.9739223420619965e-02" rms="4.9417299032211304e-01" purity="5.6277972459793091e-01" nType="-99"/>
          <Node pos="r" depth="2" NCoef="0" IVar="-1" Cut="0.0000000000000000e+00" cType="1" res="5.5650928989052773e-03" rms="3.4200608730316162e-01" purity="8.2902938127517700e-01" nType="-99"/>
        </Node>
      </Node>
    </BinaryTree>
    <BinaryTree type="DecisionTree" boostWeight="1.0000000000000000e+00" itree="32">
      <Node pos="s" depth="0" NCoef="0" IVar="1" Cut="-7.1218991279602051e-01" cType="1" res="-4.9229646101593971e-03" rms="3.4853118658065796e-01" purity="4.9750328063964844e-01" nType="0">
        <Node pos="l" depth="1" NCoef="0" IVar="0" Cut="-2.4924474954605103e-01" cType="1" res="1.3966678641736507e-02" rms="2.4797591567039490e-01" purity="7.0813678205013275e-02" nType="0">
          <Node pos="l" depth="2" NCoef="0" IVar="-1" Cut="0.0000000000000000e+00" cType="1" res="-2.5706537067890167e-02" rms="1.5167841315269470e-01" purity="2.3705244064331055e-02" nType="-99"/>
          <Node pos="r" depth="2" NCoef="0" IVar="-1" Cut="0.0000000000000000e+00" cType="1" res="7.8966759145259857e-02" rms="3.5208880901336670e-01" purity="1.4889812469482422e-01" nType="-99"/>
        </Node>
        <Node pos="r" depth="1" NCoef="0" IVar="1" Cut="1.0036129504442215e-01" cType="1" res="-1.1519746854901314e-02" rms="3.7716469168663025e-01" purity="6.4651495218276978e-01" nType="0">
          <Node pos="l" depth="2" NCoef="0" IVar="-1" Cut="0.0000000000000000e+00" cType="1" res="-2.9157428070902824e-02" rms="4.2417314648628235e-01" purity="2.9884055256843567e-01" nType="-99"/>
          <Node pos="r" depth="2" NCoef="0" IVar="-1" Cut="0.0000000000000000e+00" cType="1" res="2.5532930158078671e-03" rms="3.4882533550262451e-01" purity="8.3083772659301758e-01" nType="-99"/>
        </Node>
      </Node>
    </BinaryTree>
    <BinaryTree type="DecisionTree" boostWeight="1.0000000000000000e+00" itree="33">
      <Node pos="s" depth="0" NCoef="0" IVar="1" Cut="-5.2315646409988403e-01" cType="1" res="6.6460608504712582e-03" rms="3.4557226300239563e-01" purity="5.0239199399948120e-01" nType="0">
        <Node pos="l" depth="1" NCoef="0" IVar="0" Cut="5.9044772386550903e-01" cType="1" res="-3.0931197106838226e-03" rms="2.7099695801734924e-01" purity="8.9130550622940063e-02" nType="0">
          <Node pos="l" depth="2" NCoef="0" IVar="-1" Cut="0.0000000000000000e+00" cType="1" res="-3.1547870486974716e-02" rms="2.2597099840641022e-01" purity="5.7998802512884140e-02" nType="-99"/>
          <Node pos="r" depth="2" NCoef="0" IVar="-1" Cut="0.0000000000000000e+00" cType="1" res="2.9097735881805420e-02" rms="4.1176638007164001e-01" purity="2.2447738051414490e-01" nType="-99"/>
        </Node>
        <Node pos="r" depth="1" NCoef="0" IVar="1" Cut="5.6072729825973511e-01" cType="1" res="1.1910357512533665e-02" rms="3.7973031401634216e-01" purity="7.2577118873596191e-01" nType="0">
          <Node pos="l" depth="2" NCoef="0" IVar="-1" Cut="0.0000000000000000e+00" cType="1" res="1.2793566100299358e-02" rms="4.5928367972373962e-01" purity="5.5714881420135498e-01" nType="-99"/>
          <Node pos="r" depth="2" NCoef="0" IVar="-1" Cut="0.0000000000000000e+00" cType="1" res="-3.8782326737418771e-04" rms="2.5672459602355957e-01" purity="9.2285501956939697e-01" nType="-99"/>
        </Node>
      </Node>
    </BinaryTree>
    <BinaryTree type="DecisionTree" boostWeight="1.0000000000000000e+00" itree="34">
      <Node pos="s" depth="0" NCoef="0" IVar="1" Cut="-4.8593390733003616e-02" cType="1" res="3.6187409423291683e-03" rms="3.4849226474761963e-01" purity="5.0477373600006104e-01" nType="0">
        <Node pos="l" depth="1" NCoef="0" IVar="1" Cut="-3.2021504640579224e-01" cType="1" res="1.0969823226332664e-02" rms="3.3828845620155334e-01" purity="1.8075227737426758e-01" nType="0">
          <Node pos="l" depth="2" NCoef="0" IVar="-1" Cut="0.0000000000000000e+00" cType="1" res="-3.9025603327900171e-03" rms="3.0189803242683411e-01" purity="1.1500728130340576e-01" nType="-99"/>
          <Node pos="r" depth="2" NCoef="0" IVar="-1" Cut="0.0000000000000000e+00" cType="1" res="4.2264327406883240e-02" rms="4.7760167717933655e-01" purity="5.1661622524261475e-01" nType="-99"/>
        </Node>
        <Node pos="r" depth="1" NCoef="0" IVar="1" Cut="4.4932913780212402e-01" cType="1" res="-3.2535498030483723e-03" rms="3.5763174295425415e-01" purity="8.0769103765487671e-01" nType="0">
          <Node pos="l" depth="2" NCoef="0" IVar="-1" Cut="0.0000000000000000e+00" cType="1" res="-1.4838295057415962e-02" rms="4.8413696885108948e-01" purity="5.9669435024261475e-01" nType="-99"/>
          <Node pos="r" depth="2" NCoef="0" IVar="-1" Cut="0.0000000000000000e+00" cType="1" res="9.9805174395442009e-03" rms="2.7643173933029175e-01" purity="9.0887176990509033e-01" nType="-99"/>
        </Node>
      </Node>
    </BinaryTree>
    <BinaryTree type="DecisionTree" boostWeight="1.0000000000000000e+00" itree="35">
      <Node pos="s" depth="0" NCoef="0" IVar="0" Cut="-8.0753892660140991e-01" cType="1" res="4.9064131453633308e-03" rms="3.5166379809379578e-01" purity="5.1095724105834961e-01" nType="0">
        <Node pos="l" depth="1" NCoef="0" IVar="1" Cut="-1.4801177382469177e-01" cType="1" res="-9.7095714882016182e-03" rms="3.3240878582000732e-01" purity="1.9467549026012421e-01" nType="0">
          <Node pos="l" depth="2" NCoef="0" IVar="-1" Cut="0.0000000000000000e+00" cType="1" res="1.7809065058827400e-02" rms="2.4973621964454651e-01" purity="7.2765022516250610e-02" nType="-99"/>
          <Node pos="r" depth="2" NCoef="0" IVar="-1" Cut="0.0000000000000000e+00" cType="1" res="-3.0851235613226891e-02" rms="4.8458284139633179e-01" purity="5.1541155576705933e-01" nType="-99"/>
        </Node>
        <Node pos="r" depth="1" NCoef="0" IVar="0" Cut="-4.6369317173957825e-01" cType="1" res="9.5514710992574692e-03" rms="3.5744094848632812e-01" purity="6.1147367954254150e-01" nType="0">
          <Node pos="l" depth="2" NCoef="0" IVar="-1" Cut="0.0000000000000000e+00" cType="1" res="3.5686690360307693e-02" rms="3.5752135515213013e-01" purity="3.7345930933952332e-01" nType="-99"/>
          <Node pos="r" depth="2" NCoef="0" IVar="-1" Cut="0.0000000000000000e+00" cType="1" res="5.9984307736158371e-03" rms="3.5732355713844299e-01" purity="6.4206665754318237e-01" nType="-99"/>
        </Node>
      </Node>
    </BinaryTree>
    <BinaryTree type="DecisionTree" boostWeight="1.0000000000000000e+00" itree="36">
      <Node pos="s" depth="0" NCoef="0" IVar="1" Cut="-3.3320572972297668e-01" cType="1" res="-9.0090569574385881e-04" rms="3.5324409604072571e-01" purity="5.0330018997192383e-01" nType="0">
        <Node pos="l" depth="1" NCoef="0" IVar="1" Cut="-5.8626276254653931e-01" cType="1" res="1.2128144502639771e-02" rms="3.1679913401603699e-01" purity="1.3072215020656586e-01" nType="0">
          <Node pos="l" depth="2" NCoef="0" IVar="-1" Cut="0.0000000000000000e+00" cType="1" res="1.0691641829907894e-02" rms="2.7637079358100891e-01" purity="8.8495127856731415e-02" nType="-99"/>
          <Node pos="r" depth="2" NCoef="0" IVar="-1" Cut="0.0000000000000000e+00" cType="1" res="3.5444222390651703e-02" rms="4.4034975767135620e-01" purity="2.9755046963691711e-01" nType="-99"/>
        </Node>
        <Node pos="r" depth="1" NCoef="0" IVar="1" Cut="4.2580813169479370e-01" cType="1" res="-9.6814502030611038e-03" rms="3.7556201219558716e-01" purity="7.5438821315765381e-01" nType="0">
          <Node pos="l" depth="2" NCoef="0" IVar="-1" Cut="0.0000000000000000e+00" cType="1" res="-1.5818575397133827e-02" rms="4.8161631822586060e-01" purity="5.3383612632751465e-01" nType="-99"/>
          <Node pos="r" depth="2" NCoef="0" IVar="-1" Cut="0.0000000000000000e+00" cType="1" res="3.6593349650502205e-03" rms="2.8251838684082031e-01" purity="9.0195399522781372e-01" nType="-99"/>
        </Node>
      </Node>
    </BinaryTree>
    <BinaryTree type="DecisionTree" boostWeight="1.0000000000000000e+00" itree="37">
      <Node pos="s" depth="0" NCoef="0" IVar="0" Cut="-5.2316671609878540e-01" cType="1" res="-3.9817224023863673e-04" rms="3.5037991404533386e-01" purity="5.0129610300064087e-01" nType="0">
        <Node pos="l" depth="1" NCoef="0" IVar="0" Cut="-7.2737240791320801e-01" cType="1" res="1.0404299944639206e-02" rms="3.3029514551162720e-01" purity="2.5393453240394592e-01" nType="0">
          <Node pos="l" depth="2" NCoef="0" IVar="-1" Cut="0.0000000000000000e+00" cType="1" res="3.6800047382712364e-03" rms="3.2401660084724426e-01" purity="2.2405967116355896e-01" nType="-99"/>
          <Node pos="r" depth="2" NCoef="0" IVar="-1" Cut="0.0000000000000000e+00" cType="1" res="5.1211979240179062e-02" rms="3.6031261086463928e-01" purity="4.2055612802505493e-01" nType="-99"/>
        </Node>
        <Node pos="r" depth="1" NCoef="0" IVar="0" Cut="1.2764929234981537e-01" cType="1" res="-5.7237767614424229e-03" rms="3.5975003242492676e-01" purity="6.2324500083923340e-01" nType="0">
          <Node pos="l" depth="2" NCoef="0" IVar="-1" Cut="0.0000000000000000e+00" cType="1" res="-3.3689144998788834e-02" rms="3.6059266328811646e-01" purity="3.9024263620376587e-01" nType="-99"/>
          <Node pos="r" depth="2" NCoef="0" IVar="-1" Cut="0.0000000000000000e+00" cType="1" res="-2.6640124269761145e-04" rms="3.5933604836463928e-01" purity="6.7071378231048584e-01" nType="-99"/>
        </Node>
      </Node>
    </BinaryTree>
    <BinaryTree type="DecisionTree" boostWeight="1.0000000000000000e+00" itree="38">
      <Node pos="s" depth="0" NCoef="0" IVar="0" Cut="8.0717152357101440e-01" cType="1" res="-1.3235970400273800e-03" rms="3.4804028272628784e-01" purity="4.9965044856071472e-01" nType="0">
        <Node pos="l" depth="1" NCoef="0" IVar="0" Cut="-4.8115801811218262e-01" cType="1" res="2.9850825667381287e-03" rms="3.4785270690917969e-01" purity="4.2076826095581055e-01" nType="0">
          <Node pos="l" depth="2" NCoef="0" IVar="-1" Cut="0.0000000000000000e+00" cType="1" res="-9.0984571725130081e-03" rms="3.1425535678863525e-01" purity="2.3516339063644409e-01" nType="-99"/>
          <Node pos="r" depth="2" NCoef="0" IVar="-1" Cut="0.0000000000000000e+00" cType="1" res="9.3904156237840652e-03" rms="3.7196242809295654e-01" purity="5.6669002771377563e-01" nType="-99"/>
        </Node>
        <Node pos="r" depth="1" NCoef="0" IVar="0" Cut="9.3373107910156250e-01" cType="1" res="-1.4387589879333973e-02" rms="3.4828269481658936e-01" purity="7.3882269859313965e-01" nType="0">
          <Node pos="l" depth="2" NCoef="0" IVar="-1" Cut="0.0000000000000000e+00" cType="1" res="-2.6541603729128838e-02" rms="3.7468746304512024e-01" purity="6.6753941774368286e-01" nType="-99"/>
          <Node pos="r" depth="2" NCoef="0" IVar="-1" Cut="0.0000000000000000e+00" cType="1" res="1.7339954152703285e-02" rms="2.8935089707374573e-01" purity="8.7416434288024902e-01" nType="-99"/>
        </Node>
      </Node>
    </BinaryTree>
    <BinaryTree type="DecisionTree" boostWeight="1.0000000000000000e+00" itree="39">
      <Node pos="s" depth="0" NCoef="0" IVar="0" Cut="-4.7262866050004959e-02" cType="1" res="4.1197915561497211e-03" rms="3.5487014055252075e-01" purity="5.0240951776504517e-01" nType="0">
        <Node pos="l" depth="1" NCoef="0" IVar="1" Cut="3.2448258996009827e-01" cType="1" res="1.7767069861292839e-02" rms="3.4338161349296570e-01" purity="2.8521004319190979e-01" nType="0">
          <Node pos="l" depth="2" NCoef="0" IVar="-1" Cut="0.0000000000000000e+00" cType="1" res="3.8963962346315384e-02" rms="3.2853278517723083e-01" purity="1.7189271748065948e-01" nType="-99"/>
          <Node pos="r" depth="2" NCoef="0" IVar="-1" Cut="0.0000000000000000e+00" cType="1" res="-1.2396156787872314e-02" rms="3.9962270855903625e-01" purity="7.7703529596328735e-01" nType="-99"/>
        </Node>
        <Node pos="r" depth="1" NCoef="0" IVar="1" Cut="3.3146306872367859e-01" cType="1" res="-5.5573917925357819e-03" rms="3.6248496174812317e-01" purity="6.5642404556274414e-01" nType="0">
          <Node pos="l" depth="2" NCoef="0" IVar="-1" Cut="0.0000000000000000e+00" cType="1" res="-1.3387331739068031e-02" rms="4.3645927309989929e-01" purity="3.6068865656852722e-01" nType="-99"/>
          <Node pos="r" depth="2" NCoef="0" IVar="-1" Cut="0.0000000000000000e+00" cType="1" res="6.1435643583536148e-03" rms="2.8592371940612793e-01" purity="9.0353876352310181e-01" nType="-99"/>
        </Node>
      </Node>
    </BinaryTree>
    <BinaryTree type="DecisionTree" boostWeight="1.0000000000000000e+00" itree="40">
      <Node pos="s" depth="0" NCoef="0" IVar="1" Cut="-2.3724073171615601e-01" cType="1" res="1.2647557305172086e-03" rms="3.4903770685195923e-01" purity="5.0349974632263184e-01" nType="0">
        <Node pos="l" depth="1" NCoef="0" IVar="1" Cut="-5.2617311477661133e-01" cType="1" res="9.8862359300255775e-03" rms="3.2392609119415283e-01" purity="1.4808252453804016e-01" nType="0">
          <Node pos="l" depth="2" NCoef="0" IVar="-1" Cut="0.0000000000000000e+00" cType="1" res="-3.1030315440148115e-03" rms="2.8032743930816650e-01" purity="9.3183271586894989e-02" nType="-99"/>
          <Node pos="r" depth="2" NCoef="0" IVar="-1" Cut="0.0000000000000000e+00" cType="1" res="3.7451997399330139e-02" rms="4.5381823182106018e-01" purity="3.6373403668403625e-01" nType="-99"/>
        </Node>
        <Node pos="r" depth="1" NCoef="0" IVar="1" Cut="4.0783479809761047e-01" cType="1" res="-5.2464921027421951e-03" rms="3.6673107743263245e-01" purity="7.7192342281341553e-01" nType="0">
          <Node pos="l" depth="2" NCoef="0" IVar="-1" Cut="0.0000000000000000e+00" cType="1" res="-1.8808403983712196e-02" rms="4.8455750942230225e-01" purity="5.2851074934005737e-01" nType="-99"/>
          <Node pos="r" depth="2" NCoef="0" IVar="-1" Cut="0.0000000000000000e+00" cType="1" res="1.2554529123008251e-02" rms="2.8019979596138000e-01" purity="9.0596961975097656e-01" nType="-99"/>
        </Node>
      </Node>
    </BinaryTree>
    <BinaryTree type="DecisionTree" boostWeight="1.0000000000000000e+00" itree="41">
      <Node pos="s" depth="0" NCoef="0" IVar="1" Cut="-9.0079236030578613e-01" cType="1" res="1.8455118406563997e-03" rms="3.5058876872062683e-01" purity="5.1073086261749268e-01" nType="0">
        <Node pos="l" depth="1" NCoef="0" IVar="-1" Cut="0.0000000000000000e+00" cType="1" res="-1.4058005809783936e-01" rms="1.0382763296365738e-01" purity="1.0947769507765770e-02" nType="-99"/>
        <Node pos="r" depth="1" NCoef="0" IVar="1" Cut="1.8253700435161591e-01" cType="1" res="4.1175517253577709e-03" rms="3.6637380719184875e-01" purity="5.6142276525497437e-01" nType="0">
          <Node pos="l" depth="2" NCoef="0" IVar="-1" Cut="0.0000000000000000e+00" cType="1" res="1.1033579707145691e-02" rms="3.9557299017906189e-01" purity="2.7734243869781494e-01" nType="-99"/>
          <Node pos="r" depth="2" NCoef="0" IVar="-1" Cut="0.0000000000000000e+00" cType="1" res="-3.6729730200022459e-03" rms="3.3459445834159851e-01" purity="8.4421843290328979e-01" nType="-99"/>
        </Node>
      </Node>
    </BinaryTree>
    <BinaryTree type="DecisionTree" boostWeight="1.0000000000000000e+00" itree="42">
      <Node pos="s" depth="0" NCoef="0" IVar="1" Cut="-8.0608719587326050e-01" cType="1" res="-7.6439850963652134e-03" rms="3.4774538874626160e-01" purity="4.9879321455955505e-01" nType="0">
        <Node pos="l" depth="1" NCoef="0" IVar="1" Cut="-9.0551513433456421e-01" cType="1" res="1.3430335558950901e-02" rms="2.2439022362232208e-01" purity="5.6278493255376816e-02" nType="0">
          <Node pos="l" depth="2" NCoef="0" IVar="-1" Cut="0.0000000000000000e+00" cType="1" res="-4.7528058290481567e-02" rms="1.3434098660945892e-01" purity="1.8854474648833275e-02" nType="-99"/>
          <Node pos="r" depth="2" NCoef="0" IVar="-1" Cut="0.0000000000000000e+00" cType="1" res="9.9094219505786896e-02" rms="2.7622804045677185e-01" purity="8.6966134607791901e-02" nType="-99"/>
        </Node>
        <Node pos="r" depth="1" NCoef="0" IVar="1" Cut="-2.9152989387512207e-01" cType="1" res="-1.2617883272469044e-02" rms="3.7074843049049377e-01" purity="6.0323423147201538e-01" nType="0">
          <Node pos="l" depth="2" NCoef="0" IVar="-1" Cut="0.0000000000000000e+00" cType="1" res="-4.5397993177175522e-02" rms="3.5485693812370300e-01" purity="1.5970861911773682e-01" nType="-99"/>
          <Node pos="r" depth="2" NCoef="0" IVar="-1" Cut="0.0000000000000000e+00" cType="1" res="-2.4168689269572496e-03" rms="3.7585288286209106e-01" purity="7.6330637931823730e-01" nType="-99"/>
        </Node>
      </Node>
    </BinaryTree>
    <BinaryTree type="DecisionTree" boostWeight="1.0000000000000000e+00" itree="43">
      <Node pos="s" depth="0" NCoef="0" IVar="0" Cut="-8.0644863843917847e-01" cType="1" res="3.6426461301743984e-03" rms="3.5329726338386536e-01" purity="5.0599378347396851e-01" nType="0">
        <Node pos="l" depth="1" NCoef="0" IVar="1" Cut="-2.4034771323204041e-01" cType="1" res="2.0896665751934052e-02" rms="3.3937272429466248e-01" purity="2.2736546397209167e-01" nType="0">
          <Node pos="l" depth="2" NCoef="0" IVar="-1" Cut="0.0000000000000000e+00" cType="1" res="3.2568834722042084e-02" rms="2.4943439662456512e-01" purity="7.2116985917091370e-02" nType="-99"/>
          <Node pos="r" depth="2" NCoef="0" IVar="-1" Cut="0.0000000000000000e+00" cType="1" res="2.5848643854260445e-02" rms="4.7901129722595215e-01" purity="5.6481873989105225e-01" nType="-99"/>
        </Node>
        <Node pos="r" depth="1" NCoef="0" IVar="0" Cut="-1.2008679658174515e-01" cType="1" res="-2.4105103220790625e-03" rms="3.5785698890686035e-01" purity="6.0374379158020020e-01" nType="0">
          <Node pos="l" depth="2" NCoef="0" IVar="-1" Cut="0.0000000000000000e+00" cType="1" res="-1.8714589998126030e-02" rms="3.2702302932739258e-01" purity="3.6549726128578186e-01" nType="-99"/>
          <Node pos="r" depth="2" NCoef="0" IVar="-1" Cut="0.0000000000000000e+00" cType="1" res="9.7603868925943971e-04" rms="3.6457571387290955e-01" purity="6.5922605991363525e-01" nType="-99"/>
        </Node>
      </Node>
    </BinaryTree>
    <BinaryTree type="DecisionTree" boostWeight="1.0000000000000000e+00" itree="44">
      <Node pos="s" depth="0" NCoef="0" IVar="0" Cut="-6.1794531345367432e-01" cType="1" res="1.2618795735761523e-03" rms="3.4887948632240295e-01" purity="5.0423914194107056e-01" nType="0">
        <Node pos="l" depth="1" NCoef="0" IVar="1" Cut="4.0719218552112579e-02" cType="1" res="-8.6021916940808296e-03" rms="3.2409405708312988e-01" purity="2.1702884137630463e-01" nType="0">
          <Node pos="l" depth="2" NCoef="0" IVar="-1" Cut="0.0000000000000000e+00" cType="1" res="6.3008056022226810e-03" rms="2.7479556202888489e-01" purity="9.9429629743099213e-02" nType="-99"/>
          <Node pos="r" depth="2" NCoef="0" IVar="-1" Cut="0.0000000000000000e+00" cType="1" res="-2.8868675231933594e-02" rms="4.4701614975929260e-01" purity="6.0197293758392334e-01" nType="-99"/>
        </Node>
        <Node pos="r" depth="1" NCoef="0" IVar="0" Cut="5.3436952829360962e-01" cType="1" res="5.4718651808798313e-03" rms="3.5885462164878845e-01" purity="6.2682050466537476e-01" nType="0">
          <Node pos="l" depth="2" NCoef="0" IVar="-1" Cut="0.0000000000000000e+00" cType="1" res="1.6247764229774475e-02" rms="3.6548516154289246e-01" purity="4.8093441128730774e-01" nType="-99"/>
          <Node pos="r" depth="2" NCoef="0" IVar="-1" Cut="0.0000000000000000e+00" cType="1" res="-1.7629677895456553e-03" rms="3.5446771979331970e-01" purity="7.1753406524658203e-01" nType="-99"/>
        </Node>
      </Node>
    </BinaryTree>
    <BinaryTree type="DecisionTree" boostWeight="1.0000000000000000e+00" itree="45">
      <Node pos="s" depth="0" NCoef="0" IVar="0" Cut="8.0705034732818604e-01" cType="1" res="-1.6674486687406898e-03" rms="3.5103252530097961e-01" purity="5.0524151325225830e-01" nType="0">
        <Node pos="l" depth="1" NCoef="0" IVar="0" Cut="5.4920428991317749e-01" cType="1" res="-7.8365346416831017e-03" rms="3.5318872332572937e-01" purity="4.1117775440216064e-01" nType="0">
          <Node pos="l" depth="2" NCoef="0" IVar="-1" Cut="0.0000000000000000e+00" cType="1" res="-1.9471400883048773e-03" rms="3.4868872165679932e-01" purity="3.4752479195594788e-01" nType="-99"/>
          <Node pos="r" depth="2" NCoef="0" IVar="-1" Cut="0.0000000000000000e+00" cType="1" res="-2.5283087044954300e-02" rms="3.6724340915679932e-01" purity="6.2628871202468872e-01" nType="-99"/>
        </Node>
        <Node pos="r" depth="1" NCoef="0" IVar="0" Cut="8.6150276660919189e-01" cType="1" res="1.5991521999239922e-02" rms="3.4417513012886047e-01" purity="7.7449858188629150e-01" nType="0">
          <Node pos="l" depth="2" NCoef="0" IVar="-1" Cut="0.0000000000000000e+00" cType="1" res="5.4219394922256470e-02" rms="3.4680008888244629e-01" purity="7.6163816452026367e-01" nType="-99"/>
          <Node pos="r" depth="2" NCoef="0" IVar="-1" Cut="0.0000000000000000e+00" cType="1" res="-1.2601641938090324e-03" rms="3.4154799580574036e-01" purity="7.7872186899185181e-01" nType="-99"/>
        </Node>
      </Node>
    </BinaryTree>
    <BinaryTree type="DecisionTree" boostWeight="1.0000000000000000e+00" itree="46">
      <Node pos="s" depth="0" NCoef="0" IVar="0" Cut="5.2206492424011230e-01" cType="1" res="2.9702764004468918e-03" rms="3.4882268309593201e-01" purity="5.0428074598312378e-01" nType="0">
        <Node pos="l" depth="1" NCoef="0" IVar="0" Cut="-2.7343782782554626e-01" cType="1" res="-2.1941079758107662e-03" rms="3.4704220294952393e-01" purity="3.3698248863220215e-01" nType="0">
          <Node pos="l" depth="2" NCoef="0" IVar="-1" Cut="0.0000000000000000e+00" cType="1" res="5.4733115248382092e-03" rms="3.3400976657867432e-01" purity="2.5456854701042175e-01" nType="-99"/>
          <Node pos="r" depth="2" NCoef="0" IVar="-1" Cut="0.0000000000000000e+00" cType="1" res="-1.2937691994011402e-02" rms="3.6920967698097229e-01" purity="4.8642233014106750e-01" nType="-99"/>
        </Node>
        <Node pos="r" depth="1" NCoef="0" IVar="1" Cut="-6.1337494850158691e-01" cType="1" res="9.6321105957031250e-03" rms="3.5099387168884277e-01" purity="7.2008824348449707e-01" nType="0">
          <Node pos="l" depth="2" NCoef="0" IVar="-1" Cut="0.0000000000000000e+00" cType="1" res="-2.8783451765775681e-02" rms="3.6385905742645264e-01" purity="1.5651617944240570e-01" nType="-99"/>
          <Node pos="r" depth="2" NCoef="0" IVar="-1" Cut="0.0000000000000000e+00" cType="1" res="1.2986958026885986e-02" rms="3.4855610132217407e-01" purity="8.1152194738388062e-01" nType="-99"/>
        </Node>
      </Node>
    </BinaryTree>
    <BinaryTree type="DecisionTree" boostWeight="1.0000000000000000e+00" itree="47">
      <Node pos="s" depth="0" NCoef="0" IVar="1" Cut="3.3158591389656067e-01" cType="1" res="5.7875937782227993e-03" rms="3.5538643598556519e-01" purity="5.1204937696456909e-01" nType="0">
        <Node pos="l" depth="1" NCoef="0" IVar="1" Cut="1.4994956552982330e-02" cType="1" res="1.0513713583350182e-02" rms="3.8334596157073975e-01" purity="2.7345567941665649e-01" nType="0">
          <Node pos="l" depth="2" NCoef="0" IVar="-1" Cut="0.0000000000000000e+00" cType="1" res="4.7066216357052326e-03" rms="3.5393366217613220e-01" purity="1.9372543692588806e-01" nType="-99"/>
          <Node pos="r" depth="2" NCoef="0" IVar="-1" Cut="0.0000000000000000e+00" cType="1" res="1.9115611910820007e-02" rms="4.8624709248542786e-01" purity="6.0599720478057861e-01" nType="-99"/>
        </Node>
        <Node pos="r" depth="1" NCoef="0" IVar="0" Cut="-1.4125236868858337e-01" cType="1" res="-1.5284639084711671e-03" rms="3.0698207020759583e-01" purity="8.8139349222183228e-01" nType="0">
          <Node pos="l" depth="2" NCoef="0" IVar="-1" Cut="0.0000000000000000e+00" cType="1" res="-2.0242223516106606e-02" rms="4.2062968015670776e-01" purity="7.5150531530380249e-01" nType="-99"/>
          <Node pos="r" depth="2" NCoef="0" IVar="-1" Cut="0.0000000000000000e+00" cType="1" res="4.4933948665857315e-03" rms="2.7979159355163574e-01" purity="9.0618342161178589e-01" nType="-99"/>
        </Node>
      </Node>
    </BinaryTree>
    <BinaryTree type="DecisionTree" boostWeight="1.0000000000000000e+00" itree="48">
      <Node pos="s" depth="0" NCoef="0" IVar="1" Cut="-2.3766975104808807e-01" cType="1" res="-4.0455977432429790e-03" rms="3.4197869896888733e-01" purity="5.0529229640960693e-01" nType="0">
        <Node pos="l" depth="1" NCoef="0" IVar="1" Cut="-5.9861314296722412e-01" cType="1" res="-1.5292335301637650e-02" rms="3.0480772256851196e-01" purity="1.1791504174470901e-01" nType="0">
          <Node pos="l" depth="2" NCoef="0" IVar="-1" Cut="0.0000000000000000e+00" cType="1" res="-5.6734369136393070e-03" rms="2.5944048166275024e-01" purity="7.8600227832794189e-02" nType="-99"/>
          <Node pos="r" depth="2" NCoef="0" IVar="-1" Cut="0.0000000000000000e+00" cType="1" res="-4.5492868870496750e-02" rms="4.1400903463363647e-01" purity="2.4192091822624207e-01" nType="-99"/>
        </Node>
        <Node pos="r" depth="1" NCoef="0" IVar="0" Cut="-4.2652431130409241e-01" cType="1" res="4.0301550179719925e-03" rms="3.6613741517066956e-01" purity="7.8344964981079102e-01" nType="0">
          <Node pos="l" depth="2" NCoef="0" IVar="-1" Cut="0.0000000000000000e+00" cType="1" res="-1.7024649307131767e-02" rms="4.5809426903724670e-01" purity="5.5906069278717041e-01" nType="-99"/>
          <Node pos="r" depth="2" NCoef="0" IVar="-1" Cut="0.0000000000000000e+00" cType="1" res="9.9665112793445587e-03" rms="3.4019657969474792e-01" purity="8.3685493469238281e-01" nType="-99"/>
        </Node>
      </Node>
    </BinaryTree>
    <BinaryTree type="DecisionTree" boostWeight="1.0000000000000000e+00" itree="49">
      <Node pos="s" depth="0" NCoef="0" IVar="1" Cut="5.2063131332397461e-01" cType="1" res="4.2432913323864341e-04" rms="3.5257881879806519e-01" purity="4.9296781420707703e-01" nType="0">
        <Node pos="l" depth="1" NCoef="0" IVar="1" Cut="-7.0820248126983643e-01" cType="1" res="6.9625894539058208e-03" rms="3.8123035430908203e-01" purity="3.1027507781982422e-01" nType="0">
          <Node pos="l" depth="2" NCoef="0" IVar="-1" Cut="0.0000000000000000e+00" cType="1" res="-5.1474209874868393e-02" rms="2.0722717046737671e-01" purity="4.7652166336774826e-02" nType="-99"/>
          <Node pos="r" depth="2" NCoef="0" IVar="-1" Cut="0.0000000000000000e+00" cType="1" res="1.3110700994729996e-02" rms="4.5576646924018860e-01" purity="4.7154271602630615e-01" nType="-99"/>
        </Node>
        <Node pos="r" depth="1" NCoef="0" IVar="1" Cut="8.1463915109634399e-01" cType="1" res="-1.4365481212735176e-02" rms="2.7647337317466736e-01" purity="9.0622627735137939e-01" nType="0">
          <Node pos="l" depth="2" NCoef="0" IVar="-1" Cut="0.0000000000000000e+00" cType="1" res="-3.7728458642959595e-02" rms="3.8068753480911255e-01" purity="8.1374323368072510e-01" nType="-99"/>
          <Node pos="r" depth="2" NCoef="0" IVar="-1" Cut="0.0000000000000000e+00" cType="1" res="1.3069180771708488e-02" rms="1.7329505085945129e-01" purity="9.6763306856155396e-01" nType="-99"/>
        </Node>
      </Node>
    </BinaryTree>
    <BinaryTree type="DecisionTree" boostWeight="1.0000000000000000e+00" itree="50">
      <Node pos="s" depth="0" NCoef="0" IVar="1" Cut="-2.3737673461437225e-01" cType="1" res="-2.9207204934209585e-03" rms="3.5232654213905334e-01" purity="4.9090668559074402e-01" nType="0">
        <Node pos="l" depth="1" NCoef="0" IVar="1" Cut="-8.1479793787002563e-01" cType="1" res="8.8707068935036659e-03" rms="3.1741780042648315e-01" purity="1.3900090754032135e-01" nType="0">
          <Node pos="l" depth="2" NCoef="0" IVar="-1" Cut="0.0000000000000000e+00" cType="1" res="-4.5637134462594986e-02" rms="1.7360362410545349e-01" purity="3.1465929001569748e-02" nType="-99"/>
          <Node pos="r" depth="2" NCoef="0" IVar="-1" Cut="0.0000000000000000e+00" cType="1" res="2.3789951577782631e-02" rms="3.9231240749359131e-01" purity="2.2056797146797180e-01" nType="-99"/>
        </Node>
        <Node pos="r" depth="1" NCoef="0" IVar="1" Cut="4.6689677238464355e-01" cType="1" res="-1.2014325708150864e-02" rms="3.7679544091224670e-01" purity="7.6229810714721680e-01" nType="0">
          <Node pos="l" depth="2" NCoef="0" IVar="-1" Cut="0.0000000000000000e+00" cType="1" res="-1.7230164259672165e-02" rms="4.8273006081581116e-01" purity="5.5530232191085815e-01" nType="-99"/>
          <Node pos="r" depth="2" NCoef="0" IVar="-1" Cut="0.0000000000000000e+00" cType="1" res="1.5785640571266413e-03" rms="2.8150066733360291e-01" purity="9.0392023324966431e-01" nType="-99"/>
        </Node>
      </Node>
    </BinaryTree>
    <BinaryTree type="DecisionTree" boostWeight="1.0000000000000000e+00" itree="51">
      <Node pos="s" depth="0" NCoef="0" IVar="1" Cut="-4.6667400747537613e-02" cType="1" res="2.4958632420748472e-03" rms="3.4957310557365417e-01" purity="4.9253901839256287e-01" nType="0">
        <Node pos="l" depth="1" NCoef="0" IVar="1" Cut="-5.4269593954086304e-01" cType="1" res="-4.0513114072382450e-03" rms="3.3248841762542725e-01" purity="1.6661156713962555e-01" nType="0">
          <Node pos="l" depth="2" NCoef="0" IVar="-1" Cut="0.0000000000000000e+00" cType="1" res="9.1450111940503120e-03" rms="2.7201187610626221e-01" purity="8.9227244257926941e-02" nType="-99"/>
          <Node pos="r" depth="2" NCoef="0" IVar="-1" Cut="0.0000000000000000e+00" cType="1" res="-1.5156214125454426e-02" rms="4.4670644402503967e-01" purity="3.5609236359596252e-01" nType="-99"/>
        </Node>
        <Node pos="r" depth="1" NCoef="0" IVar="1" Cut="4.9925467371940613e-01" cType="1" res="8.7681617587804794e-03" rms="3.6508151888847351e-01" purity="8.0478268861770630e-01" nType="0">
          <Node pos="l" depth="2" NCoef="0" IVar="-1" Cut="0.0000000000000000e+00" cType="1" res="1.6471154987812042e-02" rms="4.6035158634185791e-01" purity="6.6081005334854126e-01" nType="-99"/>
          <Node pos="r" depth="2" NCoef="0" IVar="-1" Cut="0.0000000000000000e+00" cType="1" res="-9.1972649097442627e-03" rms="2.8016924858093262e-01" purity="9.0398478507995605e-01" nType="-99"/>
        </Node>
      </Node>
    </BinaryTree>
    <BinaryTree type="DecisionTree" boostWeight="1.0000000000000000e+00" itree="52">
      <Node pos="s" depth="0" NCoef="0" IVar="1" Cut="-4.2755612730979919e-01" cType="1" res="-2.9927005525678396e-03" rms="3.4789344668388367e-01" purity="4.9838569760322571e-01" nType="0">
        <Node pos="l" depth="1" NCoef="0" IVar="1" Cut="-5.9057170152664185e-01" cType="1" res="5.0091976299881935e-03" rms="2.9008305072784424e-01" purity="1.0577416419982910e-01" nType="0">
          <Node pos="l" depth="2" NCoef="0" IVar="-1" Cut="0.0000000000000000e+00" cType="1" res="-1.1242163367569447e-02" rms="2.5443366169929504e-01" purity="7.4570275843143463e-02" nType="-99"/>
          <Node pos="r" depth="2" NCoef="0" IVar="-1" Cut="0.0000000000000000e+00" cType="1" res="5.1845621317625046e-02" rms="4.4074013829231262e-01" purity="2.8824335336685181e-01" nType="-99"/>
        </Node>
        <Node pos="r" depth="1" NCoef="0" IVar="1" Cut="-1.5658523142337799e-01" cType="1" res="-7.7960104681551456e-03" rms="3.7829536199569702e-01" purity="7.3405909538269043e-01" nType="0">
          <Node pos="l" depth="2" NCoef="0" IVar="-1" Cut="0.0000000000000000e+00" cType="1" res="-5.6325152516365051e-02" rms="4.2883765697479248e-01" purity="2.9009518027305603e-01" nType="-99"/>
          <Node pos="r" depth="2" NCoef="0" IVar="-1" Cut="0.0000000000000000e+00" cType="1" res="1.5779959503561258e-03" rms="3.7018015980720520e-01" purity="7.9112762212753296e-01" nType="-99"/>
        </Node>
      </Node>
    </BinaryTree>
    <BinaryTree type="DecisionTree" boostWeight="1.0000000000000000e+00" itree="53">
      <Node pos="s" depth="0" NCoef="0" IVar="0" Cut="3.3217114210128784e-01" cType="1" res="3.9244063373189420e-05" rms="3.4997490048408508e-01" purity="4.9627438187599182e-01" nType="0">
        <Node pos="l" depth="1" NCoef="0" IVar="1" Cut="-1.4580419659614563e-01" cType="1" res="1.3144793920218945e-02" rms="3.4145328402519226e-01" purity="3.1315630674362183e-01" nType="0">
          <Node pos="l" depth="2" NCoef="0" IVar="-1" Cut="0.0000000000000000e+00" cType="1" res="1.1716475710272789e-02" rms="2.8119954466819763e-01" purity="9.7461670637130737e-02" nType="-99"/>
          <Node pos="r" depth="2" NCoef="0" IVar="-1" Cut="0.0000000000000000e+00" cType="1" res="1.7168886959552765e-02" rms="4.2693391442298889e-01" purity="6.9257634878158569e-01" nType="-99"/>
        </Node>
        <Node pos="r" depth="1" NCoef="0" IVar="1" Cut="5.2135747671127319e-01" cType="1" res="-1.2947731651365757e-02" rms="3.5774618387222290e-01" purity="6.7773562669754028e-01" nType="0">
          <Node pos="l" depth="2" NCoef="0" IVar="-1" Cut="0.0000000000000000e+00" cType="1" res="-1.6921078786253929e-02" rms="4.3688917160034180e-01" purity="4.3682789802551270e-01" nType="-99"/>
          <Node pos="r" depth="2" NCoef="0" IVar="-1" Cut="0.0000000000000000e+00" cType="1" res="-1.4654510887339711e-03" rms="2.4915404617786407e-01" purity="9.2910921573638916e-01" nType="-99"/>
        </Node>
      </Node>
    </BinaryTree>
    <BinaryTree type="DecisionTree" boostWeight="1.0000000000000000e+00" itree="54">
      <Node pos="s" depth="0" NCoef="0" IVar="0" Cut="5.1978152990341187e-01" cType="1" res="-1.4906380965840071e-04" rms="3.6177697777748108e-01" purity="4.9658447504043579e-01" nType="0">
        <Node pos="l" depth="1" NCoef="0" IVar="0" Cut="-4.1950953006744385e-01" cType="1" res="1.6016818583011627e-02" rms="3.5326141119003296e-01" purity="3.5366803407669067e-01" nType="0">
          <Node pos="l" depth="2" NCoef="0" IVar="-1" Cut="0.0000000000000000e+00" cType="1" res="1.0957641527056694e-02" rms="3.3430951833724976e-01" purity="2.4696378409862518e-01" nType="-99"/>
          <Node pos="r" depth="2" NCoef="0" IVar="-1" Cut="0.0000000000000000e+00" cType="1" res="2.5084178894758224e-02" rms="3.7985828518867493e-01" purity="5.1512283086776733e-01" nType="-99"/>
        </Node>
        <Node pos="r" depth="1" NCoef="0" IVar="1" Cut="-6.1327296495437622e-01" cType="1" res="-2.1772155538201332e-02" rms="3.7176594138145447e-01" purity="6.8774610757827759e-01" nType="0">
          <Node pos="l" depth="2" NCoef="0" IVar="-1" Cut="0.0000000000000000e+00" cType="1" res="2.4034131318330765e-02" rms="3.7871369719505310e-01" purity="1.7836792767047882e-01" nType="-99"/>
          <Node pos="r" depth="2" NCoef="0" IVar="-1" Cut="0.0000000000000000e+00" cType="1" res="-2.5670019909739494e-02" rms="3.7019523978233337e-01" purity="7.7113926410675049e-01" nType="-99"/>
        </Node>
      </Node>
    </BinaryTree>
    <BinaryTree type="DecisionTree" boostWeight="1.0000000000000000e+00" itree="55">
      <Node pos="s" depth="0" NCoef="0" IVar="1" Cut="1.4146040380001068e-01" cType="1" res="3.2150377519428730e-03" rms="3.4910401701927185e-01" purity="5.0036442279815674e-01" nType="0">
        <Node pos="l" depth="1" NCoef="0" IVar="1" Cut="-2.9218211770057678e-01" cType="1" res="1.0828286409378052e-02" rms="3.5774147510528564e-01" purity="2.2108224034309387e-01" nType="0">
          <Node pos="l" depth="2" NCoef="0" IVar="-1" Cut="0.0000000000000000e+00" cType="1" res="-4.9342322163283825e-03" rms="3.0208536982536316e-01" purity="1.1868455260992050e-01" nType="-99"/>
          <Node pos="r" depth="2" NCoef="0" IVar="-1" Cut="0.0000000000000000e+00" cType="1" res="2.7646215632557869e-02" rms="4.8938733339309692e-01" purity="5.3864789009094238e-01" nType="-99"/>
        </Node>
        <Node pos="r" depth="1" NCoef="0" IVar="1" Cut="3.8540107011795044e-01" cType="1" res="-5.9246262535452843e-03" rms="3.3821746706962585e-01" purity="8.3564114570617676e-01" nType="0">
          <Node pos="l" depth="2" NCoef="0" IVar="-1" Cut="0.0000000000000000e+00" cType="1" res="-2.0942168310284615e-02" rms="4.7922509908676147e-01" purity="5.9935653209686279e-01" nType="-99"/>
          <Node pos="r" depth="2" NCoef="0" IVar="-1" Cut="0.0000000000000000e+00" cType="1" res="2.1915179677307606e-03" rms="2.9478964209556580e-01" purity="8.9132553339004517e-01" nType="-99"/>
        </Node>
      </Node>
    </BinaryTree>
    <BinaryTree type="DecisionTree" boostWeight="1.0000000000000000e+00" itree="56">
      <Node pos="s" depth="0" NCoef="0" IVar="1" Cut="3.3088973164558411e-01" cType="1" res="9.4483131542801857e-03" rms="3.5569459199905396e-01" purity="5.0662702322006226e-01" nType="0">
        <Node pos="l" depth="1" NCoef="0" IVar="0" Cut="2.3417346179485321e-01" cType="1" res="1.5775453299283981e-02" rms="3.8174200057983398e-01" purity="2.7559176087379456e-01" nType="0">
          <Node pos="l" depth="2" NCoef="0" IVar="-1" Cut="0.0000000000000000e+00" cType="1" res="1.0908754542469978e-02" rms="3.3409386873245239e-01" purity="1.8017323315143585e-01" nType="-99"/>
          <Node pos="r" depth="2" NCoef="0" IVar="-1" Cut="0.0000000000000000e+00" cType="1" res="1.8509529531002045e-02" rms="4.4454407691955566e-01" purity="4.2141282558441162e-01" nType="-99"/>
        </Node>
        <Node pos="r" depth="1" NCoef="0" IVar="0" Cut="-1.4125236868858337e-01" cType="1" res="-6.9041963433846831e-04" rms="3.0914705991744995e-01" purity="8.7684243917465210e-01" nType="0">
          <Node pos="l" depth="2" NCoef="0" IVar="-1" Cut="0.0000000000000000e+00" cType="1" res="-2.5988738983869553e-02" rms="4.1411262750625610e-01" purity="7.3919129371643066e-01" nType="-99"/>
          <Node pos="r" depth="2" NCoef="0" IVar="-1" Cut="0.0000000000000000e+00" cType="1" res="7.8594125807285309e-03" rms="2.8246462345123291e-01" purity="9.0486663579940796e-01" nType="-99"/>
        </Node>
      </Node>
    </BinaryTree>
    <BinaryTree type="DecisionTree" boostWeight="1.0000000000000000e+00" itree="57">
      <Node pos="s" depth="0" NCoef="0" IVar="1" Cut="5.1996189355850220e-01" cType="1" res="-6.9321230985224247e-03" rms="3.4738382697105408e-01" purity="5.0353854894638062e-01" nType="0">
        <Node pos="l" depth="1" NCoef="0" IVar="1" Cut="-2.7523297071456909e-01" cType="1" res="-1.4560146257281303e-02" rms="3.8260653614997864e-01" purity="3.0305594205856323e-01" nType="0">
          <Node pos="l" depth="2" NCoef="0" IVar="-1" Cut="0.0000000000000000e+00" cType="1" res="4.5128045603632927e-03" rms="3.1371253728866577e-01" purity="1.3132357597351074e-01" nType="-99"/>
          <Node pos="r" depth="2" NCoef="0" IVar="-1" Cut="0.0000000000000000e+00" cType="1" res="-2.2767394781112671e-02" rms="4.6722996234893799e-01" purity="5.6461495161056519e-01" nType="-99"/>
        </Node>
        <Node pos="r" depth="1" NCoef="0" IVar="1" Cut="7.9106575250625610e-01" cType="1" res="8.9711667969822884e-03" rms="2.5825390219688416e-01" purity="9.2151510715484619e-01" nType="0">
          <Node pos="l" depth="2" NCoef="0" IVar="-1" Cut="0.0000000000000000e+00" cType="1" res="1.4603038318455219e-02" rms="3.3696630597114563e-01" purity="8.6127603054046631e-01" nType="-99"/>
          <Node pos="r" depth="2" NCoef="0" IVar="-1" Cut="0.0000000000000000e+00" cType="1" res="6.3139204867184162e-03" rms="1.9042056798934937e-01" purity="9.6051609516143799e-01" nType="-99"/>
        </Node>
      </Node>
    </BinaryTree>
    <BinaryTree type="DecisionTree" boostWeight="1.0000000000000000e+00" itree="58">
      <Node pos="s" depth="0" NCoef="0" IVar="0" Cut="-1.4198100566864014e-01" cType="1" res="-8.2862627459689975e-04" rms="3.5771054029464722e-01" purity="4.9400177597999573e-01" nType="0">
        <Node pos="l" depth="1" NCoef="0" IVar="1" Cut="-5.1314584910869598e-02" cType="1" res="1.0953807272017002e-02" rms="3.3839181065559387e-01" purity="2.7779856324195862e-01" nType="0">
          <Node pos="l" depth="2" NCoef="0" IVar="-1" Cut="0.0000000000000000e+00" cType="1" res="-4.0548690594732761e-04" rms="2.8072509169578552e-01" purity="9.4748646020889282e-02" nType="-99"/>
          <Node pos="r" depth="2" NCoef="0" IVar="-1" Cut="0.0000000000000000e+00" cType="1" res="2.0909277722239494e-02" rms="4.3845742940902710e-01" purity="6.8083864450454712e-01" nType="-99"/>
        </Node>
        <Node pos="r" depth="1" NCoef="0" IVar="1" Cut="-1.4208403229713440e-01" cType="1" res="-8.5733877494931221e-03" rms="3.6965528130531311e-01" purity="6.3611525297164917e-01" nType="0">
          <Node pos="l" depth="2" NCoef="0" IVar="-1" Cut="0.0000000000000000e+00" cType="1" res="1.0677944868803024e-02" rms="4.0418082475662231e-01" purity="2.5110474228858948e-01" nType="-99"/>
          <Node pos="r" depth="2" NCoef="0" IVar="-1" Cut="0.0000000000000000e+00" cType="1" res="-1.6910770907998085e-02" rms="3.5150766372680664e-01" purity="8.2058817148208618e-01" nType="-99"/>
        </Node>
      </Node>
    </BinaryTree>
    <BinaryTree type="DecisionTree" boostWeight="1.0000000000000000e+00" itree="59">
      <Node pos="s" depth="0" NCoef="0" IVar="0" Cut="2.3719529807567596e-01" cType="1" res="-6.6510979086160660e-03" rms="3.4872266650199890e-01" purity="4.9449050426483154e-01" nType="0">
        <Node pos="l" depth="1" NCoef="0" IVar="1" Cut="4.1581895202398300e-02" cType="1" res="-1.4279300346970558e-02" rms="3.3515718579292297e-01" purity="2.8265875577926636e-01" nType="0">
          <Node pos="l" depth="2" NCoef="0" IVar="-1" Cut="0.0000000000000000e+00" cType="1" res="-1.3926899991929531e-02" rms="2.8943017125129700e-01" purity="1.1345337331295013e-01" nType="-99"/>
          <Node pos="r" depth="2" NCoef="0" IVar="-1" Cut="0.0000000000000000e+00" cType="1" res="-2.0143870264291763e-02" rms="4.2391425371170044e-01" purity="6.8387842178344727e-01" nType="-99"/>
        </Node>
        <Node pos="r" depth="1" NCoef="0" IVar="0" Cut="8.1614762544631958e-01" cType="1" res="9.8427743068896234e-05" rms="3.6016520857810974e-01" purity="6.8192166090011597e-01" nType="0">
          <Node pos="l" depth="2" NCoef="0" IVar="-1" Cut="0.0000000000000000e+00" cType="1" res="1.3737078756093979e-02" rms="3.7265840172767639e-01" purity="6.3762545585632324e-01" nType="-99"/>
          <Node pos="r" depth="2" NCoef="0" IVar="-1" Cut="0.0000000000000000e+00" cType="1" res="-1.9620276987552643e-02" rms="3.4322828054428101e-01" purity="7.3597353696823120e-01" nType="-99"/>
        </Node>
      </Node>
    </BinaryTree>
    <BinaryTree type="DecisionTree" boostWeight="1.0000000000000000e+00" itree="60">
      <Node pos="s" depth="0" NCoef="0" IVar="0" Cut="7.1083772182464600e-01" cType="1" res="-8.7432032451033592e-03" rms="3.5236412286758423e-01" purity="4.8608031868934631e-01" nType="0">
        <Node pos="l" depth="1" NCoef="0" IVar="1" Cut="-6.1873054504394531e-01" cType="1" res="-1.9740022718906403e-02" rms="3.5044860839843750e-01" purity="3.6352595686912537e-01" nType="0">
          <Node pos="l" depth="2" NCoef="0" IVar="-1" Cut="0.0000000000000000e+00" cType="1" res="2.6288859080523252e-03" rms="2.3651225864887238e-01" purity="6.5154805779457092e-02" nType="-99"/>
          <Node pos="r" depth="2" NCoef="0" IVar="-1" Cut="0.0000000000000000e+00" cType="1" res="-2.5438129901885986e-02" rms="4.1046372056007385e-01" purity="5.6946855783462524e-01" nType="-99"/>
        </Node>
        <Node pos="r" depth="1" NCoef="0" IVar="1" Cut="1.4394992589950562e-01" cType="1" res="1.4476269483566284e-02" rms="3.5525837540626526e-01" purity="7.4485039710998535e-01" nType="0">
          <Node pos="l" depth="2" NCoef="0" IVar="-1" Cut="0.0000000000000000e+00" cType="1" res="3.2519463449716568e-02" rms="4.5000052452087402e-01" purity="4.2965349555015564e-01" nType="-99"/>
          <Node pos="r" depth="2" NCoef="0" IVar="-1" Cut="0.0000000000000000e+00" cType="1" res="-9.9897815380245447e-04" rms="3.0494695901870728e-01" purity="8.7880510091781616e-01" nType="-99"/>
        </Node>
      </Node>
    </BinaryTree>
    <BinaryTree type="DecisionTree" boostWeight="1.0000000000000000e+00" itree="61">
      <Node pos="s" depth="0" NCoef="0" IVar="1" Cut="-4.9011759459972382e-02" cType="1" res="-2.1621228370349854e-04" rms="3.4676697850227356e-01" purity="4.9779504537582397e-01" nType="0">
        <Node pos="l" depth="1" NCoef="0" IVar="0" Cut="6.9535279273986816e-01" cType="1" res="-6.1124893836677074e-03" rms="3.3151814341545105e-01" purity="1.6073167324066162e-01" nType="0">
          <Node pos="l" depth="2" NCoef="0" IVar="-1" Cut="0.0000000000000000e+00" cType="1" res="-3.3485458698123693e-03" rms="3.0989044904708862e-01" purity="1.3260751962661743e-01" nType="-99"/>
          <Node pos="r" depth="2" NCoef="0" IVar="-1" Cut="0.0000000000000000e+00" cType="1" res="-2.0121091976761818e-02" rms="4.2660346627235413e-01" purity="3.0796912312507629e-01" nType="-99"/>
        </Node>
        <Node pos="r" depth="1" NCoef="0" IVar="1" Cut="3.4863063693046570e-01" cType="1" res="5.1500545814633369e-03" rms="3.6000031232833862e-01" purity="8.0456024408340454e-01" nType="0">
          <Node pos="l" depth="2" NCoef="0" IVar="-1" Cut="0.0000000000000000e+00" cType="1" res="1.1323218233883381e-02" rms="4.8530477285385132e-01" purity="5.9026396274566650e-01" nType="-99"/>
          <Node pos="r" depth="2" NCoef="0" IVar="-1" Cut="0.0000000000000000e+00" cType="1" res="-1.0388998780399561e-03" rms="3.0327332019805908e-01" purity="8.8039481639862061e-01" nType="-99"/>
        </Node>
      </Node>
    </BinaryTree>
    <BinaryTree type="DecisionTree" boostWeight="1.0000000000000000e+00" itree="62">
      <Node pos="s" depth="0" NCoef="0" IVar="0" Cut="4.2710277438163757e-01" cType="1" res="-1.8440036801621318e-03" rms="3.5258057713508606e-01" purity="4.8824235796928406e-01" nType="0">
        <Node pos="l" depth="1" NCoef="0" IVar="0" Cut="-4.7646742314100266e-02" cType="1" res="-6.3996310345828533e-03" rms="3.4394916892051697e-01" purity="3.0595847964286804e-01" nType="0">
          <Node pos="l" depth="2" NCoef="0" IVar="-1" Cut="0.0000000000000000e+00" cType="1" res="2.6774576399475336e-03" rms="3.3106276392936707e-01" purity="2.6081660389900208e-01" nType="-99"/>
          <Node pos="r" depth="2" NCoef="0" IVar="-1" Cut="0.0000000000000000e+00" cType="1" res="-3.2619558274745941e-02" rms="3.8225704431533813e-01" purity="4.5574474334716797e-01" nType="-99"/>
        </Node>
        <Node pos="r" depth="1" NCoef="0" IVar="1" Cut="6.1679422855377197e-01" cType="1" res="3.3011473715305328e-03" rms="3.6201268434524536e-01" purity="6.9411468505859375e-01" nType="0">
          <Node pos="l" depth="2" NCoef="0" IVar="-1" Cut="0.0000000000000000e+00" cType="1" res="6.9235418923199177e-03" rms="4.3416681885719299e-01" purity="5.0356090068817139e-01" nType="-99"/>
          <Node pos="r" depth="2" NCoef="0" IVar="-1" Cut="0.0000000000000000e+00" cType="1" res="-1.1200132779777050e-02" rms="2.4104942381381989e-01" purity="9.3554317951202393e-01" nType="-99"/>
        </Node>
      </Node>
    </BinaryTree>
    <BinaryTree type="DecisionTree" boostWeight="1.0000000000000000e+00" itree="63">
      <Node pos="s" depth="0" NCoef="0" IVar="0" Cut="-9.0130299329757690e-01" cType="1" res="4.6929353848099709e-03" rms="3.4844180941581726e-01" purity="5.0424295663833618e-01" nType="0">
        <Node pos="l" depth="1" NCoef="0" IVar="1" Cut="-7.1420472860336304e-01" cType="1" res="-1.1011999100446701e-02" rms="3.0252313613891602e-01" purity="1.7546221613883972e-01" nType="0">
          <Node pos="l" depth="2" NCoef="0" IVar="-1" Cut="0.0000000000000000e+00" cType="1" res="3.9247587323188782e-02" rms="1.7134988307952881e-01" purity="3.0369257554411888e-02" nType="-99"/>
          <Node pos="r" depth="2" NCoef="0" IVar="-1" Cut="0.0000000000000000e+00" cType="1" res="-2.2877348586916924e-02" rms="3.9548069238662720e-01" purity="3.2818341255187988e-01" nType="-99"/>
        </Node>
        <Node pos="r" depth="1" NCoef="0" IVar="1" Cut="-3.3235195279121399e-01" cType="1" res="8.4367822855710983e-03" rms="3.5841959714889526e-01" purity="5.8261984586715698e-01" nType="0">
          <Node pos="l" depth="2" NCoef="0" IVar="-1" Cut="0.0000000000000000e+00" cType="1" res="-5.0883606309071183e-04" rms="3.4381639957427979e-01" purity="1.5059465169906616e-01" nType="-99"/>
          <Node pos="r" depth="2" NCoef="0" IVar="-1" Cut="0.0000000000000000e+00" cType="1" res="9.9998330697417259e-03" rms="3.6512976884841919e-01" purity="7.8946703672409058e-01" nType="-99"/>
        </Node>
      </Node>
    </BinaryTree>
    <BinaryTree type="DecisionTree" boostWeight="1.0000000000000000e+00" itree="64">
      <Node pos="s" depth="0" NCoef="0" IVar="1" Cut="4.7096416354179382e-02" cType="1" res="1.3953397283330560e-03" rms="3.4303534030914307e-01" purity="4.9634659290313721e-01" nType="0">
        <Node pos="l" depth="1" NCoef="0" IVar="0" Cut="7.0426863431930542e-01" cType="1" res="-1.0802287608385086e-02" rms="3.4048861265182495e-01" purity="1.7585374414920807e-01" nType="0">
          <Node pos="l" depth="2" NCoef="0" IVar="-1" Cut="0.0000000000000000e+00" cType="1" res="-5.4905302822589874e-03" rms="3.2052963972091675e-01" purity="1.4985369145870209e-01" nType="-99"/>
          <Node pos="r" depth="2" NCoef="0" IVar="-1" Cut="0.0000000000000000e+00" cType="1" res="-3.4164275974035263e-02" rms="4.2699295282363892e-01" purity="3.0980926752090454e-01" nType="-99"/>
        </Node>
        <Node pos="r" depth="1" NCoef="0" IVar="1" Cut="7.6933109760284424e-01" cType="1" res="1.4017779380083084e-02" rms="3.4519749879837036e-01" purity="8.2800132036209106e-01" nType="0">
          <Node pos="l" depth="2" NCoef="0" IVar="-1" Cut="0.0000000000000000e+00" cType="1" res="1.2740969657897949e-02" rms="4.1755637526512146e-01" purity="7.3789626359939575e-01" nType="-99"/>
          <Node pos="r" depth="2" NCoef="0" IVar="-1" Cut="0.0000000000000000e+00" cType="1" res="6.5050558187067509e-03" rms="2.0094864070415497e-01" purity="9.5627903938293457e-01" nType="-99"/>
        </Node>
      </Node>
